CD2AP	0.0046675014 0.003207735 0.00030672216 0.0009512299 0.00012305449 0.00074951845 -0.00070260593 -0.0023360744 -0.0021822543 -0.0049734195 -0.0015752242 -0.004743205 0.004199941 -0.0044690883 -0.0038741145 0.0024461905 0.0031679242 0.0020183593 -0.003917449 0.0049611265 0.004242219 -0.0021062205 -0.0015061169 0.00466398 0.0034880487 0.0023223176 0.0005664104 0.0025092538 -0.00392421 -0.001225524 -0.0009518307 0.0013552661 -0.003767625 0.0025208674 0.003688516 0.0021608954 0.0027499816 0.0042250426 0.001473516 -0.0040909434 -0.0038564852 -0.0030301413 -0.0011822348 -0.003787941 -0.002884514 -0.0044709602 -0.0005273256 -0.00065502396 -0.0018604101 0.00090301555 -0.00049026025 -0.0031650877 0.0015372708 0.0014705127 0.0012764827 0.00074272347 -0.0015245761 0.001053385 -0.004033787 0.0029514038 -0.0015804777 -0.0016576255 0.0014834818 -0.0030965172 0.003296877 0.0012796994 0.0037821569 0.0018355526 0.0026903164 0.00067641266 0.0039649843 0.0033052699 -0.0022476027 -0.0010486305 0.0020877377 0.0030943484 -0.0021298146 0.004585373 -0.003975482 0.0019280557 -0.0008559413 -0.0015935032 0.0037554079 -0.0043598535 0.0042672805 -0.0016606064 0.00024622178 0.0039374568 -0.0044055567 -0.0041366694 2.8465316e-05 0.0036250763 -0.004764509 -0.0027434176 -0.004861176 -0.0015374685 -0.0007625233 -0.0005709958 -0.0042049983 -0.0013188404 
DHODH	0.00397397 -0.0028936754 0.0011622163 0.0002348354 -0.0015590643 0.00030008698 -0.0011611971 -0.0023373857 0.0012490375 -0.004208676 -0.0037507392 0.00395826 0.00021728249 0.0031267856 0.0036571785 0.0034494577 0.0035014024 -0.0042117047 -0.003882513 -0.0042831614 -0.0016183048 -0.002523458 0.0044904733 0.003866542 -0.00083759136 -0.0009394038 -0.0039095758 -0.003205661 -0.0001493461 -0.0038321547 -0.0043760072 -0.0038109988 0.0025079702 -0.0046249744 -0.0025976868 0.0036701697 -0.0025984591 -0.0024267843 2.5444082e-05 -0.0012729557 -0.0038579837 0.0009888024 -0.002916569 -0.0014345581 0.004082198 0.0035914138 -0.0019189 -0.0048674606 -0.0026552014 0.0017604972 0.004893078 -0.0046352157 0.004078419 0.0007508042 0.0045819697 -0.0026895718 -0.00064869854 -0.004090724 -0.00083785335 0.0010165974 -0.00051829516 0.0013761255 0.0033380857 -0.0020816694 0.0046314267 0.003556199 -0.0041343994 -0.0022454478 0.0014733635 -0.0016834529 -0.0010467434 -0.003136812 0.0040500816 0.00021160762 0.0016833862 -0.0007446713 -0.0014434457 -0.004617444 -0.0019039139 -0.0022241704 -0.0031356753 -0.00041829317 -0.0036150953 0.0027682565 -0.0019235596 0.002870504 0.0047759875 -0.0025614738 -0.0025083595 0.0024138498 0.0020157732 0.0033672333 -0.0003766544 -0.0034636545 0.0047722207 -0.0017885645 -0.00038110281 0.0034386406 -0.0036497593 0.0037866523 
NMS	-0.0040600733 -0.0038171213 0.0047956184 0.0016653246 0.003529747 -0.00285088 -0.0001900163 -0.003806241 -0.0028718752 -0.0045003216 0.0029249836 0.0036758548 0.0013102243 -0.0017645328 -0.0016330415 0.0020349175 0.0011168094 -0.0025988994 -0.004909454 -0.0017043888 0.003998994 -0.002540061 -0.00257129 0.0039742836 2.1455207e-05 -0.00057689275 0.00051301834 -0.004880264 -0.0018831019 0.00080514274 0.0025531722 0.0014463406 -0.0026402876 -0.0023593735 0.00012348441 -0.0019574885 0.0022062932 0.00065417873 0.0047578476 -0.002738017 0.0015910317 -0.0038614087 0.0045919577 0.0021029674 -0.0003861149 0.0046011982 0.00037440102 -0.00086904893 0.004909478 -0.0024634567 0.0049990043 0.003732774 -0.0016272104 0.0006451916 0.0006960747 -0.002725353 0.002418503 -6.969622e-05 0.0040594474 -0.0026284442 -0.0010105133 0.00010778574 0.0043563303 -0.0038340373 0.0036289766 0.0019178062 -0.0025246204 0.0036338032 -0.0028512655 0.00033934784 -0.0033683477 0.0009448358 0.0035028982 -0.0029140916 -0.0038682695 3.6672012e-05 -0.0046114144 -0.00477085 -0.004546967 0.0028517132 0.00092855137 0.0020641098 0.002366907 0.0036680608 -0.0031829386 -0.0031150249 0.00019047123 -0.0021823812 0.0020503618 -0.0018020574 0.0024961426 -0.0007543475 -0.0038158777 0.001958522 -0.0030660082 0.004087059 -0.0045300378 0.0042181974 0.00467908 0.0008431217 
ZDHHC22	-0.0032465223 -0.0022145896 -0.0040417416 0.0037861497 -0.0018491927 -0.0010326789 0.00025237782 -0.0014116009 -0.0011953316 -0.004741446 0.0044666827 0.004096262 0.0026672294 0.0035249535 -0.004121877 0.0047787754 -0.0011512933 -0.0018947537 0.00020782906 0.0033181733 0.0031377093 -0.0028425374 -0.001737475 -0.0033251054 -0.0015376204 -8.02815e-05 -0.004055771 0.0038510268 -0.0031269498 0.0034706218 -0.00016093369 -0.0034185268 0.0034923789 -0.0028984537 0.0013193097 -0.0041251043 0.0029254567 -0.0012339018 -0.001203367 0.0043075974 -0.0022686818 -0.001496173 -0.004717262 0.00042808586 0.003270933 0.00052604027 0.0036982407 -0.0042944336 0.0034022261 0.0038628292 0.0033136243 -0.001658864 -0.0030603746 -0.0017251759 -0.0039242906 0.0032246849 -0.0026253795 0.00064625207 -0.0028831877 -0.0009001414 0.0010316112 -0.0012732827 -0.002395907 0.004600066 0.0008943606 -0.00025167878 -0.0020548461 0.0020628916 0.0007105854 0.0028074216 -0.0024305668 0.0024699045 -0.0015576544 0.0038211818 0.0024592187 -0.0032964635 0.0041607246 0.004422513 0.0009685459 -0.0019441494 0.0037621607 -0.0017064015 0.002047856 -0.002983646 0.0031680088 0.0035836978 -0.0007800495 -0.000132572 0.0029887317 -0.0028563628 -0.0023609158 -0.0017283534 0.0038708795 -0.002590476 0.0021160056 -0.0044139335 -0.00025017263 -0.0016476153 0.003998896 0.003463763 
NCR3	0.0036685858 0.0037214821 -0.0027803874 0.000514126 0.0031768943 -0.00420351 -0.0014271348 -0.0031926897 0.0033872803 -0.0015362811 0.0034489834 0.0013707088 0.0022300512 0.00390687 0.00030105613 0.0021413548 -0.002327843 0.003632392 -0.0014402359 0.0035015899 -0.002744771 -0.0038874852 0.00017077736 -0.0025783062 -0.0042518945 -0.004948325 -0.00034490353 -0.0047452855 -0.0034672553 -0.000101177335 -0.0022687758 -0.0009624929 -0.00394123 -0.00050541665 -0.0007500088 -0.0023326566 0.0025086373 0.0021553715 -0.0036633306 -0.0024139655 -0.004966998 -0.004985214 -0.0016172432 0.0021620458 -0.0013786099 -0.0042922446 -0.0010720777 -0.0045184246 0.003712879 0.003741444 0.00011605373 0.0018090254 -0.0010799599 0.0026315686 -0.0028958619 0.0035831747 -0.0025949946 0.0006476951 0.0009428724 0.0037228563 -0.003546205 0.0018819624 0.0016876193 -0.0013415908 0.0013976038 0.0024653336 0.0049937326 0.0029883387 -0.0031821218 -0.0047116713 -0.002133401 -8.4194835e-06 -0.00204381 -0.0042469376 -0.0017720044 0.0019735654 0.0043355054 0.0010381838 0.0025099744 -0.003861328 0.00075624534 0.00070076616 -0.0032029075 0.0020595593 0.0042418595 0.0004253385 -0.0037083703 0.0042278166 0.0022399453 -0.0016354822 -0.0040732324 0.0031256306 0.0037764916 -0.0039173104 0.0040091504 0.00434238 0.0020149269 -0.0012914233 0.0017628869 0.00023361047 
DARS	-0.0020327042 0.0048474274 -0.004672356 -0.0040198886 -0.0024186661 -0.00044640494 0.00048117284 0.0012740128 0.0033505813 0.003243814 -0.0038533325 -0.0045690727 -0.0028762107 -0.001294705 -0.0047372626 0.0023917493 0.0045980127 0.0004359811 0.0002693701 0.00042363073 -0.0041488116 -0.0026367619 -0.0030956878 0.003360151 -0.0028368263 -0.001861561 0.004702916 -0.0043764943 0.00072451786 -0.0011083989 -0.00021978676 0.0022119887 -0.0020177055 -0.00020601759 -0.00020118455 -0.0048399083 -0.00022347365 -0.0014991194 0.00498758 -0.0030632191 0.0033663881 0.0025414166 0.0025518304 -0.0040457575 0.0049177166 0.0021444322 -0.0018373322 -0.0030047765 0.0037976312 0.004139699 0.0016117007 0.0011793183 0.002145857 0.0018746924 0.0015651656 0.0035454729 -0.002097965 0.0028346619 0.0048218938 0.004275003 0.002459397 -0.00336399 -0.003207225 -0.0018553677 -0.0007973614 -0.0027921193 -0.0045623807 -0.00119596 -0.003688076 9.157719e-05 0.0022398434 0.0006756017 0.0022641264 0.0019608596 0.0022291292 0.0014248677 0.0045984024 -0.004599991 -0.004938144 0.0006470182 -0.00037939593 -0.0041620852 -0.0032921066 -0.004313103 -0.004218692 0.0029233375 4.2461474e-05 -0.000739008 0.0003440647 0.00030094787 0.0014051929 0.0016486506 -0.0023947202 0.0012477017 0.0010784419 0.003346908 0.0033859191 -0.003955335 -0.0036774965 0.004577241 
MLLT1	-0.0019135827 -0.0012387282 -0.0014072802 -0.002114501 0.0047539873 -0.0005525095 0.0008057642 -0.0013480709 -0.0041646766 -0.00018800437 -0.0033586002 -6.612813e-05 0.0027653205 0.001509912 -0.0032394077 0.0012502011 -0.004038883 -0.00014767819 -0.0041687014 0.003377031 0.0041585043 0.0015649729 0.00065066904 0.0033539317 -0.0034390325 0.0049018585 -0.004839994 0.00044051604 -0.0028814971 -0.0042012474 -0.003487475 -0.003836638 0.003378349 -0.0031834855 0.003986278 0.0024395264 -0.003890583 0.003429569 0.0018933438 0.0046896436 -0.0035448843 -0.0036831305 -0.0010124187 -0.0012988832 0.0028682738 0.004107454 -0.0036519512 -0.0020951773 0.0018009463 0.002283552 0.0013523567 -0.002464834 -0.0007781144 -0.0036858295 -0.0002592565 -0.0034244293 0.0023025337 0.0013072176 0.0044633686 -0.0014528066 -0.0016594223 -0.0021917066 -0.004409077 0.0010445925 -0.0043603266 0.004760507 -0.0030638105 -0.004548892 -0.0003856666 7.824442e-05 -0.0025764192 0.00053180195 -0.003998358 0.0029028093 -0.0044526225 0.0009080312 0.0042751017 0.004634943 -0.0010547051 0.003079633 -0.0010630823 0.004589237 0.00016104181 0.0016323385 0.0005104956 -0.0012284875 0.0011304662 0.0009992277 -0.0046654725 0.004658231 0.0016391174 0.0041110744 -0.0027400611 -0.0009334813 -0.0030188505 -0.004798183 0.0023751906 -0.0007158984 -0.00093950995 -0.0017120404 
ETV7	0.0038651072 -0.004136065 -0.0036297496 -0.002616105 -0.0024535623 0.0018665402 0.0032643143 -0.0048511326 -0.0034951787 0.00084485475 -0.0002280223 -0.0012995324 -0.003754004 -0.003436903 0.0023834913 -0.004371649 -0.0032017173 -0.0032997406 0.0036810208 -0.0026118504 -0.002512633 0.00050882605 0.003711 -0.0035617808 0.0014887007 -0.00067696476 0.002288599 0.0017696269 0.0035941168 -0.0005598953 -0.0007260432 -0.0015534007 0.0011702356 0.0009101801 0.0022207948 -0.003193831 -0.0026502705 -0.0025339716 0.0036523738 -0.0015221803 0.0038703275 0.0036866555 0.0017115809 0.0011594571 -0.0014160593 0.0041253855 0.0025272872 -0.0012229211 -0.00052047544 0.0002728477 0.00087988476 -0.0028913375 -0.0028051515 0.0032246609 0.0017232631 -0.003506415 -0.0026428897 -0.0027618522 -0.0021744005 0.001691615 0.0049818614 -0.0023961172 -0.0003760221 -0.0010300482 0.0005708751 -0.0020346488 -0.0046844436 0.0027652753 -0.0011150425 -0.0033446134 0.0020538846 0.0027324136 0.0011346776 -0.0017901395 -0.004435963 0.0022839322 0.0039495537 -0.004519134 0.0010859976 0.002896828 -0.0030973875 0.0043145204 0.004075487 -0.004708333 0.0025627157 -0.0006146302 -0.004817543 0.004671572 -0.0018551355 -0.0037050548 0.004161508 0.004867692 0.0037241315 0.0034564976 0.0004492964 -0.00061944773 0.003132031 0.002875926 -0.00205089 -0.00296195 
EID2	-9.60904e-05 -0.00425188 0.0038740742 0.004321754 -0.001159021 0.0041896226 9.413706e-05 -0.0034808207 0.0005145756 -0.001681269 -0.0032022959 0.0036727455 -0.0015740283 0.003382109 0.002493712 0.0046221297 0.0012569501 -0.0037017993 -0.004185642 -0.002334847 0.0021080335 0.004033919 -0.0008989912 -0.003394137 0.004449664 -0.002027533 -0.0034310825 0.0036477158 0.0038367445 0.002199214 0.0036304093 0.0024268292 0.0027257956 0.0017299734 -0.0011325602 -0.004535672 -0.0033703288 0.0018726104 -0.002896263 0.00038662762 -0.0021538176 0.0030981593 -0.00092437596 0.002564314 0.0040088864 -0.0011400848 -0.0013906568 0.0040989555 -0.0032876222 0.0004186908 -0.00413458 0.0008767656 0.0004847163 -0.0012356346 0.003917802 -0.0018325952 -0.0027918955 -0.0002085383 -0.0043651527 0.0032068125 7.8036144e-05 0.0025489673 -0.0005694696 0.0026950033 0.0033869133 0.00322087 0.0021013755 0.0017784501 -0.0013490095 0.000512014 -0.0015041004 -0.0040087667 0.0013688004 0.0012277552 0.0048711495 -0.003186109 -0.0012302705 0.00041714392 -0.002606558 -0.004783376 0.0007377398 0.0037727582 0.0013011151 0.00051346846 -0.0010221478 0.004450046 0.0021958556 0.004250511 -0.0038119894 -0.0049049454 2.949373e-05 0.0049104085 -0.0030268296 -0.0037917786 -2.5418536e-05 -0.00499135 0.0034171098 -0.0011884645 -0.00065825623 0.003972762 
GCLC	0.000742786 0.00053179724 -0.00438329 0.0038112318 -0.003030401 -0.000154172 -0.0020632818 -0.0027294247 0.0017030422 -0.0016979056 0.0023010685 -0.000503203 -0.0038858952 0.00128073 0.0028373862 0.00042571485 -0.0026880652 0.002323503 -0.00029990126 0.001192025 -0.003993323 0.0036736105 0.00040936947 0.004924862 0.004831996 0.0040707877 -0.0037863962 -0.0002758065 -0.0009728882 -0.0030860186 -0.0002753542 0.0027497348 -0.0026166935 0.0010837198 -0.0048690415 -0.0020145366 -0.0041344776 0.0036372181 0.0033297972 0.0037401454 -0.0037875534 0.0018162153 -9.2531045e-06 0.0007131974 -0.00086904754 -0.0041249804 0.0022460143 -0.0025401455 -0.004782059 -0.0019779506 0.0010206966 0.0033133284 0.0030017456 0.0010347805 0.00051839504 3.5418536e-05 -0.0049108365 0.0006329721 0.0023719054 -0.0039331825 0.003200698 0.0047681043 -0.0045483275 0.0047814664 -0.00014619778 -0.0009936885 -0.0039885393 0.0033525499 -0.00468911 -0.004295132 0.0009215258 0.0011799566 -0.004900646 -0.0031162372 0.00478928 0.001832203 0.003185096 -0.000115916475 -0.0046673003 -0.0043155104 0.0043107267 -0.00023585434 0.0047414326 0.0026070743 0.0005382063 0.0019633274 -0.0024782035 -0.0046408293 -0.003749609 0.002787398 0.0021251019 0.0033332577 -0.0025013834 -0.002102244 -0.004754551 -0.002191151 0.0017072305 0.0006863026 -0.0027377405 -0.0038602191 
NAA35	-0.00086924864 -0.00076067663 2.4423036e-05 0.0016940914 0.003578798 0.0018182825 -0.004061536 0.003681632 0.0013902966 0.0007400067 0.0022116017 -0.0019984285 0.00459942 0.004053135 0.0033189964 0.0039057317 0.0016284145 -0.00014747214 0.0015620016 0.0043448284 0.003838613 -0.00015335275 0.00087405305 -0.0018860113 0.0010282549 0.0048381784 0.0011341912 0.0016769439 -0.0023942092 0.0021361178 0.0031775513 0.0034810521 0.0031990565 -0.004995825 -0.0013284956 0.0014886262 -0.00460562 0.0015380133 -0.0021714824 -0.00058515655 -0.0049307314 -0.0048082834 -0.00057709654 -0.003906376 0.0017731553 0.0047628987 -0.0010659941 -0.0006325657 -0.00012459366 0.0038063596 0.0012095731 -0.0012550227 -0.00012257142 -0.0016151908 -0.00015552343 0.0018919896 -0.003712365 -0.004421287 0.00013545234 0.0015539713 -0.0049128328 -0.0034647207 0.00046147296 0.0022194304 0.0020025007 -0.0014763292 0.003158619 -0.0014179162 -0.004741089 0.0022644962 -0.0045693167 0.0035002686 -0.0007906309 -0.000657409 0.004865564 -0.002741881 0.0040615997 -0.0022502467 0.004342157 0.0039479015 -0.0032808213 -0.0028581212 -0.0025195046 -0.0045550214 0.004185751 0.0041412693 0.0006428642 0.0022314193 -0.003587674 -0.0022742422 -0.0030737005 0.0012928229 -0.002913359 -0.0004245859 -0.0023304063 0.0042782803 -0.00077755976 -0.004080047 0.0036306456 0.0015968255 
HEY1	-0.0031013452 -0.0026087107 0.001638138 0.00053968374 0.0010248502 -0.002687447 -0.0015482947 -0.002472276 0.00012583406 -0.0027786724 -0.002254491 -0.0040279017 0.0036807319 0.0045725917 0.00039368786 -0.00044587994 -0.0048075854 -0.0040085153 0.003223701 0.0007370572 0.0029459374 -0.0027335302 0.003339753 0.003739172 0.0024080002 0.00072785735 -0.0022299523 -0.0013821212 -0.001726717 0.0037397346 0.00088471314 -0.0014847899 0.004307557 -0.004517099 -0.0009410005 0.004776841 0.003268705 0.0015159108 0.0042456966 0.003385655 0.00028866113 -2.3882529e-05 -0.003749886 -0.00017587097 0.0018897384 -0.002900651 0.0012773859 0.00093437417 -0.0038987314 -0.0032765004 -0.0026614454 -0.0048302165 -0.0015403839 0.0014638301 0.0046788054 -0.004462909 0.0009735526 -0.002749691 -0.004450017 -0.0033976475 0.00071802817 -0.001834428 0.0021806727 0.0016140917 -0.0003549048 -0.0001670551 -0.0018396147 -0.0029167766 -0.0013863472 -0.004633401 0.0038304022 -0.002495263 -0.0028452757 0.0013066094 0.0017954248 0.00037419458 0.004160301 -0.0032636228 0.002786019 0.0019111979 0.00079831056 0.0018368125 -4.953099e-05 0.0033398801 -0.0027768856 0.004927021 0.0003186614 0.0011406624 -0.004202212 0.0030106516 -0.0039989883 -0.0026653134 -0.004151368 -0.001315762 0.0038290161 -0.0049596005 0.0020323952 0.0029942868 -0.0020489641 0.0049432544 
PEMT	0.0014581683 0.0036700468 -0.00264641 -0.003862916 -0.0008313733 0.00041890214 0.0008296793 0.003617268 0.002029299 -0.0003686777 -0.001339691 -0.003979054 0.0018670425 -0.00011413836 0.004310327 0.0043974975 -0.0038213106 0.0021756643 -0.004963234 0.00350348 -0.0032533198 0.0033707805 0.0021139819 -0.00036117938 -0.0033230276 -0.0019919965 -0.0038545295 0.0025795675 0.0029845221 -0.0027916818 -0.0023971342 -0.004986431 -0.0030263853 0.0020862469 0.0031230433 -0.0034313737 -0.0025352642 -0.0011342084 0.004695499 -0.0047284486 0.002184394 0.0036082473 -3.9349055e-05 0.0044664093 0.0012903458 -0.0033623714 -0.0003431471 0.004794493 0.00026658658 -0.0035016343 -0.0024335552 -0.0020090973 0.0036909068 -0.002887452 0.0013853778 -0.0045743757 0.0047662575 -0.0009367045 0.004069617 0.0034734665 0.0037332196 0.0034305353 -0.00028911888 0.0012355534 0.0027673147 -0.0023380313 -0.0003627064 0.0020431492 0.004361014 -0.0013502266 0.004101718 0.0007624561 -0.0009657938 0.0009890064 -0.0014792923 0.003164894 0.002893934 0.0045574163 0.0006426837 0.0033409826 -0.004644612 0.0014658221 0.00021368016 -0.0048647434 -0.0046525244 -0.0003323388 -0.0018632909 0.004078369 -0.00102334 -0.0022682277 0.0015792839 0.00096524536 -0.0028589552 -0.0006446328 0.0013936346 0.00396095 -0.003452786 0.0034159226 -0.0042054513 0.004072613 
BST2	-0.00021005054 0.0009931746 0.002958391 0.0026407798 -0.0048041227 0.0028944828 0.00033661234 -0.0036455835 0.0038990367 -0.0024464144 0.0032489675 -0.0017192544 0.0002798759 -0.001569368 0.001978374 -0.0048343064 -0.0009027738 0.0029434448 0.0027252247 0.0011659793 -0.00057607854 -0.0041546626 -0.0007989108 0.0045877965 -0.00439913 -0.0047242767 -0.0005930485 -0.00035892203 0.0049965973 0.0032164622 -0.0031267905 0.00052134454 -0.0037220756 0.003962336 -0.0021215396 -0.0015205437 0.0025923029 0.0037507701 0.00036487603 0.002484875 -0.0009890647 -0.00057743635 -0.0042809458 0.000911624 -0.0002059496 -0.0025751076 -0.00085718493 -0.003692248 -0.00016241273 -0.003189771 -0.0039297594 0.003131465 -0.00475551 0.001122926 0.0013900052 -0.0012725821 0.0022101966 -0.004214016 0.0024524732 0.004384371 -0.0026207236 -0.0040035388 -0.0006740998 -0.002689939 -0.0009610396 0.0031520836 -0.0015197026 -0.004789605 0.0019146478 0.0019041818 -0.001547131 9.703023e-05 -0.0046475055 -0.0037225767 -0.00080180325 0.0041638114 7.3351715e-05 0.00303369 0.0022004198 0.0020395955 0.0026942869 7.140458e-05 0.0007524294 -0.0016875209 0.0027100863 -0.002391522 -0.0042253337 -0.003739707 0.004398025 0.004042527 0.00026550112 -0.0008140835 -0.0027309048 0.0036186979 0.0012817242 -0.004124106 0.0021613573 -0.002424878 -0.00014945725 0.00482861 
PRKACG	-0.0022110513 0.0039355895 -0.004884081 0.0025115449 0.0011581584 -0.003713031 0.0043511065 0.004986396 -0.0014301003 0.00082247786 -0.002253164 0.0038511988 -0.0007047574 -0.002609396 3.5037712e-05 -0.0005980623 -0.0015443498 -0.0017387854 0.0029229457 0.00069602916 -0.0031133965 -0.0015362022 0.003860962 0.0033212118 -0.003825018 -0.0024218766 -0.00453541 -0.004184485 0.0013474153 0.003544743 0.004943605 0.0011943312 0.0045680054 0.0048516947 0.0019058263 0.0029619732 0.002690009 -0.0019683493 -0.0009252955 -0.00046721584 0.0014401177 0.0006289225 -0.0012865615 0.0028820105 -0.0018847581 0.00068659533 -0.000349412 -0.0047853733 -0.003399902 -0.004266291 0.003935689 0.0022733503 0.0017789484 0.002872525 -0.0019415045 -0.00017758625 0.0017839873 0.0011987536 0.00021540956 -0.001664382 -0.0040966664 -3.3217857e-05 0.0015273956 0.0036914293 0.0044104927 -0.0042457217 0.00056502485 0.00090863823 -0.0032420259 -0.00012774313 0.0020223437 0.0035990565 -0.0027024394 -0.0043979394 -0.0029349572 0.003361002 -0.00041428432 0.00064827345 0.004112151 -0.0047092517 -0.0010077332 -0.0010005542 0.0011495451 0.002086185 -0.004598797 0.0007851243 0.0040878137 -0.00021573705 0.0034890585 0.0037879373 -0.0026496325 -0.0034300447 -0.0011525399 0.0016644376 0.003102935 0.0023661917 -0.0016906214 0.004171251 0.0013703608 0.004874993 
PRM1	-0.0032202112 0.0021477845 0.002810914 0.0036125248 -0.0019049193 -0.0007175347 0.001918311 0.0012966337 -0.0016199669 -0.0027627072 -0.0032836185 0.0010322944 -0.004766717 -0.0027894408 0.0009128764 -0.003891437 -0.0014247407 -0.0043435376 -0.001412839 0.0009991075 -0.00019698992 0.00027408017 -0.0018358283 0.0018692408 0.0008541778 0.0005598576 -0.0018072856 0.0009075083 0.0011677598 -6.996236e-05 0.0025071916 0.0013367275 -0.0022320875 -0.0026834616 0.0013647603 -0.002542857 -0.00041625748 -0.0027809236 0.0010132039 -0.0044002454 -0.0024754172 -0.0047549703 0.0034521285 0.0011569418 0.00022688185 0.0048326175 0.0003639994 0.004229333 0.0037632647 0.0022873576 0.0024167555 0.002042957 0.002093727 -0.0013353423 0.0043644505 0.0032495728 0.0030006233 0.0014307253 0.001756864 0.0049315663 -0.00046005734 -0.0017475124 -0.0014924982 0.0037709607 -0.0024639661 -0.0019583227 -0.0038474575 0.003867474 0.0022648824 -0.0026223315 -0.0014898062 -0.002656239 -0.004648951 0.0019789026 0.0023480854 -0.0026159815 -0.0048870663 0.0017225469 -0.0044826735 0.00039013487 -0.001738129 -0.001273708 0.0032838124 0.0033518628 0.0035494315 0.003940313 -0.0027959216 0.0046193628 -0.0013148509 -0.0020625428 -0.0024890467 -0.0012795819 -0.0039371564 0.004985635 0.0018668616 -0.003083988 -0.002574228 0.0048949714 0.0037711563 -0.0019024108 
CEBPD	-0.0009793866 -0.002545036 -0.00205339 -0.0021478515 0.001956686 -0.0025198536 0.0029345101 0.0045209937 0.0021807177 0.003044243 0.0028840124 -0.0045656343 0.000597602 -0.00400873 0.0010382377 -0.00037513213 0.002724199 0.00017490325 -0.003754403 -0.0019919362 -0.002685611 -0.004529968 -0.0007002991 0.0031253165 0.0048253927 -0.0013385895 0.002332112 -0.0039094025 0.0026286372 -0.0046898588 -0.0018019157 0.0023074753 0.0011613308 0.0047156853 0.0043717367 0.0036629522 -0.0010796147 -0.00080572837 -0.0011356488 0.0043357834 -0.001212243 0.003254036 0.0025884311 0.0048728646 -0.00012631256 -0.0025343467 0.0010646089 -0.0012272979 0.0027135478 -0.0022322384 0.0035273717 -0.001800408 0.0023350988 -3.4267738e-05 0.0017539756 -0.0007316967 0.0048839664 -0.0015537633 0.002626484 0.0017226455 0.0007151675 -0.00038566237 0.0035214638 0.0019223217 -0.0029301466 -0.0017704873 -0.002840492 0.00042316603 -0.0009621924 4.7533533e-05 0.0032749714 0.0015805794 0.0018480445 0.0034686322 -0.0008236516 -0.0026516297 -0.0009813267 -0.0008268416 -0.0034193876 0.0038109617 0.0030135936 -0.0017915745 -0.0014207016 0.0040727044 0.0018196773 -0.0018209806 -0.0046163276 0.000242596 0.0046163765 -0.002569507 -0.00059534924 -0.0027855171 -0.0021587901 -0.0025478604 0.0016580193 -0.0010035487 -0.00025345033 0.0009487779 0.0027750544 0.0002471382 
HCFC1	-0.00039635575 0.0037642699 0.0034826614 -0.0041901236 -0.002366339 0.0027096877 -0.0035009994 -0.00493414 -0.004314309 0.004456585 -0.0030772267 0.0008742763 0.0031267444 -0.004704867 -0.0014307561 0.001768394 -0.0040443647 -0.0031282688 -0.003119033 -0.004131711 0.0018601605 -0.004339357 0.004726314 -0.0035918884 0.002464896 0.00036312488 0.0025255403 0.0034166204 -0.0038440526 0.0048677763 0.0033630522 -0.001132284 0.0003833904 -0.002406369 -0.0020799888 0.0031568408 -0.0010780024 0.0032983832 -0.00085951743 -0.0016050255 0.0034121987 0.0025456487 0.0030007083 -0.0037716704 -0.0029093646 0.0026122052 6.944461e-05 0.0033702508 -0.00497957 0.0037978643 0.0020367817 -0.0018708494 -0.00032181418 -0.0042467522 0.0039234385 -0.00012991289 0.0028464205 0.0034832084 0.0044327956 0.0029148723 -0.0010041458 0.0033119447 0.0039181374 -0.00037225138 -0.0012155907 0.002644188 -0.0022909285 9.936339e-05 -0.0019452997 -0.002178851 -0.003161769 0.004388508 -0.0034342534 0.004378036 0.0014100265 -0.0030854973 0.001488875 -0.0009978829 0.0018818297 0.00034479666 -0.004773941 0.003201733 0.0016982324 0.0037091137 0.0020471802 -0.0036843778 0.004426009 0.003989804 -0.00026349304 -0.00046262433 0.0008533218 -0.0017744002 -0.0017284598 -0.0030605446 0.004376338 0.003992492 -0.0031978784 0.0035789749 -0.0045530633 0.003014829 
DTWD2	0.002438736 0.004445297 0.002973494 0.0039151674 -0.0009643678 -0.0018554198 -0.0037858018 0.00018809033 -0.0049814787 -0.003116803 0.0043357573 0.002831773 0.0008821346 -0.004733256 0.002037129 -0.0027875497 -0.0012881092 -0.0023824363 -0.0008185542 -0.0027534466 -0.004939401 -0.0015731769 -0.0026026503 0.00032174418 0.0016542795 0.0034369119 -0.0031340255 0.0007526283 -0.001367731 -0.003406648 0.0020973338 -0.00035465704 -0.00321344 -0.0006389355 -0.004679077 -0.003210146 0.00084948697 0.0014301151 0.0011696622 0.0010320283 -0.0031660367 -0.0022331781 0.0002415946 -0.0004433613 -9.956263e-06 0.002324616 -0.000911952 -0.0013755922 0.0031013496 0.0001374776 0.002589373 -0.003154845 -0.0027584522 0.00092493085 0.0048077614 0.0012469287 0.0049288934 0.003689654 0.004616411 -0.00090145326 -0.004869732 0.003194762 0.00015595256 -0.004754672 0.0005015946 0.004737604 -0.0045186807 -0.00015625387 -0.0037133677 0.0029025397 0.000910539 0.0003359604 -0.002292659 0.004918461 -0.0010371016 0.0031545772 -0.002544244 -0.0032117679 0.0019164142 -0.001459544 0.0005851145 -9.787591e-05 -0.0033693756 -0.0016659749 0.0029731449 0.0010489492 -0.0008747343 -0.0004087473 0.0042577386 -0.004584713 0.0013919774 0.0049294154 -0.0033166166 -0.003387348 0.0048349514 -0.0030476009 0.0013755435 0.004593687 0.00045780122 -0.0012858697 
PSMA6	0.002508211 0.0027524298 0.0013497553 0.003495342 -0.004535992 0.0009206848 -0.0018040958 0.0024645487 0.004406244 -0.00017153955 0.0017784865 -0.0010884883 0.00083837454 0.0013766425 0.001451693 -0.0019888475 -0.004355109 -0.0038002105 0.000597899 -0.0031849272 0.0027763555 0.004420955 0.0029334642 -0.001665324 -0.0037605101 -0.00094244565 0.0020052015 -0.0048706434 -0.0038082078 -0.0021086691 0.0006625371 -0.0043858625 -0.00076684344 0.003652655 0.0011306467 0.00054035196 0.0018108366 0.00019015507 0.0006867293 -0.0021444436 -0.0013836862 0.0013853554 0.0023718046 0.0041410904 -0.0027604138 0.0024924814 0.0028779749 0.0016841933 0.004524487 -0.0014922007 0.0041680564 0.00084713043 0.002692251 -0.0037994068 -0.001812837 0.0016227047 -0.0037502379 0.00069751 -0.0030472947 -0.00015062207 0.0019101423 0.0008539751 -0.004878947 0.004814562 0.00023824019 0.0027365533 0.004911913 0.0026759955 0.0043873694 -0.0005447226 -0.0034998849 0.0007534103 -0.0043418524 0.0030300897 -0.0016181658 -0.00071520323 0.0023451024 0.001393906 0.00015786229 -0.0014245074 -0.0019978946 -0.001265006 -0.0024196482 0.0043411083 -0.0012048532 -0.00046210826 -0.0019011096 -0.00044581972 0.0037028815 0.0015728878 0.0008926585 0.0013900931 0.0033001204 -0.002650338 -0.00083938596 -0.0016974927 0.002515795 0.004869751 0.004646107 -0.0009111411 
ALDOB	-0.00054176967 -0.0041087507 -0.0027787725 -0.0032711641 -3.405853e-05 0.004054078 0.0038026224 -0.0019467708 -0.0047049643 0.0036897564 -0.0012619116 -0.003971854 -0.0012601083 -0.0026277832 0.0007335511 -0.004753256 0.0020555118 -0.003483188 0.0032986319 -0.004242426 -0.0011949553 -0.0031758996 -0.00069767365 0.0003495427 -0.0017338488 -0.0029032126 -0.004032982 -0.0012514171 -0.004349968 0.0024678453 -0.004323892 0.0026947309 0.0024203132 0.0024473201 -0.001975801 0.0049979878 -0.0024608779 -0.00018093565 -0.0035980644 -0.00083437795 -0.0021393762 -0.0021047858 -0.003035063 0.0028298777 -0.0002207078 -0.0032529372 -0.0014383175 -0.0032028144 0.004230834 -0.0041961 -0.0029230872 0.003931581 0.0007281993 0.0044445936 0.0022465137 -0.0023934862 -0.0022286326 -0.00019605264 0.0015374286 -0.0042686607 -0.0027312275 0.004149583 -0.0047315676 -0.0029047227 0.0039103273 0.003393226 0.0044457912 -0.0041353623 0.00015749034 -0.0040730964 -3.9777956e-06 0.00067633024 0.004503024 -0.0019405648 -0.0040720766 0.0037997623 0.0024028684 -2.5803698e-05 -0.0040308866 0.000803617 -0.0036544949 -0.004723815 -0.0014865027 -0.0020262275 -0.0022706268 0.0037563734 -0.0038463061 0.0028019024 -0.001713147 -0.0019272022 0.002745061 0.0047804234 0.0011569491 0.0035003736 -0.001914052 0.0034196319 -0.0026498248 0.0013442677 0.00266555 -0.0027149026 
SIGMAR1	-0.0004843081 -0.00031179222 -0.0019320896 0.0025385704 0.00034287848 -0.0046968805 -0.004922695 0.0008001316 0.0034868396 -0.0005461395 -0.00040306637 -0.004691218 -0.0046848613 -0.0034031114 0.0013860319 -0.003427844 0.004927822 0.00057193334 0.004167071 0.0035567097 -0.0024964293 -0.0038976073 7.9282865e-05 -0.0045063207 -0.004117237 0.0039858357 -0.00198728 -0.0036254893 0.0042254576 -0.0025390002 -0.0047744303 -0.004923089 0.0038621337 -0.0019319636 -0.0035362963 0.002206926 -0.00062254106 0.0023258901 0.0032264907 -0.001491751 -0.0024772591 4.0060306e-05 -0.0022549503 -0.0026216987 0.0033389449 0.0022175591 -0.003811072 -0.004429155 -0.0043721157 0.0031188293 -0.0036327408 -0.0014764061 0.00014797364 0.0018204564 -0.004742414 0.0036169065 -0.0037387363 0.0033777808 -0.00095691683 0.0028406861 0.0031992418 -0.002267314 -0.0047745057 -0.0013260683 -0.002256563 -0.0010753705 0.0023063512 0.0041302396 0.0010866242 -0.0006676153 -0.0026251732 0.0029390822 -0.0010345689 -0.0038318802 -0.0022321893 -0.0040054116 -0.0035962423 -0.0029052694 -0.0023830584 -0.002461444 -0.0025257445 -0.0037841164 -0.002946682 0.0030868487 0.004696517 0.0024487807 -0.003726178 -0.001129666 0.0034386108 -0.0028939575 0.0024143087 -0.0012780998 0.0031969233 -0.004751836 -0.00454357 0.003128786 0.0011874528 0.0020888944 -0.0011890985 0.0042238417 
TUSC2	-0.004761243 -0.0011807398 0.0018820735 -0.0029711272 -0.0023416814 -0.001540098 -0.0020172072 0.002991362 -0.0013228283 0.002333384 -0.0046966653 -0.00027003797 0.004863794 -0.0016597084 -0.0014454094 0.0031174615 3.0329204e-06 0.0029439686 0.0041449037 0.0041042985 -0.0011815273 -0.0030733568 -0.0022826 -0.00054083427 0.0010442642 0.004048739 0.0036505514 0.0016340917 0.003649483 0.004211673 -0.004686443 0.0014471048 -2.3177712e-05 0.00029301428 -0.0035455737 -0.0029618426 -0.0016524033 0.00076681 -0.0031542878 -0.0047256714 -0.0016696801 0.0011752312 -0.0003024823 -0.00033979578 -0.0043828036 0.0011899777 0.00077985914 -0.002060327 -0.0036084203 -0.0032358353 0.0046417685 0.0026963155 0.002065369 0.00026483112 0.0046844347 0.001319054 0.003032386 -0.0014353017 -0.0044848183 0.0029211484 0.0013775458 -0.004709143 0.0022751258 0.0019886447 -0.0033717365 -0.0014210434 -0.0034574417 -0.002242156 0.0023134514 -0.0012450351 0.0046298048 -0.0027884718 -0.0034910098 0.0049512195 -0.004098315 -0.0031642565 -0.0031584282 -0.0027709224 -0.0019588873 0.0010183308 -0.0049309097 0.0028324022 0.0007520877 -0.0034629924 0.00028974062 -0.0023734963 0.002055094 0.00030659247 -0.0023816633 -0.0016923995 0.0040074475 -0.0016799719 -0.0039369827 -0.004326052 5.648416e-05 -0.0021737309 -0.0028897529 0.0038386234 -0.0005737144 0.0006858803 
ADRA2B	0.0013065905 0.003898514 -0.00012863931 0.0034952036 -0.0037461838 -0.0011053198 0.0025168261 0.0039006518 -0.0030433785 0.0049559125 0.0027769003 -0.0018048277 0.0008865881 0.0041492954 -0.0042921994 -0.002885601 -0.0010591467 0.0026046801 -0.0007118535 0.00288431 0.00064185355 -0.0011357233 -4.4672044e-05 -0.0037643008 -0.004925986 0.0024018816 -0.000187375 -0.004181672 -0.001841678 -0.0004645648 0.0012713398 0.004137086 0.0009122055 -0.0025139898 -0.0017353959 -0.00033719663 4.8440867e-05 -0.0007003304 0.0021360482 -0.0033996464 0.0005671045 -0.004129701 -0.0012867805 0.0036485346 0.0023083754 0.003843079 -0.0020862254 -0.0019709053 -0.0034140493 -0.0027994034 0.0023275753 -0.00029212967 0.0029053746 0.0043070465 1.7253535e-05 -0.0027896948 0.0046741664 -0.0010702909 0.001314739 0.00039069052 -0.0017228555 -0.0018583544 -0.0010644487 -0.0022451978 -0.0031808207 -0.0044932864 0.00060602964 -0.0005063807 0.004668262 -0.004105409 0.0049311123 0.002930375 0.0015588215 0.00059799704 0.00066740206 0.0033316358 -0.0025094498 -0.004252653 -0.0005337195 -0.00071786385 -0.0021757528 0.0040249606 -0.0030153387 0.0006795612 -0.0034641556 0.0049837325 0.002082759 0.0025911045 -0.0025650442 -0.0008584625 -0.0045380997 0.0025801712 0.0003603411 -0.0030892335 -0.0029126748 0.0008646596 0.0024819311 -0.0023188419 -0.003535282 0.0033624908 
FOXL1	0.0011266917 0.00057815574 0.0016695916 -0.00448456 0.00499455 0.0025735246 0.0036401371 0.0015771663 8.1593564e-05 0.0002961446 -0.004018133 -0.0048750723 0.0023322408 0.0028930646 0.0017569583 -0.0016029365 -0.004398184 -0.003925531 -0.0007215455 0.00401163 -0.000956308 -0.0029050626 -0.0015345151 0.0004825234 0.001453174 0.0031316688 0.0006885229 -0.0035412821 -0.0010550203 0.0018126129 -0.0035791558 0.004187754 -0.0049256827 0.0032467837 0.0012118539 0.0038008671 0.002784622 0.0025619788 0.0010018516 0.003932924 -0.0018643964 -0.0011420522 -0.0034721852 0.00079447724 -0.0026003064 -0.00094195997 -0.0032973862 -0.0033876314 0.0010439836 0.00012415677 -0.0026519115 0.0006667103 -0.0013034253 0.0046697343 0.0021157193 -0.0039000981 -0.00070135173 6.244193e-05 0.004996916 -0.0029226833 -0.004546696 0.0013113386 -0.002377018 0.0006680601 -0.000967669 0.0037257022 0.002994184 0.004224451 0.0026836218 0.0043503125 -0.0042256326 -0.0048333514 -0.0009045527 -0.0012696232 0.0024653058 0.0016775827 0.002304567 0.0006239595 -0.0042334385 0.00454691 -0.0035199828 0.0044574807 0.002254451 -0.002893819 -0.00096226856 -0.0041828346 0.004183713 -0.0020564361 -0.003534303 0.0037065533 -0.0026480125 0.00022349216 0.0033197615 -0.0006596072 -0.00255326 0.0002388907 -0.0030172155 -0.0035728726 -0.0010004989 0.0042480677 
ICOS	-0.0019445764 -0.0027307651 0.003821689 0.004640458 0.0019823045 -0.000753031 0.00024014607 0.000601632 0.00081158837 -0.00012147087 -0.0038355582 0.0010931935 -0.00386381 -0.004802401 -0.0032472126 -0.0020702705 -0.0016870735 0.0046632453 0.00023916796 -0.00024478525 0.0023041384 0.0023050618 -0.00035423273 0.0017238442 0.0008869406 -0.0021279538 0.0010172812 0.0039392323 0.0044375234 0.001059416 0.0042879507 -0.0022176893 -0.0028458103 0.0019223065 -0.0011593164 -0.0014105411 0.0027800028 -0.0010719846 0.0013358325 0.0013661043 0.0009755285 -0.0034440143 0.0034201364 0.0019792907 -0.0020268406 -0.0043219444 0.0016290952 -0.0047956207 0.002743188 0.004448054 -0.0016580976 -0.0026289157 -0.004008508 0.0028064155 -0.00086056127 0.0012700628 0.0046604956 -0.0029314249 0.0009632643 0.004261509 0.004814263 -0.0010165685 0.0033643176 -0.0035150158 -0.0007815857 0.0004901121 -0.001535889 0.0014022067 -0.00038597893 -0.0024386344 0.002452541 -0.00017851984 -0.0034492845 -0.00046672145 0.0047723316 -0.0044737626 -0.0019361792 0.0025185419 -0.0016968445 -0.0019332268 0.0022504698 0.00011794138 -0.0010721042 0.0005434171 -0.0039580697 0.0004644532 -0.002540939 -0.004117868 -0.0048688645 -0.0035722838 -0.0018924989 0.0039364514 -0.0014921074 -0.004571388 0.0011067437 -0.0012904897 0.0041846274 0.0037787156 0.0047769123 0.00045811583 
FGF6	-0.00061578344 -0.0025758934 -0.0030418558 0.002067126 -0.0017937508 -0.001664363 0.0019893076 -0.0034840188 -0.0016017584 0.0044427644 -0.004681462 -0.0035343932 0.0046687187 0.0012834496 -0.001040975 -0.003016396 0.0037834109 0.0012098702 0.00070262584 -0.0041611106 0.0026432427 0.0029561974 -0.0027687948 0.004062894 0.00399665 -0.0007987957 -0.0028493453 0.0030933465 0.001079025 0.0028181947 0.0015438963 0.0029801412 -0.00037419287 0.0018910064 0.0041529834 -0.0005285789 0.001917565 -0.004207368 -0.0039318805 0.00085164455 -0.0027826342 0.0026433724 -0.0032029075 -0.004791372 -0.0021213177 -0.002133321 0.0013264597 -0.001550265 0.0037703384 0.0038853458 -0.0001763207 -0.0006175994 0.00018454388 0.0006018422 0.0004592902 -0.0009173873 -0.0013809623 -0.0040535443 0.0003326004 0.0031307808 0.0020869914 0.0030818393 0.0024175455 -0.004724971 -0.00036118922 0.0032049508 -0.00157609 0.0023495185 -0.001293035 -0.0026889157 -0.0027543239 0.0021030381 0.000785638 -0.00013525627 -0.0045160665 -0.0042567253 -0.0011677844 -9.808417e-05 -0.00080982846 0.003971543 -0.00077558827 0.0042509604 -0.0016157422 0.0038483376 0.0041704928 0.00079492043 0.0035925026 0.0029547827 -0.0010163515 0.0040674293 0.00036522295 -0.0022219252 0.0012637437 0.002351236 0.001577874 -0.0038233264 -0.0017044698 0.002363048 0.0048758383 -0.0043537095 
GFI1B	-0.0031106938 -0.004807996 0.0008019879 0.0035431618 0.0012747218 -0.0003888944 -0.0018617524 0.00061778195 0.001332823 -0.003963937 -0.0036443255 -0.004354103 -0.0011294191 -0.0012787279 -0.0014596952 0.003574659 -0.0025847936 -0.0045925765 -0.00061836804 0.0012043568 0.0048964815 -0.0010832973 -0.0022576822 -0.002723252 0.004444781 -0.00051673385 0.0047093155 -0.0016586321 0.0010685445 0.0035463974 0.00010308939 0.0013417228 0.00032021134 0.0034119403 -0.0021962528 -0.0024902862 0.0032826625 0.002275888 -0.004882948 -0.0020245637 0.0010033073 0.0018576317 -0.0006089339 -0.0033483787 -0.00027314658 -0.00049162953 0.0044224914 -0.003526378 0.0038862284 -0.004859949 -0.0018475984 -0.0034450302 -0.0035584671 -0.0027426966 -0.0033273818 -0.003071178 -0.00060717267 0.002632359 0.0011812064 -0.0031860096 -0.0009901932 -0.0017888921 -0.0022811375 -0.0034181431 -0.002558055 -0.0017213852 0.003217662 -0.0030153706 0.001994826 -0.0014977722 -0.00094415504 -0.0030038026 0.0004702082 -0.0033304417 0.0035876196 0.0012094949 9.442234e-05 0.0036065583 -0.00013569706 0.000582331 0.001973769 0.0019776258 0.0010805288 0.0013612398 0.0009257593 0.0012647954 -0.001748532 0.0022561161 0.00034923866 0.0023337519 0.0014874359 -0.0034841718 -0.0035766386 0.004763932 0.004158833 -0.004924977 0.0005239712 -0.0016963421 0.0040894044 0.0006776116 
CLC	0.0017743766 -0.0011196434 -0.0007926643 -0.004763877 -0.0036550055 -0.0043179896 0.002190395 0.0013830506 0.0031608792 -0.0047329376 -0.00274068 0.0023247404 0.00072316005 0.0014444082 0.002999837 0.0015455057 -0.0024127187 0.0016681969 0.0036969988 -0.0017332782 -0.0014667555 -0.004286952 0.0036714592 -0.0036812732 0.00036726243 0.003623522 0.000717228 -0.000686923 -0.004347114 -0.002869136 0.0013238261 0.0014663591 0.0024877943 0.0005214413 -0.00014810373 -0.0004998019 -0.0038433864 -0.0028982775 -0.0031359885 0.0041217315 0.0009496965 -0.00120356 0.003163831 -0.004250754 -0.003510353 0.000117292984 -0.0017695868 0.0038056925 -0.0010928136 0.0030841902 -0.0015927379 0.0039747194 0.004976681 0.0035439879 0.0019682215 -0.0017459709 -0.0002503303 -0.0013196231 -0.0019179486 -0.003813646 0.0029920496 -0.004488416 -0.002220181 0.004374932 -0.0009723031 -0.0021882034 -0.001129318 0.003236155 0.002382942 0.001321264 0.002082288 -0.004717185 0.0026478076 0.0033749887 0.0010933313 -0.001256514 -0.0001464288 -0.0013310699 0.003170005 -0.0012085189 0.00044973398 -0.0013759688 0.0039547877 0.0010727339 0.0037244419 0.00237162 0.004317682 -0.0023119731 0.00037878496 0.004420533 0.0023550116 -0.003977185 -0.0017446629 -0.004766867 0.0010250651 -0.0044147046 0.004688706 0.0040160306 0.0012394985 -0.0003732313 
TLE1	0.0033423046 0.00025511326 0.0005389702 -0.001364757 0.00051287544 -0.002578324 0.0034979077 0.0034887507 0.0018526661 -0.0016998217 -0.0018651779 0.0017868344 -0.0027387612 -0.004470653 0.002492757 -0.0037156425 -0.0043489956 0.0019321692 0.0012435371 0.002627365 -0.0013424682 0.0025798196 0.0019539585 0.0024403858 -0.0026437454 -0.0015722514 0.0011965606 0.0011459878 0.001710433 0.0035729397 0.002280378 0.0020141667 -0.001506365 -0.0030312906 -0.0019476017 -0.00032256878 -0.0049723955 0.004175144 -3.338832e-05 0.0029058673 -0.00081526366 -0.004999773 0.004062671 -2.7670148e-06 -0.0022408103 0.0032074738 0.004829623 0.0039053739 0.0013941705 -0.00035006134 -0.0043620826 0.00027807185 0.002825092 0.00481282 -0.00055938656 0.003811756 -0.0037708397 0.0036097735 0.004126436 -0.0003620543 0.0027015381 0.0029539224 0.0013603438 -0.0040686955 -0.0042300955 -0.0023448658 -0.0030397244 -0.002239671 0.00235056 0.0044892207 0.003807786 -0.0021458769 0.0020082877 0.0022418764 -0.004639015 -0.0026748073 -0.0019156816 -0.0044847415 0.0032685557 0.004982832 0.0013173263 0.0046382966 -0.0039033126 0.0016960452 -0.0006344685 -0.0019507253 -0.0005760599 -0.0045011956 -0.0030497753 -0.00087794283 -0.00075430254 -0.004433669 0.0029956417 -0.0042686095 -0.0040261755 0.0032160538 -0.0002650978 0.0034928487 -0.0010426671 0.00083760294 
OR2H1	-0.004645003 -0.0040756334 -0.0013497582 0.00073764723 0.0023768707 -0.0025844171 0.00500082 0.0016160475 0.004719351 -0.0037072909 0.0012970993 -0.0010926353 -0.0034076292 0.0045313253 0.0020142884 -0.0043631145 0.00060792 -0.0045272643 -0.0019411038 -0.0013977352 -0.00344342 -0.0026711416 -0.0046134363 0.00012386583 0.0022667933 0.00091381633 -0.0028326206 0.0001990565 0.0028331364 0.00092053716 0.0030235983 -0.0022994953 -0.0046603833 -0.0037055127 0.0041450835 0.0038948413 -0.0018068694 -0.0030375745 -0.0047664247 0.004782102 -0.003839302 0.0036807393 0.0033365267 -0.0011147939 -0.0019947812 -0.0036364135 0.0021654586 -0.00269121 -0.0015600676 0.0023951696 0.0049717734 -0.004912097 -0.0035480596 0.0044516297 -0.0046595093 -0.0025918116 0.004852426 0.0039086873 0.0008846141 -0.0006298113 0.0026637767 0.0007329943 -0.0022379854 -0.004698011 -0.0034602839 0.0034063393 -0.0008898945 0.0018234946 7.580724e-05 -0.0023058394 -0.0035724512 -0.0013090512 -0.0020891635 0.004168746 -0.0028446887 -0.00086575944 -9.1404465e-05 -0.0044077486 -2.7070582e-05 -0.00077724317 0.004152964 -0.0031044579 -0.0033591872 0.003116176 -0.0006813083 0.0040586186 -0.00044577962 -0.0027869104 -0.0044766204 -2.5094552e-05 0.0013891008 0.00094196317 0.0034626364 -0.0033535277 -0.00054810767 0.0032218292 -0.000755318 -0.0038604846 0.0034208265 -0.0006460313 
ITPK1	0.002251672 0.00010695145 0.0023480053 0.00093952654 0.0010023199 0.0015572851 -0.0004825583 0.0014303091 -0.003793577 -0.0014698831 -0.00417762 -0.003004742 0.004829587 -0.0022331297 0.0024167127 -0.0013717724 -0.004522266 0.003641829 -0.0008635746 -0.002070194 0.004917054 -0.0004961043 -0.0021612265 0.0030004042 -0.0048440215 -0.0017495162 -0.0029079712 0.0033204881 -0.0013494946 0.0038297367 -0.00066261913 -0.0024176163 5.9999933e-05 0.0010389161 0.0037389176 -0.0038606257 -0.0004197228 -0.003868286 0.003957461 0.0029208502 0.0007342028 0.0010100511 0.001828658 -7.937568e-05 0.00093781936 -0.0015055068 0.0024329026 -0.0029551226 -0.0010296233 0.0031287624 -0.0007847659 0.0040366612 0.0015615146 0.0022839431 -0.00071879174 0.0042772316 -0.0024050118 0.00013269878 0.003172338 -0.0023573476 0.0041240687 -0.0012753179 -0.0023830333 0.0011029833 -0.003808845 0.0020462745 -0.0013885465 -0.0023232838 -0.0045772744 0.0034510803 0.004286439 0.00042207254 -0.00023371486 -0.0011682581 0.0005189242 -0.0030967463 -0.0042901617 0.00281274 -0.0017293228 -0.00021115363 -0.003324431 -0.0009484815 0.0031421618 -0.00065139245 -0.0022370543 0.0031397922 0.0012204356 0.0016932286 0.004357396 0.0011052587 0.001737708 -0.0049074367 0.001831432 -0.002929894 9.244665e-05 0.00031788214 -0.000700126 -0.0014742415 -0.0018723763 -0.004714189 
FAM13A	-0.003552454 -0.0032079956 0.0021643208 -0.0045819366 -0.0035267903 -0.004286232 -0.0007581177 0.0025749383 0.0039565554 -0.003503939 0.0016256724 -0.0031922832 0.0018971869 -0.002259797 0.00015287419 -0.004085784 -0.0035973855 0.0037964117 0.0016403346 -0.0019721077 -0.0020742835 -0.0029364289 0.004878068 -0.0008554151 0.0008125759 0.0043269745 0.0022703765 0.0030859648 0.0010529851 -0.0022933357 -0.0030091056 -0.004735585 -0.00043581083 0.003336112 -0.003606369 0.0010872093 -0.0014836703 3.2059335e-05 0.0023808372 0.0022751994 -0.0033463654 -0.0017798377 0.0022004563 -0.0014732991 0.00096487434 0.0008763038 0.00023892545 -0.0039031312 -0.0014408414 0.0010245091 -8.268453e-05 -0.0047176485 0.001250089 0.0047155605 0.0012215744 -0.0025794117 0.0019185842 -0.0006162291 0.0006810539 0.00024891758 -0.003816111 -0.004371307 -0.0009889606 0.003215689 -0.0013094961 -9.7685464e-05 0.0009799479 0.004455814 0.0035038984 -0.0012280977 -0.0022948165 -0.002719193 -0.00020694915 -0.0006728372 0.00092489173 0.0039533377 0.0049555004 0.004496155 0.002602034 -0.0038753138 -0.0046890536 0.0021425635 -0.0023443368 0.00065963244 0.0007961067 0.003295933 -0.0044864556 0.004404408 -0.001186386 -0.0040178257 -0.004437525 0.0038207164 0.0048295646 0.00055591465 -0.002170632 0.0016248103 0.0019435389 -0.0011094932 0.0042633936 -0.0031851125 
POLM	0.000981653 -0.0030913337 -0.0034661577 0.0011809198 0.004764565 0.0022295974 -0.004088843 -0.0040817847 -0.0007296051 0.003557899 0.0044147763 -0.0047472753 -0.003990715 0.0029062235 0.0020406006 -0.0039977063 -0.004366733 0.0010455059 -0.004122252 0.0012828961 0.0034172814 0.0038090858 -0.0011913364 -0.0023838964 -0.0024726097 0.0014233023 0.0040290006 -0.0007475142 -0.0018244906 0.0008546936 -0.00011131484 0.002822013 0.0010049416 0.003513689 -0.0006301517 0.0016415204 0.003874888 -0.0037151945 -0.002584157 -0.0038603165 0.004174519 0.0027895703 0.0036245605 -0.00235318 0.00017569281 0.00034459276 0.00053579645 0.0011985917 0.0014785582 -0.00080440746 0.00307844 0.0010965996 0.002084306 0.0038984683 0.00019872916 -0.004859957 -0.0025924547 -0.0037734902 -0.00035402764 0.0028468326 0.00037731222 0.002550011 0.0029903238 0.0045736837 -0.004372074 -0.0010707176 -0.0035819602 -0.00046427394 -0.0049544238 0.0029908598 -0.00040190626 0.0011142498 -0.0006723411 0.002057978 0.0014132044 -0.004693249 0.0028176853 0.0045178146 0.0042232936 -0.0046519646 0.004288272 0.00051365385 -0.00041381034 0.0047552222 0.0042054285 2.914353e-05 -0.002099373 -0.0022903357 0.0024729732 0.0014326918 0.0016113752 0.0031439003 -0.0011146995 0.0038832875 -0.0014950199 0.0036863384 -0.004523884 0.002059654 -0.0019231414 0.0049748328 
TBX22	-0.0036242844 -0.0032518473 0.003885187 -0.0039442494 0.0001894611 -0.00096224557 -0.004053782 0.0026431868 0.004440977 -0.0042985654 -0.0018538045 0.003429617 0.0011144592 0.00065325457 0.0042898464 0.00052565074 0.002320423 0.002733286 0.0031054039 -0.004551573 -0.00074665487 0.004436896 4.6295636e-06 -4.631004e-05 0.0031470465 0.0023566866 0.0034929803 -0.0022377614 -0.004809366 0.0024567891 -0.0039223237 0.004162236 0.0049384474 -0.004106027 0.001426642 -0.002809015 -0.0023583265 -0.0044169915 0.0011064374 0.0023965545 0.004217865 0.0015034388 -0.0022816113 5.0184284e-05 0.0013474757 -0.0003868279 -0.0012173712 -0.0014372137 0.0025432531 0.00068846537 -0.001220066 0.004375005 -3.712024e-05 0.001757188 0.0018936839 -0.0033954608 0.00019806638 -0.0036985625 0.0030934769 0.002344101 0.0033268533 -0.003574283 0.0047180494 -0.0016490628 -0.0007176585 -0.0015419454 -0.0026843671 0.0019636268 -0.00012318567 0.004064131 -0.0008765318 0.0030654045 0.0045369016 -0.0028030416 0.00086853694 -0.0026818814 0.0011326259 -0.00080583035 0.004720458 0.00469355 -0.0012761042 -0.0034770966 0.0040116557 0.00071496365 -0.0010354616 -0.0014853171 0.0043198657 -0.0036143975 -0.0027537893 0.0025156632 0.002170204 0.0023867514 -0.004746317 -0.0033925916 -0.0030027921 -8.9051115e-05 -0.0029808816 0.003262952 -0.004369017 0.0049047945 
KRTAP8-1	-0.003144881 -0.0037651048 0.0015877712 -0.0044784076 -0.0049548643 -0.0024099338 0.0041600857 -0.00036793502 0.00094554824 0.0018229977 0.0030047544 -0.0018240277 -0.00424566 0.0029481407 0.001354116 0.0048574186 -0.0024114922 0.003316796 -0.0037939511 0.0016716728 0.00019688216 -6.602669e-05 -0.004372349 -0.0003046491 -0.0022788728 0.004263679 0.0041224435 -0.003963615 -0.0037140753 0.0003024279 0.0011843428 0.0024798021 -0.003178174 0.0041621556 -0.003886739 -0.004919769 -0.0027788556 -0.0017652815 0.00076418987 -0.003991597 -0.0005067914 -0.0039496585 0.0004114938 0.0023539364 0.0043704123 -0.0040545766 -0.0026861667 -0.0013720532 -0.003308953 -0.003331395 3.3090342e-05 -0.0038327875 0.0024407168 0.004501261 0.0045362506 0.00049275975 0.0022296384 0.003041391 -0.0046272315 0.0044941925 0.004069681 0.0014409523 0.00088785036 0.0001406597 -0.0012850878 0.00032236756 -0.0036193575 -0.0037061404 -0.0014678921 0.0030546037 0.0015205402 0.0015385464 0.0023377286 0.0016286978 -0.0021744657 -0.0038492726 -0.0016243426 0.0017882269 -0.0047740745 -0.0029374952 -0.002831492 0.0031150137 -0.0044391644 -0.0018651608 0.0030433368 0.0010338427 0.0025879603 -0.0017008852 -0.0003824999 0.0030497406 -0.0036065443 -0.0019027084 -0.0028565812 0.001674932 -0.0011000439 0.0037937874 -0.0028185537 -0.003473125 -0.004053664 0.0005056199 
OR51M1	-0.0034820167 -0.002296636 0.002453295 -0.0007170498 -0.0028012376 -0.0018723981 0.002995299 0.00095445407 -0.0021363248 -0.001283462 -0.0018361991 -0.0005182236 0.0037361237 -0.0037646915 0.0045379433 0.004409978 0.0016867619 0.00030854158 -0.004724182 -0.0013848494 0.0017805555 -0.0022905364 0.0007549478 -0.0024462244 0.0037896745 -0.0024983755 -0.0038870217 0.00022069931 0.0025588875 -0.0016808524 0.00140732 -0.0018391752 0.004620439 -0.0006322507 -0.004073557 0.003402019 -0.0006286411 0.0039321897 -0.0014469514 0.0023640844 0.0038630846 -0.0041335146 0.0006010534 0.0049839388 -0.0042560427 0.003059779 0.0041520363 0.0013420559 -0.0026565269 -0.0043152804 3.767874e-05 -0.0031041936 -0.0024203567 -0.004150251 -0.0033741232 0.0004872204 -0.004079505 0.00054461486 0.0027209928 -0.0002878521 -0.00041125395 0.0033801289 0.0020566625 -0.0013088866 -0.0029028237 0.0041504162 -0.0013708338 0.0036892344 -0.00087456673 0.0036697506 0.0042568976 -0.0006333241 0.0007220439 0.0027913589 -0.0017258464 -0.0031715757 -0.0039187437 -0.00019643184 0.0018070264 0.0033277243 0.00027060168 0.0047438773 0.0024593624 8.388308e-06 -0.0007106437 -0.0042504505 0.0006199035 -0.001971449 -0.00039035993 0.0012179875 -0.004291311 -0.0007504826 0.00026805358 -0.0012113964 -0.0019481353 -0.002203196 0.0006039521 -0.0035582948 -0.0011535683 -0.00029902905 
CRABP1	0.004401964 -0.0027435424 -0.004321847 0.00046026698 -0.0007907475 -0.0019245693 0.004512637 -0.00011666045 0.0022666464 0.0006506427 0.0026856547 0.004024507 0.0040655127 0.0043371907 -0.00427537 -0.0005651345 -0.002561286 0.004260198 0.0042150584 -0.0024709231 0.0041260654 -0.0042470046 0.00079453475 0.0025101765 -0.0030103668 0.00028767047 -0.0031714323 -0.00082650717 -0.0014155657 -0.00036829026 0.001487953 0.001910995 -0.0025171791 -0.004089958 -0.0024799225 0.0013053118 0.0015626309 0.0017809602 -0.0029090035 -0.0032645452 0.0026465154 -0.0010881111 -0.0027392225 -0.00087603956 0.0022675465 -0.0049864613 -0.00017728725 -0.0028156294 -0.00036180214 -0.0032202892 -0.0025815938 -0.0031429133 -0.0015487483 0.0018355788 -0.0014023797 0.0044172606 0.00027218286 -0.0016181989 0.003377568 0.0038549958 0.003917356 -0.0015251545 -0.0026341404 -0.0040642577 0.0028424838 -0.004762385 0.0041140513 0.0026721482 -0.0024863149 -0.003088522 0.004659153 -2.3406063e-05 -0.004307852 -0.003065892 0.0020903272 0.002072671 0.0025964575 -0.0037066333 -0.0006569002 0.00042623657 -0.00079182547 -0.003382436 0.0009930604 0.0025902477 0.0029869885 -0.0008543915 0.0029190893 0.0015764612 0.0010135212 -0.0022257476 -0.00383811 -0.0043094936 0.0015758718 0.003932506 0.00436646 0.0019451416 -0.0018419627 -0.0037514854 0.002017122 0.0013035763 
RRAS	-0.002650612 -0.003804242 -0.0007895362 -0.0038130651 0.0034863444 0.004872964 0.00023369738 0.00097223924 0.0043374756 0.0019397595 0.0022137684 0.0035492314 0.0018301422 -0.0038661042 0.004339702 -0.0031918406 -0.0033041541 -0.0046222233 0.00038814195 0.003399322 -0.0026441282 -0.004356027 0.0010159962 -0.004850834 7.657698e-06 -0.0028275354 0.0045830733 0.0035206971 -0.0024912378 0.0034230035 -0.00028363586 -0.0032926511 -0.0011326856 -0.0046867244 0.004956084 0.004250972 -0.0028658798 -0.004028398 -0.0004461356 -0.004579592 0.0046358514 -0.00013880673 -8.9664805e-05 -0.0010398164 0.0042324853 -0.002927968 -0.0032192497 -0.0046864594 -0.0033720722 -0.0045683463 0.0029150364 -0.0008193946 -0.004588461 -0.0021526287 0.0019679077 0.002210581 0.001975668 -0.002881727 -0.004015402 -0.0017612871 0.004627869 -0.0023636797 0.00384287 0.0046321186 -0.0004212423 -0.0019121746 0.0038071086 -0.0033536286 -0.003185011 -0.0032383874 -0.0020954292 0.004047726 0.0031250617 0.0014190138 0.0024251805 -0.0024090325 -0.0049449317 0.0037528067 -0.0035826282 -0.004050738 0.004853925 -6.587327e-06 0.0022686867 0.00039179894 -0.0029031285 -0.00014764983 -0.0018097644 -0.00390661 0.0043080035 0.0021537319 0.0032260153 -0.0011597081 0.00281948 -0.00035425564 0.00018104643 0.0006640527 0.0005358965 -0.0033415728 0.003064844 0.0003565397 
DPH1	-0.0007199094 0.0035653731 0.0032688724 -0.004828479 0.0010920764 -0.0015997826 0.0033527182 -0.002834689 -0.0010413897 -0.00058722234 0.0046850545 0.0009643059 0.0026655013 0.0003808859 0.0021351695 -0.004743021 0.0013341588 -0.0015548613 -0.0028934008 0.0026756888 0.0028727525 0.0041886377 -0.0034077067 -0.0010075601 -0.0007123291 -0.003921898 0.0023832668 0.002207332 0.004291148 -0.004006669 -0.0049394662 0.0040653483 0.003289269 0.0018550025 0.00086614466 0.00024441443 -0.0030943067 0.0035173956 0.0033678105 0.0030578836 0.0006013501 -0.0013860313 -0.0011086224 -0.0005639123 -0.00093845907 0.0027652846 0.0038224952 0.002743597 0.002968401 -0.0032974388 -0.0006155391 0.0021642747 -0.0016460017 0.0035870625 0.0012891658 0.0032374978 0.004567225 0.0033403207 0.0010901656 -0.003802752 0.004312454 -0.004025257 0.004738113 -0.0044985153 -0.0022526998 -0.0007568214 -0.0018049125 -0.0018740426 0.0028068742 -0.003708556 0.0015829847 -0.003878785 0.0013630992 0.0032804033 -0.0019285307 -0.004249188 0.002787909 -0.0038558282 0.0024085632 -0.0028228525 -0.0018848283 -0.0017240846 0.004133778 -0.004518448 -0.0015558638 -0.004772611 -0.00334512 0.0035813467 -0.0013135639 -0.00043576473 -0.0024212564 -0.0028355774 -0.003687838 -0.00058783207 -0.0015007504 0.0013080501 -0.00342288 0.0036379916 -0.0005466774 -0.0032502608 
TTC28	0.0048197308 0.0003333153 0.0033639672 0.004351765 -0.0022166618 0.0030885593 -0.00093047274 -0.0028133278 0.004884699 -0.0025159663 0.002494922 0.002271306 -0.0042374944 -0.0028343648 0.0034001519 0.0007093518 0.0020509157 0.0025387632 0.0022923967 -0.0025212532 0.004366225 -0.0004955232 -0.00385608 -0.004642023 -0.00483105 0.0031085636 0.0019047479 -0.0020506931 0.0049426695 -0.004831245 -0.0013596076 -0.0006536287 -0.004608666 -0.00089061056 -0.0035551742 -0.00476122 -0.0031675464 -0.0022005339 -0.00081582204 -0.0006317905 0.0038535832 0.0018310832 -0.0010245806 0.0026220623 0.0031899225 0.0044937064 0.0010156245 -0.0028203744 -0.004053787 -0.004091828 -0.0021457355 0.00023348483 0.0046685296 0.0031582206 -0.0013384626 0.002539933 0.0034283677 -0.0047945054 0.0006357302 0.0024544415 0.004760801 -0.002860107 -0.002855355 -0.0009466106 -0.0022863918 0.004874199 0.0005315221 0.0011656532 0.0023150216 0.0014214957 -0.0034337211 -0.0009684408 0.0012115369 -0.0007302991 -0.0024758358 -0.0011892443 -0.000532389 0.0049017933 -0.00035410497 -0.0044689886 -0.0025801111 -0.0017432137 0.004275332 0.0012005871 -0.0042474805 0.0047455584 -0.0024236578 9.768857e-05 0.0025596123 0.004806074 0.0033157058 0.0016802852 0.0008773346 0.004671192 0.0008485949 -0.0010932444 0.003982415 -0.0011048994 0.0032463807 0.00021988984 
POTEKP	-0.003951896 0.0048791384 -0.004120065 -0.001365522 -0.004531852 0.0009931016 0.0022061795 -0.0024649014 -0.0032651485 0.0028851815 -0.0024624055 0.00042038006 -0.0005381678 -0.00079183636 -0.0034755468 -0.001253153 0.001207208 0.0016850882 0.0009135572 -0.0029137412 6.378596e-05 -0.002359349 -0.0036518546 0.0042832782 -0.00057253655 0.00067874044 -0.0046799146 0.0016034563 0.003545175 -0.0035999154 0.0017219548 0.002270855 -0.0029827438 -0.0038675687 0.002959864 0.0020790235 0.004144015 -0.00261271 -0.00434126 0.00077431736 0.0036823356 -0.0020764293 -0.0006051888 -0.0010338317 0.0030754993 -0.0023050706 0.00093136536 0.004807511 -0.0023709845 -0.00071010913 -0.0021004712 -0.0016859205 0.003244522 -0.00049523154 -0.00083285145 -0.0024641892 0.00014756028 6.141717e-05 0.0020093243 0.0024885347 0.0032627461 0.0019374213 0.0013562236 0.0011601935 -0.0015334403 0.00026346848 -0.0009391452 0.0029531159 0.001838166 0.0038736807 -0.003963273 -0.002270343 0.0003383664 0.0033590244 -0.0015424445 -0.0024514368 -0.0039363154 5.154158e-05 0.0023050806 0.0015665063 -0.0027016755 0.0014525176 0.0038672797 0.0031174154 -0.00227091 -0.0019462872 0.0031793776 -0.0011964757 -0.0015298203 -0.0015494073 0.0025075574 0.0048090336 0.0024079133 0.0001934214 0.0030898892 0.0015712569 0.0037198213 -0.0038654618 0.0049594636 -0.0016029715 
ATL3	0.00060990825 0.0036930374 0.003416296 -0.002262514 0.0015441714 -0.0017243649 0.0018258472 0.0047209878 0.0045872554 -0.002250072 0.0028796168 0.0033256519 -0.0020375901 0.0037448814 -0.0033054375 0.0015749726 0.004962375 0.0043567666 -0.0015817039 0.004787072 -0.0026291045 -0.00013897117 -0.0014831552 -0.0029480697 -0.0021556302 -0.0009819681 -0.0009795063 0.0029002535 0.00038604246 0.003911956 0.0047688107 0.0025320312 0.003922133 0.004084469 0.0021401118 -0.0025175759 -0.00418556 -0.00075414643 0.0023501497 -0.0023956883 -0.0025536104 0.0043353746 -0.0025703541 -0.003401193 0.00016496146 0.0032598134 0.0011627795 -0.0010221297 -0.0016544037 -0.0028694703 -0.0014001039 -0.003235432 -0.0020927188 0.0023412036 -0.0029365232 -0.0026014943 -0.004887658 0.0030915055 0.0018615075 0.0032207216 -0.004879478 -0.00095775 -0.0012714568 0.0047101933 0.0020038371 0.0002610298 0.004535501 -0.0035300078 0.004336448 -0.0012277251 0.0016100575 -0.00012106849 0.002182356 0.003597838 0.0048002056 -0.004677825 -0.002847025 0.0006519954 6.655151e-05 0.0030709608 0.0045860345 0.002155579 -0.000732194 -0.0019383413 -0.0017943941 -0.004646831 -0.0022124008 0.003035933 0.0030219906 0.0009436589 0.0007693983 -0.0024215395 -0.002537109 -0.0013615779 0.0014126158 -0.0026799426 0.004119013 -0.002774344 0.0038254098 0.0018884013 
ZNF367	-0.0015260943 0.0006904288 0.0016052354 -0.0025381458 0.0027628227 -0.003694143 0.00016077093 -0.0044421125 -0.0043307287 0.0008793711 1.5175763e-05 -0.0016561573 -0.0010917361 -0.0027076544 0.001234925 0.00075419515 -0.0019485744 -0.0011612762 -0.002497364 -0.002468628 0.0029996345 -0.004329392 -6.536934e-05 0.0004267002 -0.004932984 -0.003675416 0.0003270902 0.0010789889 0.003721893 -0.00380608 0.004371514 -0.0004193913 -0.0015287142 -0.0023734272 -0.0002582304 0.00024686923 -0.0019085375 -0.0008665971 -0.004418977 -0.00080649526 -0.00016589892 -0.004486286 0.0007670796 -0.00020334625 0.002820664 -0.0032423064 -0.0015273427 0.0048504965 -0.0032800224 -0.0028600805 0.0047084666 0.0005839875 -0.0036478327 -0.004483921 0.004138487 -3.9691007e-05 -0.0006439885 -0.004906303 0.0003919408 -0.003925733 0.0014326983 -0.0038877758 -0.0034644632 -0.0021369613 -0.00034713483 -0.0027150258 -0.0036871012 -0.00455597 0.0025969082 0.0008704659 -0.0011632162 -0.003729273 -0.004294094 -0.0025581473 0.002671172 0.0016177632 -0.0022194623 -0.0023980215 -0.00031717762 -0.002892495 0.0019543974 -0.001780907 -0.0007968956 0.0029248195 0.0035352835 0.0025317029 -0.00120799 0.0007585061 0.0036207591 0.00015705415 -0.00041322407 -0.003584194 -0.0029685257 -0.0028148554 -0.0037378515 0.0013773548 0.00061969453 0.0038812293 0.0042971945 -0.0029820672 
TEAD3	0.0015914859 -0.0013518049 -0.0005712345 0.00049907673 -0.0012922005 0.0018580499 0.00019424294 -0.0017735222 -0.004841612 0.0037470108 0.0039723665 0.00013308389 0.0018955899 -0.004729984 -0.0005870308 0.0033179114 0.000787544 0.0032246083 0.002498869 4.1598745e-05 -0.0041703316 0.00095354975 0.003688731 0.0008015344 -0.00075891713 -0.0028546632 0.0040109684 0.0022126616 -0.0036060715 -0.00091714115 0.0037586084 -0.004605978 0.0031300797 0.001040494 -0.0024443718 -0.0017758956 0.0043196445 0.004537606 0.001903046 0.004744846 -0.0035861158 -0.003967036 0.003772263 -0.00048039173 0.00059643574 -0.0023548247 -0.0027530456 0.002315061 -0.0035414214 -0.0018537849 0.0043575447 -0.0034307062 -0.003940069 0.0009690707 -0.0020667496 -0.0030123035 0.0018044113 -0.0045713563 0.002363909 -0.002246192 0.0022447747 -0.0017509658 0.0017308567 -0.004317694 0.0014971044 -0.004525113 -0.0032672444 0.0017272301 0.0009952171 -0.0038466363 -0.00050935603 -0.0034984737 -0.002787392 6.7895446e-05 0.0030414572 -0.0019784207 -0.0030656315 -0.0024075543 0.003992526 -0.0030169932 -0.0030891423 -0.0012142117 -0.0009193976 0.0018730578 0.002201243 -0.0017418207 0.0001386017 -0.0028088496 -0.001533688 0.0012652385 0.0049318774 0.0031044222 0.0047678454 0.00065409316 0.0031946613 0.00017941595 0.0023004736 -0.0030839785 -0.000952803 -0.0049355095 
GLI1	0.004760236 0.0012592961 0.0010793312 -0.00059590384 0.000837169 0.0047826734 -0.004412209 0.0015086251 0.00056371564 -0.0006696423 0.0010069946 -0.0019380272 -0.0047435923 -0.00055643456 -0.0014477831 -0.0014440196 -0.0008998962 0.00337135 -0.0010527117 0.0022211638 -0.00084321754 0.00109551 0.0049596485 -0.0015470632 2.4105044e-05 0.0023325966 -8.4564104e-05 0.0023230615 0.002442334 0.00291452 -0.0043564728 -0.0026193582 -0.0047992687 -0.004731502 0.0032817037 0.004159967 -0.00016167176 -0.004679584 0.000553718 0.00095161644 -0.00038470796 0.0014098623 -0.0034743808 0.0023524784 0.00436825 0.0013279248 0.002785653 0.0008307761 -0.0004099934 0.0047325823 -0.0023289537 -0.00096712867 -0.0046645612 -0.0041802414 -0.0049313013 0.002368976 -0.0008171062 0.0012613871 -0.0031530713 0.00329869 -0.0047372133 0.0039193216 0.0022952843 -0.0010750525 -0.00406149 -0.0049294517 -0.0013580119 -0.0007152661 0.004799446 0.0042862175 0.0005777194 0.0023277202 0.0031205919 -0.004727534 -0.0049225553 0.00015712446 -0.0035224543 -0.00047786505 0.0046013324 0.002398065 -0.0020730312 -0.0021161977 -0.0034778798 0.00039232487 0.001632463 0.0044720327 -0.0019450362 0.0023899344 -0.0015919262 -0.0049088513 -0.00400915 0.0028696225 0.0019050837 -0.0012250203 0.0035297323 0.004399682 -0.00070067367 -0.0030546116 -0.0041041244 0.0025700196 
MAML3	0.0035445376 -0.0047834883 -0.0007457552 -0.0022752557 -0.0013153072 -0.0013422709 -0.00016496761 -0.0016586619 0.0015420908 -0.0035208156 -0.0047426564 -0.0016901885 0.0044232816 0.000117794385 0.0034372634 0.0013613717 0.0037719905 0.002130972 0.0045089233 0.0045893826 0.003828057 0.0029793556 0.0028746773 0.00439323 0.0003136292 0.0011189552 0.001165098 -0.0002628316 -0.00234642 -0.0048684236 0.0015129816 -0.0026024864 -0.0030239462 0.0006772209 0.0007831971 0.0004926882 0.00444487 -4.0918047e-05 -0.0045451378 -0.0022621176 0.0031284525 -0.0012500554 0.0030407477 0.004846466 -0.0024585372 0.0035495318 -3.4240787e-05 0.002798172 0.0035534548 0.0006004789 0.00495975 -0.0036635844 0.0005021629 0.00028974193 0.0028003484 0.0024252217 0.004522292 -0.0049252748 0.002675342 0.0039072926 0.004959315 -0.0035033706 -0.0016899041 0.0021066656 0.003853833 0.0008141287 0.004781617 -0.00042943208 -0.0044619814 -0.0035239456 0.004228846 -0.0044626156 0.00093884894 -0.0036709905 -0.0016169904 -0.0035218748 -0.0007942029 0.0037046515 0.00085356104 0.00011890439 0.004305572 -0.0014449079 -0.0020656134 -0.004351384 0.00029589146 -0.0007150227 0.0037949476 -0.0001961281 -0.0022949835 -0.0027484086 -0.00028801814 0.004608086 0.00020549566 0.0014674052 -0.0045765657 -0.003957043 0.0014097228 1.1670764e-05 -0.00041942316 -0.002262683 
FGF14	-0.0017916491 -0.0044053555 0.004509744 0.0015964202 -0.0034676965 -0.0045790514 -0.00024199024 -0.002783402 -0.0024275717 -0.0019122694 0.0016337713 -0.0018052037 0.00030947907 -0.002746632 0.003894377 0.0015899536 -0.004047249 -0.0014961169 -0.0044063986 -0.0039719585 -0.00063191314 -0.002877924 -0.0043773325 -0.0040637576 0.0040915236 -0.003471273 -0.0048144204 -0.004788244 0.0030241774 0.004833759 0.004865179 0.0031390463 0.004311645 0.0011961731 -0.003424663 0.0017801166 -0.004682792 0.0028106081 -0.0007977243 0.0037832244 -0.003102102 0.00051524077 0.0038003766 0.00089327636 0.0005902475 0.0035434037 0.00078306714 -0.0038881588 0.0049573416 -0.0038984483 0.001793193 -0.0027962304 0.0050011147 0.004038462 0.0042629573 -0.0048736893 -0.0021250101 0.0042004595 0.0002562953 0.0015526951 -0.0037480332 -0.0045628194 0.003206711 -0.0010705115 -0.0030728923 -0.0025967567 -0.0012175892 0.0039017878 0.0034985717 0.0029974312 -3.5386183e-05 -0.0048161545 0.0026371975 0.0011377066 -0.0015513884 0.00353516 -0.003801097 0.0005103771 -0.0029807517 -0.0010759463 0.0038574648 -0.00064898375 0.003163098 -0.0043365187 0.0021012493 0.003836941 0.003301211 -0.0033175903 0.00032519424 -0.004747702 0.00084129017 0.0015057073 0.0017216919 0.0015352143 0.002472641 -0.0049030855 0.00046923227 -0.002716475 -0.003851326 0.0006727177 
SIM2	0.0034597365 -0.00082700094 0.0011435043 -0.004498382 0.00046475406 -2.250457e-05 -0.0015896377 -0.0047415793 -0.0012553728 -0.0023497408 0.0013691939 -0.0011382012 0.003639422 -0.004087646 -0.00225523 -0.0013191906 -0.0021038558 -0.0017991157 -0.0040851748 -0.004623831 3.248498e-05 -0.003189265 -0.0030871704 0.001647237 -0.0031461148 -0.0016716568 -0.00053905736 -0.001141934 0.0031147883 0.003978031 0.0018063762 0.0036118848 -0.0028704233 0.0036634537 0.00078939757 0.0031708502 0.0018403558 -0.00073387445 -3.6373167e-05 -0.00038499592 -0.0031020392 0.0023103664 -0.00087021384 0.0033478488 0.0019709126 0.00398682 0.0017234698 -0.0037701617 0.003481527 -0.0004886307 0.0021603024 0.0011771859 0.0047961175 0.0023560405 0.004556305 0.004355192 0.0034867031 0.0041925204 -0.0044969674 0.004845297 -0.00060059567 -0.0024974768 -0.002012576 -0.00029949524 0.0015969636 -0.0027717247 0.0024330313 -0.0046930667 -0.0014045624 -0.00011833737 -0.004551001 -0.0031237064 -0.0013516898 0.0036872479 -0.002607456 0.00096686935 0.0022766676 0.0011467781 0.002174117 0.0019486715 -0.0025445432 -0.0023413333 -0.00032295767 0.0010922264 -0.0011081195 -0.0029601012 0.0036511354 -0.0012852974 0.0019529522 -0.0048537967 -0.0018430406 0.003070507 -0.0026193403 -0.0022727877 -0.0030659104 0.0037159715 0.0019394733 -4.5913086e-05 -0.001068722 -0.004969918 
CCAR2	-0.0045774933 0.004464829 -0.0031806221 -0.003942135 -0.0027697321 0.0019057947 -0.0013165522 0.0044296375 -0.0027383773 0.0032727877 -0.004254077 -0.0011513935 0.0008097986 0.0045626913 0.003704533 0.003511095 0.002592123 -0.00354604 0.0019329683 0.0011545254 -0.0034175552 -0.0011393015 -0.002102722 -0.0010112787 -0.0031532706 -0.00074845937 -0.00027599637 0.004603936 0.001925801 -0.0015197969 -0.0014312534 -0.0015378513 -0.0033416422 0.0047086217 0.003435396 -0.0010746947 3.273675e-05 0.00040411923 0.0022343346 0.002203873 0.0007354657 0.0028010332 -0.0009369478 -0.0048100287 0.0049863067 0.0046692668 -0.0039949776 0.0045006233 -0.0025901643 0.004606501 -0.0014525409 -0.00017539138 -0.0016875542 -0.0039332006 0.00056573446 -0.00094114407 -0.0013829896 -0.00057345314 -0.0016205765 0.000655509 0.0026248537 -0.0007214684 0.0007280712 -0.00012882559 -0.0009986181 0.0001613018 -0.0035430358 0.0037322305 0.0021576504 0.0015915488 -0.0036647583 0.0025215263 0.0011204367 0.004877203 0.00441311 -0.0036813274 0.0046977242 -0.002350794 -0.0013580191 0.004312176 0.00392037 0.0006914118 -0.0046556494 0.0011804277 0.0025744052 -0.00025475252 -0.0028964877 -0.001451702 -0.0005055299 -0.0009275968 -0.0016838306 -0.0012377526 0.0022292333 -0.001606066 0.0016774854 -0.0013081786 -0.0009966184 0.0025372668 -0.0013200503 0.0036896418 
GPR65	-0.003194212 -0.0048087216 -0.0044494807 -0.0005856731 -0.0020336935 0.0043510827 0.004805949 0.0006323341 -0.0012231057 0.0012399497 -0.00018590227 0.0013435466 -0.0019990543 -0.0037992033 0.0029741381 0.0022496004 -0.002464099 -0.004271149 0.00458739 0.0007003423 -0.00089922384 -0.0028908958 0.003930205 -0.0024124437 -0.004237076 0.00052154955 0.00020839095 0.0014670128 -0.0020009915 0.0008716771 -0.003641837 -0.0035875265 0.003714511 -0.00036619967 -0.0039967885 0.0009850364 -6.276415e-05 -0.0016101063 -0.0027749413 -0.0044352286 -0.0030451692 0.0011759346 -0.0019609625 -0.0048475494 0.0043914826 -0.00074080034 -0.0030400187 -0.0023669573 -0.0001091477 0.0011368262 0.0029854963 0.0002997115 0.0006376073 0.0046247933 0.0041113943 0.0046502724 0.00040640676 -0.0015347134 0.00046780414 -0.0012233739 -0.002329107 -0.004832814 -0.000701143 -0.001168283 -0.0030811117 -0.0037954457 -0.0010510247 0.0018702035 0.00027893117 0.0017347552 -0.004211453 -0.004219709 0.002016512 0.0037075991 -0.0015455713 0.004852672 -0.004163751 0.0014778937 0.004174182 -0.00035218336 5.377453e-05 0.0027094823 -0.0023951624 0.0035382612 0.0011982723 0.0018371872 -5.4230284e-05 -0.0013198446 -0.004058955 -0.0027431422 0.0020496808 -0.0027734311 -0.0048380983 0.003943198 0.00055202545 0.0012295053 -0.00288698 0.0021621767 -0.0013430871 -0.0019398747 
MYL9	0.0045296354 0.004711527 0.0010011848 0.0013884701 0.004980051 -0.0009969424 9.5779535e-05 0.00029165336 -0.0043568215 -0.004666193 0.0043173563 0.0023150765 0.003241872 -0.0018977883 -0.0040941965 0.004257851 -0.0042979014 0.0014911786 -0.004906695 0.0034182332 0.0048253797 -9.104859e-05 -0.0016590521 0.0028166224 -0.004970091 0.0007059982 0.00024820716 -0.00041686132 0.0027756817 0.0028373008 0.004771111 -0.0035821141 0.0020697298 0.0012820974 -0.0040809726 -0.00095842587 0.0030699754 0.0015956381 -0.00024323739 0.002713335 -0.00032201037 -0.0029982156 -0.0015707603 0.0015603161 -0.0038400802 -0.0039711 0.0016564465 0.0027367312 -0.0049753035 0.0043132827 9.821275e-05 -0.0048132082 0.0018447994 -0.0008119413 -0.0016289579 -0.0011447568 -0.0043152287 -0.0037342722 0.0043080836 -0.0022364403 0.004704527 0.0048924577 0.0010449571 -0.0006447168 -0.00067670504 -0.0011921803 -0.0044211275 0.0004464687 0.0016463231 -0.00040096376 0.004276793 0.0022305495 -0.0041052927 -0.0040338137 0.0015296863 -0.0016376288 0.0047831545 0.0017114201 0.0023818393 -0.0012783078 0.0016484074 0.004596248 -0.001781029 -0.0014227454 0.0048114187 -0.0031388458 0.0006104536 -0.0009806601 -0.0013809991 0.00035956752 -0.00031628044 0.00019370655 0.00299955 -0.001227118 -0.00349406 -0.0021170843 -0.0049977642 0.0009615465 -0.004627193 0.0021671664 
ADCY9	-0.0007825021 -0.00087305525 0.0024455544 -0.0006018042 0.0036245645 0.0034591102 -0.0004376794 0.000360807 0.00018358284 -0.00093323825 0.0015289598 -0.0004108116 -0.0048241327 -0.001837539 0.00074154383 0.0019855513 0.003429551 -3.4580375e-05 -0.0032002144 -0.003930253 -0.0005638308 0.00027792633 0.0007384356 -0.0046909065 -0.00067853526 0.00012015887 -0.0046542464 -0.00351705 0.002589899 0.0034906336 -0.004859928 -0.00054068543 -0.0038364797 -0.0027298552 -0.0014464305 0.0016383075 0.0015771105 0.0029545065 0.0027388171 0.002914771 0.0027365908 0.0027553826 0.0023978895 -0.004477896 0.0014242543 0.0027514515 -0.0026512065 -0.003852765 0.0002472399 0.0038710653 -0.0038518582 -0.0010621507 -0.0031720223 0.0018019591 -0.0035742903 -0.004057747 0.0013800088 0.0017235506 -0.0008447975 0.0045497008 0.00062048907 0.0036012956 0.0009554052 -0.0028759292 0.0029784108 -0.0026961209 -0.0035437527 0.002364558 -0.0037136388 0.004128938 -0.003212048 0.0020370716 -0.0027910837 0.002619116 0.0047246013 -0.0038885416 0.0021579715 0.0001912956 0.00096912676 -0.0040811338 0.003942711 0.00050006306 -0.0017496579 -0.0037427007 0.0009025589 -0.0007166814 0.004052094 0.0048204665 -0.0034927158 0.0040459456 0.0036092133 0.0021661418 -0.0044966373 0.0032634872 0.0037669565 -0.001418498 0.004369062 0.0037250635 -0.00036620998 0.0015804915 
ERF	0.0026932794 -0.0005923421 0.004122797 0.0027189904 -0.0009352734 -0.00057713693 6.295239e-05 -0.0033802928 0.0046849814 -0.003996687 0.004128383 -0.00045782805 0.00028848666 0.0010553906 -0.00074875867 -0.00041790464 0.001329664 -0.00024345952 -0.0042972295 -0.004406876 0.002767424 -0.0019017095 -0.0026412085 -0.004574585 -0.0030857571 0.00347353 -0.0023950993 0.00083186524 -0.0039958833 -0.0033452604 -0.0035468296 0.004178175 0.0033693947 -0.0039861933 0.0023905546 0.0019204337 0.004502043 0.0028225258 -0.0024664537 -0.0017775246 -0.0015356515 -0.004686203 -0.0012230132 0.0018210079 0.003258774 -0.0040292926 0.00079907395 0.0023345205 -0.00073944504 -3.0815e-05 0.0023447438 0.0032243964 0.0022849378 -0.0024488245 0.0032980745 -0.004310444 0.0021816425 -0.0045913397 -0.0035732659 -0.0041736406 -0.0019104254 -0.0032427378 0.0046915715 -0.0033568246 0.0032469719 0.0017038167 -0.0019856677 0.0022284708 0.0043569235 0.004005622 0.0016252226 -0.00070684415 0.0011221252 -0.0026696327 0.0036056016 0.0045332597 0.0025168278 -0.004726258 -0.00074562774 4.151217e-05 0.002238969 -0.0007076837 -0.0029024193 -0.0032558313 0.0040067956 0.0014001802 -0.0027813741 -0.0040439605 0.00035908952 0.0008185376 -0.0013367562 -0.0024978886 0.002213756 0.00035566845 0.0041592033 0.0035097457 -0.004886767 -0.0021869775 0.00044439037 -0.0004483694 
NAB2	-0.0036683758 -0.0022569227 -0.00045882523 0.0031458403 0.00057681854 -0.0025985057 -0.002976888 -0.0046587987 -0.004862774 0.004738422 0.0032761786 0.0002430298 0.0026252505 -0.0040572286 -0.000603236 -0.0038374974 0.00047152195 -0.004990856 0.0014523729 0.0049776593 0.00028242113 0.0027956106 -0.0016358113 0.004553878 -0.003361844 -0.003308045 -0.004487156 0.0016140129 -0.003859893 -0.0030255807 0.0019417497 0.0036111989 0.00064814684 -0.0031001014 0.003928536 -0.003569592 0.002744859 -0.003961082 0.0022028515 0.002869419 0.000515047 0.0028232073 -0.0038260305 -0.0022778206 0.0043576094 -0.0010645745 0.004777522 0.00012080827 -0.004371569 0.001659575 0.00444926 -0.0037624491 -0.0027023484 -0.0008481291 0.0031948679 0.003318381 0.004374678 0.00095363037 -0.0029813584 0.00019507881 0.0028369224 0.004888492 0.003926173 -0.002373717 -0.0036942908 -0.0010569806 -0.0034773792 0.0022504532 -0.0031562084 -9.858257e-05 4.5716777e-05 0.0013064281 -0.003975656 -0.0043591787 -0.0027745585 -0.0034406164 -0.004719277 -0.001798376 0.00013559581 0.0047189863 0.0014066387 -0.0026115158 -0.0011659476 -0.0033608275 -0.0026044538 0.004785224 0.0043178885 -0.0046100114 -0.00406836 0.003139454 0.0024343198 -0.0029714287 -0.004936264 -0.00078188756 0.0011243913 0.0011080246 -0.00456144 0.0036480564 0.0015897466 -0.0026315032 
TRPM7	-0.0032094019 0.004893304 0.0049306788 0.0019533755 -0.0043694535 -0.0032357078 -0.0047790185 -0.0025063034 0.0009622722 -0.0008804194 -0.0032175926 0.0017884456 0.00013971941 0.00020744915 0.0022710962 -0.0007151268 0.004305851 -0.002969903 -0.0042830673 0.0006818168 -0.0006381138 0.00023207035 -0.004669523 0.0010773748 -0.00293565 0.0038946324 -0.00012747344 0.0047323806 0.00012759672 5.0570314e-05 0.0041341498 0.0048154946 0.0032870634 0.0005392553 -0.0030095407 0.0027988025 0.003010944 -0.0042532585 -0.0034878436 0.0034265772 -0.0012703921 -0.0046714954 0.0026898235 -0.0009467071 -0.0043562385 -0.003990584 0.003321045 -0.004241575 0.0036121616 -0.0012618308 0.001899217 6.283074e-05 0.00085875054 0.0029007196 -0.0004200198 0.002263952 -0.0031187949 -0.0001779424 -0.0033835487 0.00017010202 -0.0018498208 0.0038433336 -0.0025273704 0.003569103 0.0031874694 0.00092704425 -0.0014311352 0.0018681402 0.0020623044 -0.0013805985 0.00455457 -0.00017343475 0.003318854 0.0010017173 0.0007104823 -0.00032291052 0.0046176496 -0.004143314 0.0030124618 0.00049975136 0.0044183363 -0.0035830534 -0.004340314 0.0028501921 -0.0028637613 -0.0048848977 -0.0030985714 0.003270046 0.0019598922 0.003221235 0.0021384305 -0.0024278385 0.0030418385 -0.0024374414 -0.0013222869 -0.0017205902 0.0005392687 0.0019268837 -0.00468172 0.0019003869 
DTX3L	0.0008272192 -0.0008429442 -0.0013766319 0.0015656824 -0.0020648877 -0.0034802945 -0.0008842167 0.0033651763 -0.00052325515 0.0036813186 0.004975075 -0.0041173887 -0.0019476719 0.003671087 -0.00029486173 -0.0026546763 -0.00017380636 -0.0026504844 0.001753548 -0.0048875366 -0.0027965903 -0.002708268 0.0009361109 0.0013943189 0.0037589578 -0.00010005522 0.0022470579 -0.003959989 -0.0043094084 -0.00096090365 -0.002974827 -0.00416854 0.0043043066 -0.0007512583 0.00364034 0.0011065912 0.0037780465 0.0014491912 -0.0025589496 -0.0014124719 -0.0042387773 -0.0009817759 0.00010560593 -0.004520185 0.00070932496 -0.0025805493 -0.00071547244 0.0019349532 0.0016418236 -0.00034434276 0.0015114952 0.0019373063 -0.00070639397 -0.0043883314 0.0027174042 0.0035563537 -0.0023330406 0.002399251 -0.0034260966 -0.004144363 0.002866176 -0.0034010191 0.0010273437 0.0017741596 -0.002033995 0.0012669557 -0.0024198878 0.0010234653 -0.0002496767 0.0037268267 0.00062867283 0.0015894952 0.0027421508 -0.0003762093 0.0011589951 -0.0041909614 0.0009344038 0.0005389937 0.004280398 -0.0041685873 -0.003392035 0.00024020331 0.004408658 -0.0028568576 -0.0047661043 -0.0023305696 -0.0024603524 -0.0044507976 -0.0017922868 -0.0034800202 0.0045380294 0.004365146 -0.0049651354 0.0012594997 -4.1172785e-05 0.0041407 0.004343228 0.0035592183 -0.0028050882 -0.0037953488 
MDH1	-0.0027139687 0.0043876884 -0.0031641412 -0.002634022 -0.002424619 0.0046403212 -0.0016763489 -0.00021450958 -0.0034718197 0.0032008109 0.0015013942 0.0038287912 0.0013018738 -0.004564799 -0.0029640924 0.0016066106 -0.0025224078 0.000112122245 0.0025559976 -0.001260895 0.0006526596 0.004827347 0.0036818343 0.0007761095 -0.0033415465 0.003024374 -0.0037871378 -0.0027578906 0.0012747903 0.0014940129 0.00033184374 -0.003832667 -0.002862315 6.834243e-05 0.0049428996 0.0010293759 -0.0041958136 0.00013247754 -0.0029699975 7.953085e-05 0.002379388 0.00097200566 0.0009464369 -0.0025588397 0.0026173661 -0.0031446759 0.0043060645 -0.003065612 0.0010930052 0.00015749785 0.002580522 -0.0030634177 0.0019868747 -0.003997863 -0.004046818 0.004488264 -0.0019902594 0.0027937046 0.0015913199 -0.0014053134 -0.0047147907 -0.0023041714 0.002417394 -0.0018388897 -0.0041640643 -0.0029198849 -0.002178351 -0.0024179996 -0.0031258636 0.0020939754 -0.0022703297 0.0016987266 -0.0004757013 0.0019069738 -0.0022182942 -0.0043763574 0.0048878402 0.0031022953 -0.0040342393 0.0004249646 0.0021615843 0.0018824397 9.305384e-05 0.003948366 2.6085456e-05 0.0031255414 -0.0045706946 0.0016750577 -0.0039643086 -0.0008072954 0.00039402573 -0.00086414866 0.0033359225 0.003934639 0.0031850315 0.001812787 0.0006424402 -0.0017935409 -0.0017686739 0.0020149273 
CD24	-0.00071548694 -0.0035860538 0.00015051564 0.0040235836 0.0007009993 0.0027221076 -0.0037329514 -0.0045780097 0.0033984107 -0.0017271097 0.0029992752 0.0027366295 -0.0006730669 0.0031390623 -0.0042311265 0.0023764542 0.0014716994 0.002897951 -0.0004411618 -0.002228636 0.0018329874 0.0001184549 0.0031219642 -0.00426975 -0.003189995 -0.0022343688 0.000760445 0.0047164196 0.0043150703 0.002621935 0.0036116783 -0.00465433 -0.001003639 -0.0009088955 0.0010478318 -0.0034489306 -0.0024711874 9.270633e-06 0.0011324346 0.0032024996 0.0009877874 0.003750247 0.0001551652 -0.001066128 -0.004149789 -0.00368658 -0.0044969553 0.0027484 -0.0023831795 -0.00021815459 0.0029120424 0.004288931 0.0035522939 4.8894017e-06 -0.0013830587 0.001420286 0.00046967238 -0.0016712801 0.0021302733 0.003144715 -0.0035193826 -0.004254797 0.002893875 0.004631357 0.0011719302 0.0035701736 -0.0027015775 0.003700809 -0.003741673 -0.0024601475 -0.0028548571 0.004225011 -0.002247205 -0.0040252376 -8.1761544e-05 -0.001490131 -0.0012622131 -0.0023240144 0.0025720396 -0.0047053895 0.0042444193 -0.0035035086 -0.0025184928 0.0045591146 0.002294079 0.0009885833 0.0034151194 -0.0012397326 -0.0027149243 0.0013651606 -0.0035483707 0.00027437293 0.0031645023 0.0011235952 -0.0006979221 0.0035840466 0.003812941 -0.0015147666 -0.004783887 -0.0025803149 
OR4S1	-0.0034412078 0.0010052506 -0.00377472 0.0009679616 -0.004433978 0.0004042785 0.0011133128 -0.004244075 -0.004412811 -0.0035090025 -0.0004126043 -0.0029960999 0.0005619677 0.0014785003 0.0048489873 0.0018300031 -0.0030855155 0.0021873822 0.0019055888 -0.0010066418 -0.0025359045 0.004713396 0.0036051983 0.0035665927 0.0035295037 0.0033137058 0.0041432725 0.004820833 -0.002675342 0.0033638324 0.0036625352 0.004951576 -0.0019013546 0.003939163 0.0036981716 0.003459382 0.0028263454 0.0014706868 0.00079957215 -0.0028678994 -0.00492625 -0.002897665 -0.0029463922 -0.0023583807 0.003942236 0.0034381861 -0.001213979 -0.0024513984 -0.0017737998 -0.0028848865 0.0016629035 -0.00021641406 -0.0034066243 0.0019972697 -0.004479663 -0.0034541045 0.002952936 -0.00069588196 -0.00022470157 0.00458328 -0.0010731865 0.003750868 -0.0019064227 0.003150761 -0.004623892 0.003049163 -0.00462454 -0.0024434505 0.0028343778 0.003978324 0.00038894743 0.004606167 -0.0016177413 0.0028848306 -0.0044862707 0.00387954 0.002521946 0.0048539345 0.0011879023 0.001701557 0.004009234 -0.0017711779 5.192242e-05 0.000714047 -0.0047878292 0.0020638339 -0.0015684043 -0.0020424523 0.0034065011 -0.0014915271 0.0040098955 0.0016223704 -1.2953637e-06 0.002548409 0.0016960668 -0.0027327994 0.0043285866 0.002322672 -0.0036428014 -0.0012019147 
HSPG2	-0.004838137 -0.0014366113 -0.0010188874 -0.0029970547 -0.0005233884 0.00087474124 -0.0047099716 -0.002144488 -0.0044323285 0.0013208956 0.004286558 -0.003543977 -0.0012475196 0.004354167 0.0014297076 -0.00381602 0.0010142534 -0.0035005545 -0.0012235949 0.0009363067 0.0018685566 -0.000774503 -0.0042812563 -0.003610431 0.0009820117 -0.00379611 0.0020872587 0.0040407847 0.0037377437 -0.0022852318 -0.0025287136 0.0026075335 0.004040519 0.004327975 -0.002104973 -0.0002308504 0.0009786111 -0.0031750484 0.0031869255 0.00437076 -0.0026364746 -0.0013899364 0.002451626 -0.000507221 -0.0047004907 0.0019758507 0.0047389185 0.00054068584 0.0024500692 -0.0043770773 0.0009405904 0.0024226387 -0.0017653569 -0.0041456167 0.004186759 -0.0048098913 -0.0035554918 -0.0016520745 0.0001713881 0.0046876553 -0.0007433523 0.002215118 0.0004195532 -0.0015059782 -0.003996579 -0.0023877844 -0.0039541237 -0.0033184285 0.0034059882 -0.00083149446 0.0042676474 0.003857227 0.0018586603 0.0028040002 0.0025487978 -0.0024456256 0.003049985 0.0026248323 0.004473104 -0.0019898189 0.0002594077 0.0022642133 -0.0028247917 0.0018149011 -0.0002562065 0.0035964143 0.0028542038 -0.0034331824 -0.0029739575 0.0013998335 0.0019769839 0.0024211544 0.00081239437 0.0023690863 0.0020688393 0.0045914436 -0.00031442143 0.002205902 0.0012364973 -0.0035121797 
PHLDA2	-0.0038975556 -0.00051363953 -0.0003736049 -0.004123462 0.0034926352 0.00044989205 -0.0045067878 0.0020868396 0.0011091633 0.0019606925 0.0020339158 -0.0030935493 -0.0015772464 -0.002810609 0.00073013024 0.00020815067 -0.0041632196 0.004730204 -0.002734722 0.0005422115 -0.0013378343 -0.0033937648 0.0040251445 -0.0023592326 -0.00044108706 -0.0043808715 -0.0041614133 -0.0002229216 0.0005051985 -0.00037086525 0.003611675 0.003928274 0.0006605222 -0.0013690413 0.0019336077 0.0027755625 -0.002878634 0.003403707 -0.0010207995 -0.0016790188 -0.00073253806 -0.0015780543 0.0037309104 0.00046945707 -0.0013357413 0.0040412406 -0.0017920573 0.00203198 -0.0036682107 0.00010750148 -0.0017163077 -0.004490034 0.004775097 0.003151554 0.0037015686 -0.0018102413 -0.004847197 -0.003610318 0.0026358862 -0.002996561 -0.0042625777 0.004331618 0.002817935 0.0040590535 0.004710717 0.0031104463 0.00092735107 0.0047425907 -0.000518647 0.001989305 0.004329855 -0.00092054997 -0.0001513002 -0.0032303957 -0.0015475496 -0.004376573 -0.0021810276 0.002050934 -0.0010091016 0.0006845823 -0.0033771286 0.004383026 -0.004835716 -0.0005856933 -0.0041879634 0.004200395 0.0014953454 -0.0028617044 0.0031731501 0.0035372896 -0.0034156083 -0.0047712345 0.0038567898 0.0019748663 -0.002935553 -0.0017648918 0.0033718557 0.0023007568 -0.00019642596 0.0030706218 
YARS	0.0008288112 -0.0018505168 -0.0049145566 -0.0032818632 -0.0033545697 0.001417357 0.0045184023 0.002945454 -0.00241549 -0.0028442189 -0.0013654479 -0.00150254 0.0023725568 0.0032635448 -0.00068340625 0.0025176504 0.0043260744 0.004729074 0.001645078 0.002654832 -0.0035531851 0.0009777034 -0.0018545734 -0.0038074807 0.0015882581 -0.0032746247 -0.0012160932 -0.0034061554 -0.00034630025 0.0018686852 0.0017774036 0.0022018945 -0.0047450378 -0.00013536101 -0.0047864793 0.0018678528 0.0023746921 -0.001294903 -0.0021607622 -0.00092111505 -0.0044769654 0.0023885213 0.004676548 -0.0014224717 -0.0004932659 0.0021161085 0.002946978 -0.0023075193 -0.0016895256 -0.0009209874 0.004186953 0.00077308895 -0.0037319197 -0.0006792811 0.004709379 -0.0033813084 0.0018185204 0.0011002596 -0.002896284 -0.0006884139 -0.00043339565 0.0026934226 -0.0014158644 -0.001305589 -0.002101041 -0.004234812 0.0044414634 0.0011020803 4.9902257e-05 -0.0042012553 -0.0035002283 2.8015384e-05 -0.0040142583 -0.0012661463 0.0008454272 0.0015774872 -0.00018495762 -0.0013142395 0.0010984502 0.0019463857 -0.0043034554 0.0019155538 0.003165099 -0.0043206564 -0.002884562 -0.0028336071 -0.003025248 -0.0029495629 0.0017519542 -0.0045870417 -1.8877341e-05 0.0034781583 -0.0011369 -0.00027309154 -3.063656e-05 -0.004796216 0.0030194432 -0.00095495244 0.004901703 0.0024452677 
DMD	-0.0035519546 0.0040438515 -4.7840582e-05 -0.0033420497 -0.0012670663 -0.00028776296 -0.001447689 -0.0021229659 -0.004915732 0.0022949895 -0.0006171953 -0.0016139015 0.0026753403 -0.002317887 0.00259303 -0.0024616057 -0.0008659796 0.0033644075 -0.00090905034 0.0039794985 0.0037430322 0.0049935724 0.0034315193 0.0017099067 0.003407208 -0.0039801835 -0.0011426492 -0.004736376 -0.003576815 -0.0028845845 -6.8988345e-05 -0.0020020627 -0.0021512022 -0.004035336 -0.003233999 -0.0008098532 -0.00017278564 0.00040557643 -0.0047370996 -0.0029565508 -0.0016303484 0.0015888315 -0.0011743692 -0.00016699472 0.0031231584 -0.0007306794 -0.0007949941 -0.0018313793 -0.0010612386 0.0028400894 -0.003718862 0.002545427 -0.0044098715 -0.002045498 -0.0016316371 -0.0023713608 0.0021055255 -0.0008718803 -0.0001504595 0.0045918794 0.004071592 -0.0032942032 -0.0018121464 0.0010191078 0.00030952718 0.00063842133 -0.000919345 0.0022322037 0.002820972 0.0028047946 0.0032886683 -0.0041379067 -0.0025295294 0.003987429 0.004429639 -0.00033358793 0.0042230403 -0.0024366323 0.002691968 0.0017978698 0.0018156861 -0.00075694267 -0.003729432 0.002525648 0.0010568528 -0.0017123122 -0.0037630098 -0.004276558 -0.0038228007 -0.0031489208 0.0040460094 0.0037248565 0.0014518878 -0.0030334427 0.004302798 -0.004338364 0.0030432274 0.0023915053 -0.000382741 0.0038495867 
NOL8	-0.0049674422 -0.0022592829 -0.001674069 -0.0048124613 0.0037073996 0.002389387 0.00443101 0.002124753 0.00049767253 0.0004878326 -0.0030889409 0.004423979 -0.0037437987 0.0029786087 -0.00011471348 0.003184332 -0.0035068835 0.0018912603 -0.0035133678 0.0049793744 0.0028539149 -0.0017216596 0.0017398552 0.004211259 0.0034227679 0.0013794565 -0.003947177 0.0007461873 -0.003280456 0.0015711326 -0.0042122323 0.0006678735 0.00038712026 0.0032508979 0.00030119473 0.0016166153 -0.0027666108 0.0005775025 0.0037493538 -0.0012273341 0.0010775619 0.004407934 0.0015056458 0.0004794055 -0.002427306 0.004087567 -0.0016905735 -0.004802908 0.003875137 0.0008450649 0.0028024188 0.0032477092 0.0007087923 0.0049702935 -0.0020323782 -0.003962081 0.0017433589 0.001817681 -0.0027875777 0.002201457 -0.0049518966 -0.0011067461 -0.001975168 0.004874998 -5.3618536e-05 0.0013053236 -0.00034505466 0.0018137859 -0.0034030804 -0.0033387989 0.0014874166 0.004086292 0.0025051706 0.0015951091 0.0021971038 -0.0022845461 -0.004092759 0.0035711557 -0.004657261 -0.003995683 0.004087417 -0.0022536016 -0.0006879322 -0.004949333 0.00073715 0.00089941407 0.0028120817 -0.0023134153 0.0036713048 0.004712755 0.0006061567 0.002240538 0.0017784983 0.0034866114 -0.004258396 0.0043765907 0.0018662566 0.0026709829 -0.0036496874 -0.0015479773 
CLEC10A	0.0019382476 -0.003424711 0.0029076852 -0.004403656 -0.00032723648 0.0005045346 -0.0020925114 0.0014028529 -0.0011106401 0.004671149 -0.0018252612 0.00083549233 0.0049614673 -0.0015812624 -0.0026072257 0.004538277 -0.00090797746 0.0038378842 1.5120596e-05 0.0009070763 0.0011329394 0.0016296201 -0.0016344324 0.0044438206 -0.0007087299 0.003941006 -0.0035244252 -0.0019930294 0.002600707 -0.0016644397 1.744496e-05 -0.0022786318 -0.003186808 0.0025318237 0.0040166695 -0.0037456215 0.0029953243 0.0020209176 -0.004866177 -0.0033405956 -0.0047859414 0.0015861501 0.0022461403 0.0009394206 -0.0044030724 -0.0026873525 0.00083413173 0.00086264155 0.00033294794 -0.00075959647 -0.0042106234 0.0028811647 0.0011863891 0.0024934134 0.002904937 0.0036966372 0.00146804 0.0035647335 0.0006362585 0.0034383985 -0.004775087 -0.001340696 -0.0032588432 -0.0017242194 0.0012625897 -0.004964418 0.0033949 0.0023206437 0.0022198767 0.0026695465 -0.00479602 -0.0006052122 0.0013227186 -0.0026770397 -0.0032638367 -5.7364023e-06 -8.946981e-05 0.0032426799 0.0035325694 0.0044844286 0.00070430443 -0.0024972633 0.0031570846 -0.0007993236 0.0014435134 0.00493172 0.0035622935 -0.0013476124 -0.0031022334 0.0049441033 -0.0043778988 0.0024221544 0.0039590285 0.0043591005 -0.0016044107 0.0028584246 0.0007390746 0.0013776163 -0.004660997 -0.0006425764 
HIST1H3C	-0.003956571 -0.0014024089 0.0027906098 -0.00394547 -0.0036551678 0.0039894916 -0.0037141873 -0.0035671708 0.0009903782 -0.0044776006 0.003225515 0.003079851 0.0045124623 -0.0040510907 -0.0012131202 0.00090015907 0.0038625542 -0.00092243525 0.0021180117 -0.0026347318 0.0031170335 0.004031733 0.0012854021 -0.0021162047 -0.0012227059 0.0013241209 0.004213268 0.0016891313 0.00060606387 0.0024275575 0.0040120357 0.003239946 -0.0018483602 -0.0039283005 -0.0022070925 0.00040415348 -0.0002946845 -0.002198366 0.0025024547 0.002880257 0.0037038005 0.00034616768 0.0017592 -0.00014272533 0.0027203185 -0.0035817374 -0.0019759275 0.0013622225 -0.00097367365 -0.0010062224 0.0020148035 -0.004345693 0.0028181705 -0.000748264 0.0043269745 0.0032224911 -0.0015273244 0.004763388 -0.0033778613 0.0047015315 0.0003380608 -0.004445532 -0.0019614955 -0.0017641688 0.0048863553 0.0017198153 0.0005003506 -0.0037909832 0.00073945575 0.004947544 -0.0041546337 0.00045416257 0.0016968746 -0.001228918 -0.0025488413 -0.0025139328 0.0002770959 0.0036350654 -0.0031309733 -0.00320276 0.0025207074 0.0014985019 -0.0047435174 -0.0027245062 -0.0036346333 0.0019933325 0.0019291244 0.0023075172 -0.003257543 0.000385392 -0.0014024208 0.004515669 0.004701546 0.0013974624 0.004422822 0.0047686757 0.003513127 -0.0026332173 0.0010476205 -0.003515146 
SH2B1	0.0036722356 -0.0042860312 0.0042886054 -0.0011146549 0.0009973268 0.0014690066 -0.0005096741 0.0033464595 0.0038616806 -0.0046104784 -0.00054995815 -0.0036063627 -0.0044524316 0.0018307386 -0.0021805097 0.0017269518 -0.0017284038 -0.0013195581 -0.0045873453 -0.0023138435 -0.004257132 0.0036117977 0.0011581836 0.0045307814 0.0035231616 0.003151626 0.0042830594 -0.0012676253 0.00443894 -0.0038761473 0.0017658452 0.004397888 0.0022587297 0.0029942994 0.0043468704 -0.0020430854 0.0026663353 -0.0029182904 0.00437335 0.00089702 0.0014642084 -0.0003599401 0.0021254593 0.00021096844 0.003403033 -0.004606711 0.001997244 0.0026303427 0.00083381555 -0.0038942571 0.0034688006 -0.004804245 0.0043745292 0.0008110708 0.0047039483 -0.0005467992 0.0021678493 0.004252461 0.00434047 0.0005588001 0.003126498 -0.00433795 0.00357417 -0.0018982327 -0.0016084907 0.0013415158 -0.0026784549 0.0033380801 0.0035813362 -0.0010283499 -0.00047831796 0.0018215785 -0.003608087 -0.0017702546 -0.000692694 -0.0045874454 0.0046246983 0.004139097 0.0034898198 0.0008897233 0.0032122894 -0.0036881159 -0.0028890232 0.000204841 -0.003812898 0.0004793295 -0.0037395412 0.0034628003 -0.004426225 0.0009205622 0.0036960987 0.0044208146 0.0043097115 -0.001243766 0.0018664121 0.0013442069 -0.0014410561 0.0018822204 0.002551386 -0.003447772 
IGFBP7	0.002700819 0.002367651 -0.0028135623 -0.0043483875 -0.0013610757 -0.0033965234 0.0029469235 -0.0014128819 0.0032521854 0.004458699 -0.0010969272 -0.004339304 -0.00061824446 0.003598185 0.0013309243 0.0037943884 0.002109592 0.0018576683 -0.0014023661 0.0039513865 0.0024821013 0.0028909747 0.0030263632 0.004588434 -0.0019656448 -0.0011044417 -0.003568747 0.003156926 -0.0009849466 -0.0028364283 -0.0036780315 -0.0015721257 0.0008847303 -0.004312172 -0.00010495214 0.0030227678 -0.0040337564 0.0014039323 -0.004736488 0.0030336033 0.0011222209 0.0016947577 -0.0018367307 -0.0028842862 -0.0019086113 0.0016910029 0.0029207373 -1.13882925e-05 0.00053433777 0.00023354476 -0.0049282415 0.0024999948 0.0008966124 0.0039395904 0.0038136556 -0.0026988355 0.00474349 -0.0032042656 0.00017655859 -0.0009388041 -0.0048384527 -0.00025627008 -0.0015703951 -0.0009098244 -0.00059809646 -0.0033234768 -0.0006167111 0.00021391535 -0.0010257701 0.0029841263 0.0020023948 -0.0027165054 -0.0047956277 -0.00085196854 -0.0048162704 -0.0022897671 0.00083311886 0.0018714634 0.0025431477 -0.004426453 -0.0026790649 0.004433468 -0.0019534512 -0.0022347192 0.0036283662 -0.0037718317 -0.00010577168 -0.0016078255 0.0015124 8.56676e-06 -0.0049528084 -0.004790678 0.0028201854 -0.002540401 -0.0020874601 0.0011687813 0.00016283352 -0.004039426 -0.003973032 0.001994074 
PDSS1	-0.004471186 -0.0031992975 0.0026700662 0.0029962745 -0.0029022722 0.0025409523 -0.0045538153 0.003923568 0.0036961106 0.004346135 -0.0010203557 -0.0026668971 -0.003943586 -0.0031168757 -0.0042718397 0.0023854664 -0.0049237125 0.0011164199 -0.0010671266 0.0039029212 -0.0019290952 -0.0011913228 0.0024979827 0.0027812857 -0.002973761 -0.0011381353 0.004608172 -0.00030328217 -0.0040856376 -0.0022903827 0.0014884748 0.004845728 0.0016312775 -0.0011515594 0.0012756602 0.004385677 -0.0032964386 0.004484813 0.0039796564 0.0013056694 -0.00375786 0.00204508 -0.001612121 0.0025578325 -0.0024069203 -0.0029953683 -0.0039301924 -0.0013392867 -0.0010278267 0.0033613015 -0.0022544744 -0.00408403 0.0007437102 -0.0013367512 -0.0039771977 0.0014646276 -0.0046049105 -0.0035429285 0.002523075 0.0015336574 -0.0028324374 -0.00012954173 -0.00011436503 0.0033693966 0.0005320393 -0.0012477309 -0.0019397984 0.0031945358 0.001689157 0.0025608845 -0.0014580598 -0.0046648467 0.0037446262 0.001755022 -0.004224958 -0.0018550992 0.003448966 -0.003208132 0.004316834 -0.0036016735 0.004184281 0.003424969 0.00021153742 0.0031756563 0.00141264 0.00029491118 0.0008427954 -0.00028945017 0.002308901 -0.0039864387 -0.0026740553 -0.00094168907 -0.0018649705 0.0027478097 -0.00039679793 -0.002891458 -0.0024888199 0.0012752287 0.0022252153 0.003448862 
CSNK1G1	0.0035537656 -0.0020633708 -0.002340358 0.0015796553 0.0031801583 0.0020487092 -0.0027386157 -0.000118620126 -0.0045084837 0.004943273 0.0045436854 0.0008894314 0.0029131104 0.00064068387 0.00067714974 0.003910858 -0.001958177 0.004774513 -0.004020984 0.0031518685 0.003535812 0.004400856 0.0014697249 0.0021783523 0.001143128 0.0014884099 0.002476132 0.0010065319 -0.0025724967 0.0018561122 0.00047668262 -0.004497174 -0.0007310515 0.001962463 -0.004277256 0.0048687197 0.0020387399 0.0045906007 -0.0038615398 -0.004478591 -0.004236266 -0.0007806485 -0.003157436 0.00039833316 0.0020155308 -0.0037863504 0.0011189835 -0.0018821137 0.0015140077 0.0017930358 -0.0020109261 -0.0010027714 -0.0043225377 -0.0012638202 0.0023913353 0.0046938118 -0.00046057106 0.0023831571 -0.0031235174 -0.003378938 0.0015099206 -0.0014428111 -0.0021432263 -0.0026207278 0.003716152 -0.0030431575 0.0020320385 0.0031394486 -0.000373335 0.0018789696 -0.0025987327 0.003460109 0.0042867744 -0.004001111 0.002479089 -0.0008020947 -0.002360618 0.001727153 0.0028658018 0.0027950613 -0.0009286201 -0.0027531378 0.001571812 -0.0049361046 0.00038667046 -0.0035403639 0.0011316995 -0.0039332216 0.0013315736 -0.0010977163 0.0019290046 -0.0010174364 -0.004375852 0.0040639266 -0.0022504013 -0.003520163 -0.0015628766 -0.0023900238 -0.001966562 0.0009995439 
MAS1	0.004991967 -0.00068940007 -0.0011382271 -0.0044364044 0.0014878048 0.0009294153 -0.00096813875 0.0026809953 0.0040877885 -0.0035530783 0.0043996796 0.0025676626 -0.00023296602 0.0029232984 -0.004496914 0.0030755922 0.0024244713 0.0018572164 0.004003565 0.0037136301 -0.0031534308 -0.0028899042 -0.002125682 -0.004475304 0.002133694 0.0036668729 2.6357542e-05 -0.00391161 -0.003292934 -0.004789638 0.00061344524 -0.004317044 0.0011148199 -0.0047040465 0.00019353788 -0.00269949 -0.003478606 -0.0003234539 -0.00087897945 0.0010702193 -0.0007672464 0.0033863706 -0.0018165618 0.00436985 0.0049474994 -0.0040860507 -0.0007375086 -0.0006505812 0.0033619578 -0.0010640478 -0.002453706 -0.0004146379 0.0027005186 0.0039123255 -0.0028662907 -0.0037214367 0.000367842 0.0048083845 -0.0032620244 -0.0014715216 0.0032488604 -0.003736005 0.0004581955 -0.0027185383 -0.00066257216 0.0018187119 0.0025451377 0.0006148248 0.002590946 -0.0034280494 -0.004481497 0.0032090477 0.0049502607 0.0042807865 0.00093294255 -0.0014807192 -0.003239585 -0.0044264263 0.0032463458 0.00010053998 -0.00047256314 0.0029515272 0.0006346467 -0.0009408292 7.796895e-05 -0.0025508814 0.004709358 -0.0045493455 -0.0044415817 -0.0013620115 -0.00043436515 0.0048811506 -0.004605853 -0.0036092466 0.0019986702 0.0028817868 -0.002248781 -0.0045238202 -0.00078794255 0.003907764 
PTGFR	-0.000854258 0.00015560458 0.0008377267 -0.00202513 0.00026844323 0.002702232 -0.0027526023 0.00031692887 0.0033123328 0.0048721046 0.0032423772 -0.00043072115 -0.00483263 0.0007581039 -0.0042808275 0.0016549873 0.003105089 0.0017879485 -0.0011697942 -0.0032517572 0.002074553 0.002715649 -0.00056000706 -0.003650694 -0.004446808 -0.0041632312 -0.004726645 0.0034471995 -0.001975742 0.0021057394 0.0030554498 -0.003465546 -0.0045699216 0.000436416 0.0024372265 -0.00032771612 -0.0025011033 0.00015808824 -0.0036849685 0.0005280412 -0.0030777936 0.00408854 0.0047993567 0.001385671 -0.003739962 0.0018477567 -0.0006934217 0.0021970922 0.0019541853 0.0031428428 0.0024499209 0.0033314822 0.0028010732 -0.0010168663 -0.004206603 -0.004117463 -0.0007258833 -0.003647996 0.0012223453 -0.0032892607 -0.0026791964 -0.0029976582 0.000588317 2.2960294e-05 -0.0043542595 -0.0048536565 -0.0035288578 0.0017785751 -0.00092648494 0.0025766217 -0.0049109356 -0.004022092 0.0010501953 0.0005593709 -0.0012417333 0.0030968098 -0.003371305 -0.0023935088 -0.0038204237 0.0032994982 -0.0019486771 0.0035637324 -0.0026938794 -0.0038387745 0.00096757186 -0.00083405373 0.0029989467 0.0026450837 -0.0016699948 0.0048461487 0.00036008956 0.0034228137 -0.0018574996 0.0033007439 -0.0048271357 0.0043189754 -0.0033431742 -3.2310188e-06 -0.0022809743 0.0007677463 
NRBP2	-0.0019924878 0.0008865903 0.0030337602 0.0019212988 0.0015722245 0.003792596 0.00022879637 0.0035651815 0.0047623827 0.00042548345 0.002113944 -0.0010524192 0.0013280323 -0.003990979 -0.004522803 -0.0039519053 0.0017428655 -0.0038165238 0.0024031003 -0.0021188795 -0.00033290428 0.0010600995 -0.0037378075 0.0032963965 0.0027752863 -0.00027728555 -0.0012674652 0.0014347683 -0.0023983596 -0.0035647382 0.0017711238 0.003589932 0.003076852 0.004723873 0.0002356344 -0.0003098978 0.0023905372 0.0024294197 -0.0042935964 0.002816345 0.0016483387 -0.0030676506 0.0022990173 -0.0036753814 0.0017733894 -0.004349647 -0.0031235174 -0.001840979 0.00054805184 0.003687303 0.004681841 0.0025148476 0.002964836 0.0019274548 -0.0047275154 0.0018129975 0.000940702 -0.0017993776 7.1015704e-05 0.004693329 0.0003894505 -0.0012317271 0.0004142456 -0.0037802316 0.00088794646 -0.0032202203 -0.0044426834 0.0034497024 -0.003972866 -0.0038702379 -0.0043456107 0.00458636 -0.0049317856 -0.0025832956 -0.00010205331 -0.0011613265 -0.0037212726 -0.0025494695 -0.0032742755 -0.0027914029 -0.0049434546 -0.0033647087 0.0024809195 -0.0040807566 -0.0012344047 -0.0008082403 0.0034416467 0.0031404234 0.000503595 -0.0028210427 0.0038057575 -0.0047387523 -0.0040304684 0.0007952991 -0.0047135088 0.0007720898 -0.0007608084 -0.0013262287 -0.004810117 -0.0048937453 
