CD2AP	0.004656731 0.0032102054 0.00030156464 0.000950997 0.00013112508 0.0007471282 -0.00070328923 -0.002321807 -0.0021734368 -0.0049689654 -0.0015807579 -0.004733975 0.004194011 -0.004464774 -0.0038798784 0.002436664 0.0031772626 0.0020075515 -0.0038987966 0.004965524 0.0042376867 -0.002115478 -0.0015042381 0.0046615424 0.0034778998 0.0023284773 0.0005596942 0.0025075923 -0.0039248927 -0.0012262828 -0.0009596519 0.0013510472 -0.003761752 0.002518052 0.0036910195 0.0021619415 0.0027582843 0.0042170994 0.0014616236 -0.00409517 -0.0038446232 -0.0030316461 -0.0011913155 -0.0037909853 -0.0028850026 -0.004472703 -0.0005356222 -0.00065441005 -0.0018637567 0.00090234424 -0.0004975176 -0.0031571174 0.0015312965 0.0014634217 0.0012665071 0.00074806594 -0.0015229449 0.0010497052 -0.0040367222 0.002946272 -0.0015886568 -0.0016583741 0.0014775948 -0.0030953407 0.0033048086 0.0012742721 0.0037908677 0.0018330273 0.0026837392 0.00067890354 0.003957781 0.0033101575 -0.0022444457 -0.001062225 0.0020843064 0.0031012078 -0.0021361832 0.0045829983 -0.0039697546 0.0019279056 -0.00086619216 -0.0015963833 0.0037551739 -0.0043593254 0.004270387 -0.001662818 0.00025354774 0.0039380942 -0.0043995203 -0.004127981 2.2241135e-05 0.0036068845 -0.0047675064 -0.002734915 -0.004861045 -0.0015235889 -0.00077632844 -0.0005723198 -0.0042006643 -0.0013104872 
DHODH	0.003958217 -0.002891127 0.0011598681 0.00023796516 -0.0015622404 0.0002952554 -0.0011494766 -0.002332978 0.0012507237 -0.004205463 -0.0037491352 0.0039576 0.00022395044 0.0031448419 0.003664295 0.0034421692 0.0035113269 -0.004224578 -0.0038759287 -0.004277374 -0.0016222788 -0.002519577 0.004477481 0.0038586063 -0.0008235226 -0.0009412388 -0.00390766 -0.0032009194 -0.0001415164 -0.0038321784 -0.004392057 -0.0038007107 0.002515525 -0.0046130293 -0.0025945522 0.0036697357 -0.0025996119 -0.0024228427 2.78737e-05 -0.0012651079 -0.0038586778 0.0009916535 -0.002933102 -0.0014299237 0.0040732794 0.0035864646 -0.0019146664 -0.004862566 -0.0026596729 0.0017522133 0.0048861844 -0.0046272394 0.004066465 0.00073855824 0.0045798966 -0.0026887832 -0.00064921187 -0.0040845773 -0.00084496336 0.0010110183 -0.00052386394 0.0013823973 0.0033389449 -0.002077144 0.004632256 0.0035618138 -0.004125374 -0.0022492525 0.001475262 -0.0016943517 -0.0010404498 -0.0031336336 0.0040526963 0.00021042336 0.0016815044 -0.00073963485 -0.0014335163 -0.004621901 -0.001908335 -0.0022237545 -0.0031340963 -0.00041845703 -0.0036112107 0.0027592797 -0.0019230511 0.0028663983 0.0047688955 -0.002547236 -0.0025063935 0.0024144507 0.0020098488 0.0033557112 -0.00037504119 -0.00346299 0.0047725807 -0.0017905316 -0.00038438922 0.003432658 -0.0036415858 0.003778118 
NMS	-0.0040620277 -0.003815404 0.004798353 0.00166569 0.0035299293 -0.0028531647 -0.0001894104 -0.0038067915 -0.0028672596 -0.0045065396 0.0029240616 0.0036795512 0.0013105829 -0.0017633025 -0.0016318407 0.0020333205 0.0011191303 -0.0025997283 -0.004905683 -0.0017089262 0.0039998014 -0.0025387465 -0.0025731837 0.003976585 2.3958884e-05 -0.0005761231 0.000514106 -0.00487788 -0.0018795416 0.00080390344 0.0025515682 0.0014490875 -0.0026417717 -0.0023585805 0.00012762425 -0.00196068 0.0022060708 0.0006518367 0.004758275 -0.0027367584 0.0015932338 -0.0038600345 0.004588973 0.0021019664 -0.00038571504 0.004602563 0.00037512076 -0.00086831814 0.004912597 -0.0024620357 0.0049959146 0.003734514 -0.0016264257 0.0006464542 0.0006949597 -0.0027244512 0.0024209535 -7.186329e-05 0.0040600337 -0.0026253983 -0.0010115445 0.00010411842 0.0043588867 -0.0038338865 0.00363079 0.0019190002 -0.0025260467 0.0036350787 -0.0028502895 0.00034110012 -0.00336845 0.0009419771 0.0035036742 -0.0029147821 -0.0038680448 3.8608123e-05 -0.004607866 -0.0047698664 -0.0045460993 0.0028524073 0.00092986086 0.0020601025 0.0023696695 0.0036670894 -0.003183883 -0.003114265 0.00019031197 -0.0021790604 0.0020505763 -0.0018026319 0.0024952542 -0.00075719855 -0.0038174833 0.0019621844 -0.0030624524 0.0040865573 -0.004530022 0.0042200964 0.004681867 0.00084162573 
ZDHHC22	-0.0032426186 -0.0022115335 -0.0040407116 0.0037927558 -0.0018491312 -0.0010339248 0.00025350254 -0.0014167872 -0.0011984743 -0.0047407034 0.004465041 0.0040974007 0.002672081 0.0035294737 -0.0041241837 0.0047813263 -0.0011505358 -0.0019004612 0.00020612773 0.0033129216 0.003140359 -0.0028425728 -0.0017407717 -0.0033233773 -0.0015338922 -7.6968834e-05 -0.004059004 0.0038540126 -0.00312561 0.0034721475 -0.00015707279 -0.003423106 0.003492614 -0.0028938497 0.0013190216 -0.0041253087 0.002929094 -0.0012373768 -0.001202898 0.004303368 -0.0022707887 -0.0014935968 -0.004720792 0.00042551922 0.0032717665 0.0005230082 0.0036952037 -0.004294565 0.0034013242 0.0038671896 0.0033172101 -0.0016590712 -0.0030618417 -0.0017283629 -0.003922258 0.0032245493 -0.0026234095 0.0006505701 -0.0028887107 -0.0009005983 0.0010237623 -0.0012706007 -0.0023985894 0.0046039713 0.00089980126 -0.00025072644 -0.0020485073 0.0020601116 0.0007085966 0.0028047136 -0.0024347936 0.0024697827 -0.0015624057 0.0038200018 0.002463187 -0.003289624 0.004163393 0.004426231 0.00096148165 -0.0019482555 0.003764612 -0.0017112066 0.0020485984 -0.0029825051 0.0031676604 0.0035886285 -0.00077987695 -0.00012427369 0.0029917976 -0.002861578 -0.002362533 -0.00172499 0.0038723182 -0.0025901522 0.0021161549 -0.0044177114 -0.00024860675 -0.0016504922 0.004000662 0.0034623016 
NCR3	0.0036656396 0.0037248018 -0.002779189 0.0005179882 0.0031823593 -0.0042067943 -0.001423719 -0.003188171 0.0033889792 -0.0015330288 0.0034380695 0.0013709192 0.0022298486 0.00390936 0.00029890443 0.0021420568 -0.0023223497 0.0036303222 -0.0014420676 0.0035018462 -0.0027423035 -0.0038855823 0.00017055726 -0.0025760538 -0.0042457604 -0.0049397275 -0.00035287905 -0.0047474066 -0.0034656248 -0.000106465566 -0.0022713728 -0.0009639641 -0.003936605 -0.00050778757 -0.0007467834 -0.0023238303 0.002505951 0.0021581484 -0.003663524 -0.00241169 -0.0049639954 -0.004982857 -0.0016188655 0.002158393 -0.0013800615 -0.0042860387 -0.0010805031 -0.0045136823 0.0037094334 0.003746986 0.00011441326 0.0018073205 -0.0010777999 0.0026234922 -0.0028998891 0.0035760424 -0.0025907939 0.0006498625 0.00094312645 0.0037263436 -0.0035583812 0.0018842309 0.0016885279 -0.0013363484 0.0013933964 0.002466304 0.0049954923 0.002984284 -0.0031833807 -0.0047105458 -0.0021351026 -1.0310939e-05 -0.002050211 -0.0042421613 -0.0017697425 0.0019740819 0.004332937 0.0010404655 0.0025035643 -0.0038571446 0.00076347915 0.0007016155 -0.003204545 0.0020670332 0.004246031 0.00042222667 -0.0037059074 0.004229904 0.0022381875 -0.0016317342 -0.0040753023 0.003124185 0.0037732197 -0.00391903 0.0040050773 0.0043361094 0.0020189343 -0.0012915612 0.0017618951 0.00023738117 
DARS	-0.0020279493 0.004848018 -0.0046712016 -0.004017142 -0.0024156403 -0.0004458703 0.00047798723 0.0012768956 0.0033626482 0.00324252 -0.0038558315 -0.004568378 -0.002874426 -0.0012940485 -0.0047417847 0.0023911826 0.0046051624 0.00043593073 0.00027512622 0.00042611134 -0.0041495166 -0.0026390024 -0.003090422 0.0033582957 -0.0028364493 -0.001861518 0.00470924 -0.004375439 0.0007265084 -0.0011070587 -0.00022636606 0.0022085113 -0.002014909 -0.00020779509 -0.00019971316 -0.0048347595 -0.00022000178 -0.0014940659 0.0049890983 -0.0030610587 0.0033683996 0.0025431395 0.0025463696 -0.004047158 0.004917738 0.002145837 -0.0018392587 -0.0030010466 0.003795539 0.0041431324 0.0016009687 0.0011803816 0.0021499128 0.0018709975 0.001558873 0.0035485658 -0.002101045 0.0028328225 0.004819179 0.004273434 0.0024575861 -0.0033656796 -0.003205415 -0.001852712 -0.00079132844 -0.0027928934 -0.0045497543 -0.0011932894 -0.0036814318 8.78706e-05 0.0022325034 0.00067491044 0.0022698417 0.0019526201 0.002231017 0.0014285544 0.0046001906 -0.004597 -0.0049344986 0.00065002445 -0.0003814335 -0.004163295 -0.0032907326 -0.004311616 -0.004220574 0.002917022 4.206509e-05 -0.0007371135 0.0003434838 0.00030170713 0.001402951 0.0016421585 -0.0023889975 0.0012485977 0.0010765598 0.0033500374 0.003385265 -0.003960985 -0.003674257 0.004577794 
MLLT1	-0.001913226 -0.0012412141 -0.0014070035 -0.002113084 0.004752812 -0.00055029796 0.0008022725 -0.0013499167 -0.004161117 -0.00018898306 -0.0033556041 -6.803943e-05 0.0027620543 0.0015124612 -0.0032393094 0.0012474655 -0.0040379306 -0.00014746444 -0.0041671996 0.003378316 0.0041568237 0.0015634291 0.00065220846 0.0033522432 -0.0034394804 0.0048978836 -0.004835142 0.0004465839 -0.0028803844 -0.004199922 -0.003488054 -0.0038343999 0.0033779012 -0.0031813653 0.003985697 0.0024378118 -0.0038880543 0.0034318005 0.0018955104 0.004692289 -0.0035468745 -0.0036836178 -0.0010127354 -0.001298567 0.0028663748 0.004107003 -0.0036519868 -0.002092399 0.0018006267 0.002281401 0.0013473978 -0.0024628174 -0.00077714823 -0.0036836823 -0.00026098813 -0.0034238377 0.0023002054 0.0013042018 0.0044627166 -0.0014507698 -0.0016563155 -0.0021912542 -0.004409857 0.0010442495 -0.004358697 0.004762318 -0.0030635267 -0.004547589 -0.00038270076 7.673634e-05 -0.0025737567 0.00053193537 -0.003993838 0.0029014603 -0.0044510723 0.00090862653 0.004273074 0.0046337876 -0.0010505108 0.0030776297 -0.0010630036 0.0045885867 0.00015695787 0.001631083 0.00051011815 -0.0012280773 0.0011329058 0.0009956566 -0.00466641 0.0046591964 0.0016400872 0.004109928 -0.0027360455 -0.0009334829 -0.0030176158 -0.0047922963 0.0023764852 -0.00071736885 -0.00094151817 -0.001717112 
ETV7	0.0038629277 -0.0041347863 -0.0036290209 -0.0026154672 -0.0024524601 0.0018659609 0.0032629045 -0.0048512956 -0.0034950098 0.0008431987 -0.00022465592 -0.0012993241 -0.0037531503 -0.0034345759 0.0023838554 -0.0043756044 -0.0031988996 -0.0033039239 0.0036804152 -0.0026122502 -0.002512407 0.0005058619 0.0037067973 -0.003564331 0.0014899013 -0.0006764701 0.0022856488 0.001770969 0.0035967964 -0.0005628466 -0.00072908506 -0.0015563798 0.0011707037 0.00091239455 0.0022206504 -0.0031963643 -0.0026479468 -0.0025384391 0.0036536655 -0.0015214506 0.0038705443 0.0036854504 0.0017122356 0.0011591594 -0.0014161154 0.0041259318 0.0025274642 -0.001224214 -0.0005182762 0.00027040744 0.0008818942 -0.0028903494 -0.0028045594 0.0032231708 0.0017256712 -0.003507424 -0.0026401978 -0.0027613477 -0.0021757728 0.0016926015 0.0049795564 -0.0023968904 -0.00037589922 -0.0010282516 0.00057089713 -0.0020329105 -0.0046829516 0.0027644124 -0.0011157031 -0.0033478332 0.0020550063 0.002733353 0.0011333453 -0.0017885187 -0.004431617 0.002284405 0.0039481786 -0.0045143804 0.0010826522 0.0028925645 -0.0030977959 0.0043128715 0.004073544 -0.004707815 0.0025631096 -0.00061057904 -0.0048180968 0.0046731113 -0.0018556893 -0.0037030997 0.0041608056 0.004870119 0.00372582 0.0034578643 0.00045239527 -0.0006176996 0.00313248 0.0028740156 -0.0020479711 -0.002965925 
EID2	-9.751768e-05 -0.0042478982 0.003872226 0.004318105 -0.0011583798 0.0041869846 9.727841e-05 -0.0034741822 0.0005228835 -0.0016849433 -0.0032046628 0.0036745702 -0.0015769851 0.0033813086 0.0024936332 0.0046138945 0.0012637102 -0.0037031816 -0.004174354 -0.0023365112 0.0020995142 0.0040280554 -0.0009008198 -0.0033961535 0.004451857 -0.0020273253 -0.003436503 0.0036406831 0.0038369875 0.0021982938 0.0036232648 0.002431591 0.0027216815 0.0017229965 -0.0011295761 -0.00453741 -0.0033720569 0.0018714111 -0.0028944598 0.00038794414 -0.0021467658 0.0030992373 -0.00092679856 0.002564192 0.004012519 -0.0011364863 -0.001390504 0.0040927636 -0.003285337 0.00041755207 -0.004143822 0.00087781943 0.00048652082 -0.00122933 0.0039129406 -0.0018342827 -0.002791885 -0.0002060332 -0.004365129 0.003208433 7.687038e-05 0.00254988 -0.0005670048 0.002688733 0.0033912875 0.003220646 0.002105766 0.0017768138 -0.0013506245 0.00051085535 -0.0015001983 -0.0040084827 0.0013730255 0.0012289064 0.004872045 -0.0031823593 -0.0012301059 0.00041097708 -0.0026086043 -0.004780035 0.00073832547 0.003773198 0.0012973512 0.00051081565 -0.0010272461 0.004450842 0.0021968312 0.004249027 -0.0038156598 -0.004903681 2.9706984e-05 0.0049074204 -0.00302464 -0.003793945 -1.9660487e-05 -0.004984396 0.003420517 -0.0011901718 -0.0006543602 0.0039747404 
GCLC	0.0007430408 0.0005306428 -0.004384649 0.0038144516 -0.0030303919 -0.00015461657 -0.0020621729 -0.0027273335 0.0017067736 -0.0017005331 0.002296878 -0.0005017125 -0.0038834612 0.0012841028 0.0028377757 0.000425694 -0.0026827462 0.002321707 -0.00029670136 0.0011899443 -0.003991781 0.0036736159 0.00041084213 0.004923177 0.004832854 0.0040655932 -0.003786453 -0.00027484586 -0.00096853444 -0.0030832381 -0.0002761076 0.0027466514 -0.002614799 0.0010864497 -0.0048674243 -0.0020143334 -0.0041287607 0.0036326176 0.003329253 0.003741874 -0.0037856037 0.001820195 -7.882007e-06 0.00071172486 -0.00087519694 -0.0041237464 0.0022479168 -0.0025390391 -0.004781728 -0.001976514 0.0010218548 0.0033186032 0.0030007574 0.0010301501 0.00051688537 3.5788325e-05 -0.00491241 0.00062958454 0.0023681321 -0.0039320393 0.003200562 0.00476559 -0.004548977 0.00478551 -0.00014298205 -0.0009968653 -0.0039828285 0.0033566335 -0.0046880143 -0.0042969934 0.00092118356 0.0011793519 -0.004902505 -0.0031212629 0.004792424 0.001834155 0.0031849442 -0.00011416167 -0.004665156 -0.0043149707 0.004310356 -0.00024060166 0.004744195 0.0026070704 0.0005365949 0.0019623868 -0.0024771055 -0.004640437 -0.0037478954 0.0027892687 0.0021258395 0.0033307965 -0.0024968628 -0.0021012835 -0.0047529205 -0.0021931047 0.0017103592 0.0006863151 -0.0027333004 -0.0038618778 
NAA35	-0.00086924864 -0.00076067663 2.4423036e-05 0.0016940914 0.003578798 0.0018182825 -0.004061536 0.003681632 0.0013902966 0.0007400067 0.0022116017 -0.0019984285 0.00459942 0.004053135 0.0033189964 0.0039057317 0.0016284145 -0.00014747214 0.0015620016 0.0043448284 0.003838613 -0.00015335275 0.00087405305 -0.0018860113 0.0010282549 0.0048381784 0.0011341912 0.0016769439 -0.0023942092 0.0021361178 0.0031775513 0.0034810521 0.0031990565 -0.004995825 -0.0013284956 0.0014886262 -0.00460562 0.0015380133 -0.0021714824 -0.00058515655 -0.0049307314 -0.0048082834 -0.00057709654 -0.003906376 0.0017731553 0.0047628987 -0.0010659941 -0.0006325657 -0.00012459366 0.0038063596 0.0012095731 -0.0012550227 -0.00012257142 -0.0016151908 -0.00015552343 0.0018919896 -0.003712365 -0.004421287 0.00013545234 0.0015539713 -0.0049128328 -0.0034647207 0.00046147296 0.0022194304 0.0020025007 -0.0014763292 0.003158619 -0.0014179162 -0.004741089 0.0022644962 -0.0045693167 0.0035002686 -0.0007906309 -0.000657409 0.004865564 -0.002741881 0.0040615997 -0.0022502467 0.004342157 0.0039479015 -0.0032808213 -0.0028581212 -0.0025195046 -0.0045550214 0.004185751 0.0041412693 0.0006428642 0.0022314193 -0.003587674 -0.0022742422 -0.0030737005 0.0012928229 -0.002913359 -0.0004245859 -0.0023304063 0.0042782803 -0.00077755976 -0.004080047 0.0036306456 0.0015968255 
HEY1	-0.0031013452 -0.0026087107 0.001638138 0.00053968374 0.0010248502 -0.002687447 -0.0015482947 -0.002472276 0.00012583406 -0.0027786724 -0.002254491 -0.0040279017 0.0036807319 0.0045725917 0.00039368786 -0.00044587994 -0.0048075854 -0.0040085153 0.003223701 0.0007370572 0.0029459374 -0.0027335302 0.003339753 0.003739172 0.0024080002 0.00072785735 -0.0022299523 -0.0013821212 -0.001726717 0.0037397346 0.00088471314 -0.0014847899 0.004307557 -0.004517099 -0.0009410005 0.004776841 0.003268705 0.0015159108 0.0042456966 0.003385655 0.00028866113 -2.3882529e-05 -0.003749886 -0.00017587097 0.0018897384 -0.002900651 0.0012773859 0.00093437417 -0.0038987314 -0.0032765004 -0.0026614454 -0.0048302165 -0.0015403839 0.0014638301 0.0046788054 -0.004462909 0.0009735526 -0.002749691 -0.004450017 -0.0033976475 0.00071802817 -0.001834428 0.0021806727 0.0016140917 -0.0003549048 -0.0001670551 -0.0018396147 -0.0029167766 -0.0013863472 -0.004633401 0.0038304022 -0.002495263 -0.0028452757 0.0013066094 0.0017954248 0.00037419458 0.004160301 -0.0032636228 0.002786019 0.0019111979 0.00079831056 0.0018368125 -4.953099e-05 0.0033398801 -0.0027768856 0.004927021 0.0003186614 0.0011406624 -0.004202212 0.0030106516 -0.0039989883 -0.0026653134 -0.004151368 -0.001315762 0.0038290161 -0.0049596005 0.0020323952 0.0029942868 -0.0020489641 0.0049432544 
PEMT	0.0014581683 0.0036700468 -0.00264641 -0.003862916 -0.0008313733 0.00041890214 0.0008296793 0.003617268 0.002029299 -0.0003686777 -0.001339691 -0.003979054 0.0018670425 -0.00011413836 0.004310327 0.0043974975 -0.0038213106 0.0021756643 -0.004963234 0.00350348 -0.0032533198 0.0033707805 0.0021139819 -0.00036117938 -0.0033230276 -0.0019919965 -0.0038545295 0.0025795675 0.0029845221 -0.0027916818 -0.0023971342 -0.004986431 -0.0030263853 0.0020862469 0.0031230433 -0.0034313737 -0.0025352642 -0.0011342084 0.004695499 -0.0047284486 0.002184394 0.0036082473 -3.9349055e-05 0.0044664093 0.0012903458 -0.0033623714 -0.0003431471 0.004794493 0.00026658658 -0.0035016343 -0.0024335552 -0.0020090973 0.0036909068 -0.002887452 0.0013853778 -0.0045743757 0.0047662575 -0.0009367045 0.004069617 0.0034734665 0.0037332196 0.0034305353 -0.00028911888 0.0012355534 0.0027673147 -0.0023380313 -0.0003627064 0.0020431492 0.004361014 -0.0013502266 0.004101718 0.0007624561 -0.0009657938 0.0009890064 -0.0014792923 0.003164894 0.002893934 0.0045574163 0.0006426837 0.0033409826 -0.004644612 0.0014658221 0.00021368016 -0.0048647434 -0.0046525244 -0.0003323388 -0.0018632909 0.004078369 -0.00102334 -0.0022682277 0.0015792839 0.00096524536 -0.0028589552 -0.0006446328 0.0013936346 0.00396095 -0.003452786 0.0034159226 -0.0042054513 0.004072613 
BST2	-0.00021005054 0.0009931746 0.002958391 0.0026407798 -0.0048041227 0.0028944828 0.00033661234 -0.0036455835 0.0038990367 -0.0024464144 0.0032489675 -0.0017192544 0.0002798759 -0.001569368 0.001978374 -0.0048343064 -0.0009027738 0.0029434448 0.0027252247 0.0011659793 -0.00057607854 -0.0041546626 -0.0007989108 0.0045877965 -0.00439913 -0.0047242767 -0.0005930485 -0.00035892203 0.0049965973 0.0032164622 -0.0031267905 0.00052134454 -0.0037220756 0.003962336 -0.0021215396 -0.0015205437 0.0025923029 0.0037507701 0.00036487603 0.002484875 -0.0009890647 -0.00057743635 -0.0042809458 0.000911624 -0.0002059496 -0.0025751076 -0.00085718493 -0.003692248 -0.00016241273 -0.003189771 -0.0039297594 0.003131465 -0.00475551 0.001122926 0.0013900052 -0.0012725821 0.0022101966 -0.004214016 0.0024524732 0.004384371 -0.0026207236 -0.0040035388 -0.0006740998 -0.002689939 -0.0009610396 0.0031520836 -0.0015197026 -0.004789605 0.0019146478 0.0019041818 -0.001547131 9.703023e-05 -0.0046475055 -0.0037225767 -0.00080180325 0.0041638114 7.3351715e-05 0.00303369 0.0022004198 0.0020395955 0.0026942869 7.140458e-05 0.0007524294 -0.0016875209 0.0027100863 -0.002391522 -0.0042253337 -0.003739707 0.004398025 0.004042527 0.00026550112 -0.0008140835 -0.0027309048 0.0036186979 0.0012817242 -0.004124106 0.0021613573 -0.002424878 -0.00014945725 0.00482861 
PRKACG	-0.0022098748 0.003931217 -0.0048825005 0.002517617 0.0011617902 -0.003715223 0.00435188 0.004991906 -0.0014234748 0.00081829476 -0.0022557152 0.003850707 -0.00070460245 -0.0026047933 3.376413e-05 -0.0005938563 -0.001540113 -0.0017381009 0.0029217629 0.0007004843 -0.0031173904 -0.0015417439 0.00385697 0.003325414 -0.0038218135 -0.002422446 -0.0045388453 -0.004186711 0.0013441617 0.0035442596 0.004940444 0.0012023165 0.004569502 0.004847626 0.0019060076 0.0029643753 0.002691138 -0.001961028 -0.0009264147 -0.00046076928 0.0014358804 0.000627159 -0.001294324 0.0028866536 -0.0018840476 0.00068238255 -0.00035355292 -0.0047838115 -0.0033990915 -0.004264847 0.0039266325 0.0022740779 0.001780472 0.002873074 -0.0019441558 -0.0001756889 0.0017785467 0.0011967709 0.00021579702 -0.0016710949 -0.0040973993 -3.080391e-05 0.0015242021 0.0036905578 0.0044169654 -0.0042432453 0.00057079777 0.000912111 -0.0032405986 -0.00012588783 0.0020231882 0.0035918122 -0.002695712 -0.0044028405 -0.0029328403 0.0033644445 -0.00042024447 0.00064357754 0.004110774 -0.0047049993 -0.0010034573 -0.0010017082 0.0011515853 0.0020810498 -0.004596723 0.00078161026 0.0040923385 -0.0002208287 0.0034907372 0.0037875301 -0.0026526353 -0.003436542 -0.0011553605 0.0016595008 0.0030988425 0.0023613146 -0.0016929638 0.0041643153 0.0013712941 0.0048748157 
PRM1	-0.0032169158 0.002144789 0.0028109252 0.0036120152 -0.0019067443 -0.0007123764 0.0019152474 0.001297251 -0.0016165569 -0.0027594792 -0.0032852571 0.0010325882 -0.004767117 -0.0027887903 0.00091035065 -0.0038898415 -0.0014226928 -0.00434175 -0.001413336 0.0009985813 -0.00019810021 0.0002755102 -0.0018305375 0.0018701568 0.000856266 0.0005557639 -0.0018034813 0.00091054285 0.0011655991 -6.4022664e-05 0.002506111 0.001341111 -0.0022323471 -0.0026794602 0.0013654389 -0.002541488 -0.0004147248 -0.0027743934 0.0010135854 -0.00440032 -0.002475492 -0.0047511696 0.0034524607 0.0011593184 0.00022315429 0.0048330147 0.00036608262 0.0042329477 0.0037643765 0.0022882975 0.0024093562 0.0020455103 0.002097131 -0.0013355395 0.004365274 0.0032531219 0.0029969746 0.0014301231 0.0017573354 0.0049300385 -0.00045813638 -0.0017456163 -0.0014903281 0.0037687276 -0.0024596977 -0.0019576526 -0.003843235 0.003871862 0.0022633863 -0.002624124 -0.0014884998 -0.0026547473 -0.004639448 0.0019730204 0.0023464896 -0.0026151882 -0.004890349 0.0017186623 -0.0044819396 0.0003974569 -0.0017445933 -0.0012705639 0.0032842737 0.0033464828 0.0035473835 0.003933104 -0.0027925975 0.0046183555 -0.0013157316 -0.0020634106 -0.0024887314 -0.001282924 -0.0039376128 0.004985371 0.0018656711 -0.0030788514 -0.002576817 0.004893018 0.0037645984 -0.0019030313 
CEBPD	-0.000975888 -0.0025458278 -0.002050759 -0.0021431681 0.0019585148 -0.0025133847 0.0029294754 0.004523075 0.0021914958 0.0030439608 0.0028814909 -0.0045603355 0.00059580675 -0.004006522 0.0010337332 -0.00037333966 0.0027274678 0.00017374303 -0.0037536724 -0.0019977468 -0.0026850444 -0.004528316 -0.00069524633 0.003125028 0.004822693 -0.0013363956 0.0023288731 -0.003909688 0.002629354 -0.004687023 -0.0018028937 0.0023061105 0.0011603145 0.0047172955 0.0043783486 0.0036660251 -0.0010805684 -0.0008044813 -0.001135868 0.0043355487 -0.0012070781 0.003261345 0.0025848432 0.004874674 -0.00012535718 -0.0025355658 0.0010603849 -0.0012261828 0.002711472 -0.0022303967 0.0035218736 -0.0017990655 0.002345109 -3.6039644e-05 0.0017502786 -0.0007291366 0.00488184 -0.0015565777 0.0026240358 0.0017197677 0.00071029726 -0.0003878946 0.0035240517 0.0019262801 -0.0029234965 -0.0017682374 -0.0028330204 0.00042592766 -0.0009668967 4.6043297e-05 0.003268906 0.0015805747 0.0018542686 0.0034610734 -0.00082201057 -0.0026497408 -0.0009848874 -0.0008247574 -0.003422802 0.0038103554 0.0030122444 -0.0017914813 -0.0014192847 0.0040738387 0.0018165365 -0.0018225166 -0.0046097767 0.00024450102 0.0046147844 -0.0025639846 -0.0005984053 -0.0027879167 -0.0021600989 -0.00254501 0.001656145 -0.0009996328 -0.00025345848 0.0009437396 0.0027703948 0.0002478346 
HCFC1	-0.00039428798 0.0037684161 0.0034839942 -0.0041863243 -0.0023672322 0.002709684 -0.0034986876 -0.004930476 -0.004314002 0.004462856 -0.0030791026 0.00087682006 0.0031267055 -0.0047072023 -0.0014322648 0.0017645669 -0.004040617 -0.0031348655 -0.003115122 -0.0041317786 0.001859808 -0.0043387674 0.0047258614 -0.00359122 0.0024677885 0.00036359677 0.0025239196 0.0034167417 -0.0038426432 0.004863248 0.003360783 -0.0011382618 0.0003829317 -0.0024071492 -0.0020805697 0.0031566615 -0.0010771861 0.0032973927 -0.00085869763 -0.0016112825 0.0034164856 0.0025473917 0.00299907 -0.0037717773 -0.0029114014 0.0026097111 6.989867e-05 0.0033724778 -0.004978912 0.0037992634 0.0020346825 -0.0018717243 -0.00032788693 -0.0042535937 0.0039232764 -0.00012470163 0.002846695 0.0034861676 0.0044264244 0.002908425 -0.0010041452 0.003310637 0.0039146426 -0.0003742372 -0.0012079743 0.0026411177 -0.002282975 9.930129e-05 -0.0019454786 -0.0021833982 -0.0031608902 0.004386665 -0.003433939 0.004376379 0.0014124282 -0.003080566 0.0014868726 -0.0010016928 0.0018763839 0.0003445507 -0.004774569 0.0031994048 0.0016999644 0.0037043348 0.0020469122 -0.0036851766 0.0044212616 0.003997022 -0.00026208346 -0.00046483977 0.0008540819 -0.0017760172 -0.0017290266 -0.0030582475 0.00437656 0.003989097 -0.0031979766 0.0035785818 -0.0045459643 0.0030113454 
DTWD2	0.0024339466 0.00444045 0.0029739107 0.0039221114 -0.0009627305 -0.0018507451 -0.003788314 0.00018915364 -0.004979767 -0.0031159979 0.0043260423 0.0028289033 0.00087360543 -0.0047305925 0.0020322078 -0.0027864764 -0.001282445 -0.0023836393 -0.0008209427 -0.0027538156 -0.004938718 -0.0015718015 -0.0025982894 0.00031971937 0.0016489372 0.0034260862 -0.003132053 0.0007589379 -0.0013582937 -0.0034013558 0.0020976122 -0.00034854 -0.0032092778 -0.0006338947 -0.0046694363 -0.0032115653 0.00085518596 0.0014298427 0.0011688165 0.0010380544 -0.0031614504 -0.0022313162 0.0002465941 -0.0004418989 -1.6254191e-05 0.0023299202 -0.0009085677 -0.0013617883 0.0031026218 0.000137355 0.0025872386 -0.0031471914 -0.0027545656 0.0009148795 0.0048064445 0.0012501064 0.004925232 0.0036814748 0.0046132803 -0.000904624 -0.0048710736 0.003194828 0.00015669892 -0.00474976 0.00050232984 0.004739428 -0.0045171343 -0.00015839211 -0.003713103 0.0029002468 0.00091095903 0.00033450624 -0.0022894102 0.0049104793 -0.0010388071 0.0031512883 -0.0025512278 -0.003208843 0.0019221881 -0.001457115 0.00058417756 -9.738053e-05 -0.003368039 -0.0016662942 0.0029712506 0.0010469654 -0.00087520137 -0.00040876752 0.004260614 -0.0045807464 0.0013889447 0.0049179574 -0.0033174416 -0.0033868698 0.004832027 -0.0030454004 0.0013791879 0.00459563 0.00045954817 -0.001293647 
PSMA6	0.002502283 0.0027540613 0.0013387615 0.0034914338 -0.0045239762 0.00092665735 -0.0017934656 0.002462308 0.0044053923 -0.00016391433 0.0017766989 -0.0010777484 0.00083198154 0.0013890273 0.0014478728 -0.0019844165 -0.004343656 -0.003797398 0.00060368003 -0.0031799022 0.0027757175 0.004418642 0.0029278216 -0.0016698567 -0.0037596945 -0.00094344665 0.002004572 -0.0048682885 -0.003806254 -0.002099083 0.0006570616 -0.0043824753 -0.0007742127 0.003653209 0.0011316442 0.0005360414 0.0018127457 0.00019035708 0.00068725983 -0.0021524436 -0.0013693713 0.0013933996 0.002367607 0.0041391565 -0.002763659 0.0024912455 0.0028708782 0.0016839525 0.004516054 -0.0014957127 0.004166045 0.00085999275 0.0026840093 -0.0037974196 -0.0018117742 0.0016206332 -0.0037412506 0.00069884124 -0.0030519452 -0.00014837625 0.0019097774 0.0008573119 -0.0048731216 0.0048134923 0.00024721335 0.002734319 0.0049111573 0.0026710934 0.0043679266 -0.0005575992 -0.0034968427 0.00076874904 -0.0043440233 0.0030216847 -0.0016112534 -0.0007176912 0.0023392423 0.0013879251 0.00015135079 -0.001427856 -0.0019964841 -0.0012704056 -0.0024175856 0.00433001 -0.001206245 -0.00047171267 -0.0018937542 -0.00044649543 0.0037027653 0.0015866368 0.00089558796 0.0013814035 0.0032915703 -0.0026399556 -0.0008358984 -0.0016820533 0.0025149905 0.0048678415 0.004641368 -0.0009098535 
ALDOB	-0.0005448646 -0.004109254 -0.0027757287 -0.0032722228 -3.6798632e-05 0.0040524225 0.0038062122 -0.0019442447 -0.0047029266 0.0036868886 -0.0012679069 -0.003969743 -0.0012594484 -0.0026285714 0.0007323233 -0.0047506467 0.0020590061 -0.0034825855 0.003301177 -0.0042411266 -0.0011970941 -0.003178933 -0.0006991687 0.00034991014 -0.0017293053 -0.0029019576 -0.004035984 -0.0012505169 -0.004347387 0.0024696575 -0.0043258946 0.002696066 0.002419899 0.0024424961 -0.0019750325 0.0049955756 -0.0024659117 -0.00017977889 -0.0035970935 -0.00083341595 -0.0021396172 -0.0021054202 -0.0030366245 0.0028292006 -0.00022062943 -0.0032522797 -0.001439407 -0.0032035415 0.004229539 -0.004194236 -0.00292689 0.003931276 0.0007293572 0.004444868 0.002246621 -0.0023921693 -0.0022268451 -0.0001939525 0.0015380923 -0.0042680353 -0.0027316252 0.004147056 -0.0047302456 -0.0029057318 0.0039097187 0.003394191 0.004446147 -0.0041340464 0.00015992804 -0.004074544 -1.9976837e-06 0.0006738752 0.0045049083 -0.0019412426 -0.004073409 0.0038011742 0.0023998762 -2.8087448e-05 -0.004037235 0.00080764695 -0.003655568 -0.0047224388 -0.0014835984 -0.0020309004 -0.0022717132 0.0037573937 -0.0038458903 0.0028050737 -0.0017174841 -0.0019290895 0.002743639 0.004777543 0.0011568678 0.0034997414 -0.0019130575 0.003416038 -0.0026496965 0.0013413844 0.002664382 -0.002715195 
SIGMAR1	-0.00048355508 -0.00030639724 -0.0019307247 0.0025400103 0.00033976807 -0.0046950523 -0.0049267933 0.00079964916 0.003485385 -0.00054626836 -0.00040304277 -0.00469085 -0.0046865568 -0.0034045835 0.0013846055 -0.003427708 0.004929636 0.00057036354 0.004170725 0.0035551859 -0.0024974502 -0.0038954671 8.0859754e-05 -0.004505291 -0.0041179857 0.0039834953 -0.0019877285 -0.0036236548 0.0042267754 -0.0025376324 -0.004773053 -0.0049238517 0.003860446 -0.0019315317 -0.0035344341 0.0022049916 -0.0006208176 0.0023250566 0.0032277936 -0.0014914209 -0.0024795 4.1492203e-05 -0.0022548472 -0.0026227783 0.0033356375 0.0022179512 -0.003808519 -0.0044272346 -0.004369538 0.0031199881 -0.0036323797 -0.0014734734 0.00014827083 0.001817946 -0.004745809 0.003619204 -0.0037400653 0.0033786155 -0.0009569885 0.0028392624 0.0031977554 -0.0022678466 -0.004776074 -0.0013278876 -0.0022562325 -0.0010762317 0.0023061489 0.0041303243 0.0010909808 -0.00066636794 -0.0026258363 0.0029390822 -0.0010344337 -0.0038328029 -0.0022335255 -0.0040032985 -0.0035968183 -0.0029065898 -0.0023825155 -0.0024599808 -0.002526316 -0.0037868184 -0.0029476355 0.003085502 0.0046943673 0.0024509223 -0.0037255525 -0.0011288307 0.0034386104 -0.0028937608 0.0024161553 -0.0012786632 0.0031993114 -0.004750807 -0.0045416644 0.0031303202 0.0011872525 0.0020922024 -0.001190409 0.0042211213 
TUSC2	-0.0047620335 -0.0011805452 0.0018846336 -0.0029709619 -0.0023418604 -0.0015419512 -0.0020190694 0.002993839 -0.0013185053 0.0023323877 -0.004695125 -0.00027159354 0.00486635 -0.0016585796 -0.0014456402 0.003118025 2.8965287e-06 0.0029460338 0.004144448 0.0041037416 -0.0011805766 -0.0030733282 -0.0022826078 -0.0005391299 0.0010440503 0.0040520136 0.0036510287 0.0016327585 0.0036469067 0.0042086733 -0.0046894653 0.0014448772 -2.3714036e-05 0.00029433568 -0.0035461884 -0.0029606754 -0.0016513461 0.0007678841 -0.0031547525 -0.004725305 -0.0016714067 0.001174063 -0.00030444766 -0.0003395513 -0.004380062 0.0011876096 0.00077838247 -0.0020620683 -0.0036072822 -0.0032352149 0.004640301 0.0026943134 0.002066353 0.00026513857 0.004681997 0.0013195671 0.0030328098 -0.001435684 -0.004485922 0.0029187328 0.0013762928 -0.004710421 0.0022730904 0.0019899693 -0.0033710022 -0.0014186704 -0.0034533266 -0.0022418185 0.0023156782 -0.0012432922 0.0046280595 -0.0027917249 -0.0034901013 0.004951763 -0.0040968615 -0.00316272 -0.003157095 -0.0027673242 -0.001960338 0.0010165948 -0.0049308287 0.0028306216 0.0007497409 -0.0034626378 0.00028910267 -0.0023724923 0.0020536007 0.00030704337 -0.002380131 -0.0016920601 0.004005956 -0.0016793247 -0.003935949 -0.004327723 5.4538334e-05 -0.0021747877 -0.0028895207 0.0038357629 -0.0005711981 0.0006851664 
ADRA2B	0.0013062253 0.003896951 -0.00012796705 0.0034951866 -0.0037464437 -0.0011030831 0.0025137572 0.003901504 -0.003039968 0.004953706 0.0027754328 -0.0018051954 0.0008847977 0.0041527487 -0.0042978604 -0.0028838087 -0.0010563465 0.0026033968 -0.0007108208 0.0028868646 0.00064210227 -0.0011390939 -4.540875e-05 -0.003762122 -0.0049263877 0.0024032297 -0.00018878897 -0.0041819927 -0.001840559 -0.00046802955 0.0012672826 0.0041369814 0.00091110525 -0.0025155435 -0.0017306623 -0.00033899405 4.9010916e-05 -0.00070508395 0.0021372885 -0.0034002683 0.00056459004 -0.004124213 -0.0012915067 0.0036489253 0.0023121824 0.003837319 -0.0020891947 -0.0019744784 -0.0034107976 -0.0027980923 0.0023260755 -0.00029080766 0.0029055728 0.004304322 1.5995493e-05 -0.002787242 0.0046773967 -0.0010705341 0.0013110992 0.00039065877 -0.0017215775 -0.0018649987 -0.0010699705 -0.002242358 -0.0031787017 -0.0044916472 0.00061101385 -0.00050608715 0.0046711713 -0.0041076727 0.004927486 0.0029299718 0.0015608752 0.00059487356 0.0006678612 0.003335431 -0.0025088259 -0.0042502885 -0.0005363557 -0.0007199443 -0.0021760534 0.004021125 -0.0030124593 0.0006770216 -0.0034641577 0.0049867267 0.0020830897 0.0025955574 -0.0025643213 -0.0008602781 -0.004539826 0.0025820173 0.00035739373 -0.0030876426 -0.0029101614 0.0008629949 0.0024797332 -0.0023211292 -0.0035335433 0.0033609758 
FOXL1	0.0011282618 0.00058000267 0.0016634468 -0.0044803414 0.004996474 0.002574671 0.003642221 0.0015789439 8.640593e-05 0.00029472672 -0.0040212516 -0.004877478 0.002328562 0.0028895978 0.0017618416 -0.0016158336 -0.0043908064 -0.003929608 -0.0007116453 0.004009311 -0.000958874 -0.002907472 -0.0015334119 0.00048132494 0.0014441635 0.0031318392 0.00068635086 -0.0035418046 -0.0010512916 0.0018054512 -0.0035873656 0.004187765 -0.004930068 0.0032386703 0.0012171004 0.0038015407 0.0027858787 0.0025573599 0.0009984433 0.003932674 -0.001854369 -0.0011409498 -0.003472993 0.0007936482 -0.002595524 -0.0009315789 -0.0032960277 -0.0033863483 0.0010398368 0.00011735309 -0.0026523715 0.0006715287 -0.001305109 0.0046665184 0.0021116426 -0.0038968655 -0.00069944205 5.2457955e-05 0.0049983924 -0.002930383 -0.0045432243 0.0013094331 -0.002384799 0.0006678659 -0.0009693745 0.0037260759 0.0029962896 0.0042185406 0.0026795166 0.0043492834 -0.004227578 -0.004836863 -0.0009074731 -0.001273663 0.0024611005 0.0016828502 0.002300615 0.0006227626 -0.004232589 0.004548362 -0.0035215325 0.0044542653 0.0022580943 -0.0028905582 -0.0009642119 -0.0041839215 0.004171686 -0.0020574683 -0.003525844 0.0037112178 -0.0026427126 0.00021559632 0.0033226395 -0.0006578854 -0.0025551135 0.00024091265 -0.0030132046 -0.0035730621 -0.000990202 0.0042418144 
ICOS	-0.0019513485 -0.0027310825 0.0038216438 0.004646558 0.0019809892 -0.00075247284 0.0002366305 0.00060668483 0.00082016404 -0.00012641276 -0.0038329307 0.0010894707 -0.0038644318 -0.004801997 -0.0032450536 -0.0020758482 -0.0016775266 0.0046605202 0.00024281465 -0.00024661553 0.0022997567 0.0023036525 -0.0003562429 0.0017212478 0.00088752306 -0.002122233 0.0010094972 0.003939356 0.0044374396 0.0010493979 0.004274128 -0.0022247897 -0.002847453 0.0019214333 -0.001160607 -0.0014108048 0.0027777625 -0.0010690639 0.0013358041 0.0013745526 0.00097457686 -0.0034474763 0.0034134702 0.001981424 -0.0020240978 -0.004325539 0.0016283906 -0.0047983993 0.0027431177 0.004447523 -0.0016649317 -0.0026308163 -0.0040105204 0.0027994646 -0.0008662937 0.0012739616 0.0046533425 -0.0029328936 0.000966061 0.0042500338 0.0048047905 -0.0010141181 0.003356008 -0.0035132074 -0.0007786878 0.0004990412 -0.0015272987 0.001405494 -0.00038912726 -0.002439533 0.00244484 -0.00018123032 -0.0034467124 -0.00047496692 0.004775457 -0.004466412 -0.0019326964 0.0025267992 -0.001702743 -0.0019361355 0.0022509976 0.00011525734 -0.0010714242 0.0005419622 -0.003955419 0.00046951053 -0.0025557722 -0.00411291 -0.004869712 -0.0035717736 -0.0018975808 0.003937714 -0.0014868315 -0.004568572 0.0011006659 -0.0012924494 0.0041873036 0.0037674133 0.0047868774 0.00044940968 
FGF6	-0.0006152584 -0.002570044 -0.0030443708 0.0020686341 -0.0017915404 -0.0016641574 0.0019895295 -0.003485795 -0.001600288 0.0044465074 -0.00468177 -0.0035365755 0.0046686 0.0012882054 -0.0010433655 -0.0030187948 0.0037860877 0.001204631 0.00070153695 -0.004165283 0.0026434967 0.002954732 -0.0027732272 0.0040634098 0.0039874273 -0.00079990464 -0.0028494226 0.0030859385 0.0010758628 0.0028194105 0.0015422663 0.0029812085 -0.00037647775 0.0018971114 0.0041538193 -0.00052597775 0.0019212475 -0.0042094234 -0.0039323363 0.0008447306 -0.002782393 0.0026435005 -0.0032054167 -0.0047899033 -0.0021200397 -0.0021318828 0.001321118 -0.0015521314 0.0037750665 0.003884195 -0.00017537834 -0.00061258854 0.00018864135 0.0006029106 0.00046136175 -0.00091653934 -0.0013822519 -0.0040510227 0.00033021785 0.003129955 0.002078683 0.0030827671 0.0024131348 -0.0047239265 -0.00035497546 0.0032039976 -0.0015679492 0.0023440665 -0.0012972933 -0.0026927004 -0.0027601433 0.0021006954 0.00078674435 -0.00013841475 -0.0045153736 -0.0042495118 -0.0011636809 -9.534259e-05 -0.0008131115 0.0039659026 -0.0007766809 0.0042445282 -0.0016189774 0.003849831 0.0041686106 0.00079743005 0.003593385 0.002957941 -0.0010139906 0.0040703686 0.00036333041 -0.002219461 0.0012610937 0.0023575427 0.0015775015 -0.0038163476 -0.0017049934 0.0023602843 0.004878618 -0.004354377 
GFI1B	-0.0031071575 -0.004810907 0.0008021561 0.0035449371 0.001275352 -0.00039119358 -0.001856832 0.0006205664 0.0013327444 -0.003966458 -0.0036506874 -0.0043555433 -0.0011313112 -0.0012809747 -0.0014551439 0.0035716163 -0.002582195 -0.004596457 -0.00062172645 0.0012005912 0.004891637 -0.0010894493 -0.0022518039 -0.002721185 0.004448452 -0.000518815 0.004709199 -0.001662153 0.0010709376 0.0035438463 0.0001011912 0.0013395105 0.00032329722 0.0034078902 -0.0021966298 -0.0024814373 0.003283584 0.0022719833 -0.0048806244 -0.0020271821 0.0010080449 0.0018573031 -0.0006099258 -0.0033494662 -0.00026939434 -0.00048788497 0.004422233 -0.0035265984 0.0038852505 -0.004859415 -0.0018457873 -0.0034524319 -0.0035583018 -0.0027437294 -0.0033247177 -0.003072412 -0.0006046559 0.0026308505 0.0011831142 -0.0031872888 -0.0009914333 -0.0017884559 -0.0022750383 -0.003419144 -0.0025558241 -0.0017165736 0.0032183495 -0.003013985 0.0019949994 -0.0014994979 -0.0009397762 -0.0030065665 0.00047377206 -0.0033288426 0.003589871 0.001208486 9.05742e-05 0.003602063 -0.0001350858 0.0005847297 0.001972772 0.001975796 0.0010775928 0.0013660967 0.00092494563 0.0012625561 -0.0017515194 0.0022568782 0.00035278176 0.0023304152 0.0014864644 -0.0034861427 -0.0035752282 0.0047626104 0.004164628 -0.0049276203 0.000523374 -0.0016966077 0.004093541 0.0006805336 
CLC	0.0017795009 -0.0011139344 -0.0007960186 -0.004758146 -0.0036507254 -0.0043144426 0.002192908 0.0013835334 0.0031622816 -0.0047299815 -0.0027391308 0.0023295833 0.0007195666 0.001449123 0.0029963707 0.0015464751 -0.0024063613 0.0016629472 0.0037003825 -0.0017307828 -0.0014678827 -0.004284723 0.0036632274 -0.0036820662 0.00036507967 0.0036197682 0.0007152126 -0.00069339084 -0.004347743 -0.0028685718 0.0013258925 0.001469626 0.0024855635 0.0005186099 -0.0001432932 -0.00050359557 -0.00384376 -0.0028983755 -0.0031373757 0.004119378 0.0009525333 -0.0012003138 0.0031596315 -0.0042461497 -0.0035090528 0.00011478473 -0.0017706985 0.0038081768 -0.0010901494 0.0030832437 -0.0015948049 0.003979953 0.0049784677 0.003542534 0.0019659284 -0.0017442254 -0.00025267896 -0.0013176568 -0.0019218443 -0.0038147839 0.0029947793 -0.004485469 -0.0022184784 0.004370206 -0.0009677073 -0.0021895482 -0.0011273932 0.003230667 0.0023799285 0.0013176004 0.0020827567 -0.004714276 0.0026501666 0.00337534 0.0010939098 -0.0012581351 -0.00015086088 -0.0013395788 0.0031648234 -0.0012066277 0.00045468676 -0.0013777275 0.003953747 0.0010710486 0.003722629 0.0023691743 0.00432157 -0.0023166712 0.00037778515 0.0044230702 0.0023587318 -0.0039807884 -0.0017487315 -0.004768082 0.0010277829 -0.004412356 0.004687697 0.004014803 0.00123869 -0.00036977863 
TLE1	0.003344838 0.00025668615 0.00054094 -0.001362105 0.00051320397 -0.002580374 0.003500711 0.0034884163 0.0018561746 -0.0017001674 -0.0018661113 0.0017874751 -0.0027385831 -0.0044656936 0.002491199 -0.0037173436 -0.004346799 0.0019276422 0.0012439361 0.0026278836 -0.0013383377 0.0025805184 0.0019494276 0.0024413096 -0.0026445356 -0.0015712327 0.0011972365 0.0011448885 0.001712965 0.0035706384 0.002276275 0.0020121855 -0.0015059331 -0.0030298335 -0.001946561 -0.00032445445 -0.0049728774 0.004172037 -3.119669e-05 0.0029044657 -0.0008144668 -0.004997442 0.004058443 -1.591628e-06 -0.0022414646 0.0032054365 0.004829786 0.0039050074 0.0013972509 -0.0003490093 -0.004363631 0.00028167304 0.0028254727 0.0048117167 -0.00056053424 0.0038143129 -0.0037700022 0.0036125425 0.00412138 -0.00036215835 0.0027037796 0.0029507137 0.0013573122 -0.004067527 -0.004228307 -0.0023451066 -0.0030355349 -0.0022420106 0.0023534754 0.0044866498 0.0038066413 -0.0021466885 0.002009029 0.0022414583 -0.0046386006 -0.0026718345 -0.0019132857 -0.0044855108 0.0032650286 0.0049810125 0.0013188577 0.004634653 -0.0039016998 0.0016943554 -0.00063451333 -0.0019506415 -0.00057635 -0.004496437 -0.0030504104 -0.00087818736 -0.0007555363 -0.004434483 0.002994343 -0.004268906 -0.004027556 0.0032159237 -0.00026692206 0.0034926087 -0.0010400396 0.00083549664 
OR2H1	-0.0046454463 -0.0040798266 -0.0013476863 0.0007370307 0.0023759569 -0.002586302 0.004999295 0.0016180396 0.004726714 -0.0037092634 0.001298882 -0.0010932339 -0.0034091214 0.0045342883 0.0020125455 -0.0043625147 0.0006074565 -0.004523393 -0.0019418334 -0.0013972118 -0.003442557 -0.0026736164 -0.0046127597 0.00012107863 0.0022655234 0.00091806595 -0.0028267095 0.00019933032 0.0028316493 0.0009171857 0.0030220507 -0.0023025104 -0.0046627605 -0.003704768 0.0041439515 0.0038936834 -0.0018067609 -0.003039081 -0.0047656232 0.004783238 -0.0038392157 0.0036814697 0.0033368159 -0.0011155732 -0.0019913039 -0.0036373935 0.002162223 -0.0026922522 -0.0015620361 0.0023998267 0.0049685393 -0.0049154693 -0.0035467793 0.0044529242 -0.004659005 -0.002592924 0.0048545375 0.003905274 0.00088210136 -0.0006272042 0.0026650662 0.00072661653 -0.002238723 -0.0046957913 -0.0034603076 0.003404715 -0.00088898145 0.0018277758 7.718751e-05 -0.002305539 -0.0035769232 -0.0013112747 -0.002084962 0.004167079 -0.0028403867 -0.00086475804 -9.0217996e-05 -0.0044049527 -2.4032823e-05 -0.0007800465 0.0041517075 -0.0031030842 -0.0033593914 0.003116137 -0.00067742163 0.0040590526 -0.00044496128 -0.0027865863 -0.0044762916 -2.4978854e-05 0.0013866285 0.0009418312 0.0034622105 -0.0033520453 -0.0005484158 0.0032224471 -0.0007534478 -0.0038655826 0.003423462 -0.00064587273 
ITPK1	0.0022525582 0.000108195745 0.0023460754 0.0009413866 0.0010016856 0.0015573154 -0.00047927938 0.0014326123 -0.0037947688 -0.001469001 -0.0041810293 -0.003003856 0.004829625 -0.002234255 0.0024170813 -0.001372281 -0.004521552 0.0036404394 -0.00086176634 -0.0020722395 0.004915657 -0.0004973781 -0.0021598584 0.0030001404 -0.0048451973 -0.001749142 -0.002909954 0.0033175878 -0.001351099 0.003832426 -0.0006615674 -0.0024173837 5.801203e-05 0.0010379791 0.0037409544 -0.0038601812 -0.0004179342 -0.0038687857 0.0039547966 0.0029179058 0.00073645095 0.001008316 0.0018279682 -7.7555604e-05 0.0009397304 -0.00150229 0.0024320604 -0.0029561785 -0.0010306055 0.0031294948 -0.0007852766 0.0040355967 0.0015611661 0.002282913 -0.000718696 0.004277069 -0.0024045622 0.00013105325 0.003171628 -0.002357158 0.004123649 -0.001274373 -0.0023847013 0.0011013926 -0.0038071899 0.0020459448 -0.001387131 -0.0023236624 -0.0045783785 0.0034514933 0.0042878143 0.00042356938 -0.00023309195 -0.0011698756 0.00051818276 -0.003093518 -0.0042927247 0.0028119648 -0.0017322676 -0.00020612823 -0.0033265227 -0.00094707735 0.0031408567 -0.0006531844 -0.0022380361 0.0031399583 0.0012202656 0.0016937832 0.004358536 0.0011058009 0.0017393588 -0.0049086167 0.0018324675 -0.0029307054 9.32863e-05 0.0003168841 -0.0006970062 -0.0014752536 -0.0018721414 -0.0047128843 
FAM13A	-0.0035484158 -0.0031966928 0.0021596558 -0.004574224 -0.0035186457 -0.004282231 -0.000754466 0.0025769728 0.0039541023 -0.0034978585 0.0016199858 -0.0031884497 0.0018920633 -0.002255519 0.00014888887 -0.004082237 -0.00359099 0.0037909348 0.0016398899 -0.0019663183 -0.0020766687 -0.0029269976 0.004869946 -0.00084963103 0.000808909 0.004324289 0.0022685102 0.0030767303 0.0010476125 -0.0022849678 -0.0030068506 -0.0047282106 -0.00044066698 0.00333426 -0.0035984563 0.0010854835 -0.0014837505 4.0550425e-05 0.002376729 0.0022725193 -0.0033475542 -0.0017793464 0.0021947662 -0.001467149 0.00096777617 0.00087936595 0.00023713471 -0.0038974884 -0.0014380964 0.0010277019 -8.709374e-05 -0.004709695 0.0012538465 0.004712158 0.0012198566 -0.0025772783 0.0019163906 -0.0006096697 0.00067854923 0.0002460588 -0.0038146398 -0.004361408 -0.0009874323 0.003208114 -0.0013055124 -9.499582e-05 0.0009783496 0.0044429954 0.0034992087 -0.0012279918 -0.0022958727 -0.0027136349 -0.00020442376 -0.0006717845 0.0009204759 0.00395191 0.0049487622 0.004486024 0.0025943627 -0.0038632762 -0.004686127 0.0021451334 -0.0023507946 0.00065502146 0.00079131284 0.0032863228 -0.004480292 0.0043951343 -0.0011900313 -0.004011509 -0.0044291704 0.0038130942 0.004819424 0.0005479612 -0.0021725148 0.0016281871 0.0019419618 -0.0011075994 0.0042559216 -0.00317872 
POLM	0.0009824283 -0.0030825133 -0.0034650739 0.0011876246 0.004768898 0.0022337602 -0.0040919404 -0.0040818844 -0.0007293486 0.0035586364 0.004407405 -0.004740266 -0.0039894297 0.0029081858 0.0020341447 -0.004000002 -0.0043628267 0.0010371591 -0.0041173645 0.0012840576 0.0034175585 0.0038127766 -0.0011929186 -0.0023770197 -0.002471651 0.0014251599 0.0040215096 -0.0007460248 -0.0018255054 0.00085824827 -0.0001162928 0.0028223211 0.0010048205 0.0035063284 -0.0006200081 0.0016408403 0.0038748549 -0.0037141372 -0.0025811843 -0.0038617232 0.004175697 0.0027932634 0.003614807 -0.0023560012 0.00017865142 0.0003447874 0.000533084 0.0011958882 0.0014849079 -0.00079846004 0.0030725508 0.0011010441 0.0020829807 0.0038927947 0.0001922065 -0.004854033 -0.0025908106 -0.0037673705 -0.0003529084 0.0028453914 0.00037234093 0.0025491356 0.0029886763 0.0045706923 -0.0043669613 -0.0010670056 -0.0035764272 -0.00046989173 -0.00495586 0.0029893753 -0.00040455413 0.0011159999 -0.0006713691 0.0020568098 0.0014118108 -0.0046875845 0.0028191593 0.0045164144 0.004216773 -0.004647118 0.0042915936 0.0005092704 -0.0004120285 0.00475299 0.0042000446 2.9758667e-05 -0.002096439 -0.0022846714 0.0024685396 0.0014324891 0.0016140009 0.0031429783 -0.0011165614 0.0038830116 -0.0014908852 0.0036858316 -0.0045261676 0.0020588683 -0.0019259083 0.004975551 
TBX22	-0.0036242844 -0.0032518473 0.003885187 -0.0039442494 0.0001894611 -0.00096224557 -0.004053782 0.0026431868 0.004440977 -0.0042985654 -0.0018538045 0.003429617 0.0011144592 0.00065325457 0.0042898464 0.00052565074 0.002320423 0.002733286 0.0031054039 -0.004551573 -0.00074665487 0.004436896 4.6295636e-06 -4.631004e-05 0.0031470465 0.0023566866 0.0034929803 -0.0022377614 -0.004809366 0.0024567891 -0.0039223237 0.004162236 0.0049384474 -0.004106027 0.001426642 -0.002809015 -0.0023583265 -0.0044169915 0.0011064374 0.0023965545 0.004217865 0.0015034388 -0.0022816113 5.0184284e-05 0.0013474757 -0.0003868279 -0.0012173712 -0.0014372137 0.0025432531 0.00068846537 -0.001220066 0.004375005 -3.712024e-05 0.001757188 0.0018936839 -0.0033954608 0.00019806638 -0.0036985625 0.0030934769 0.002344101 0.0033268533 -0.003574283 0.0047180494 -0.0016490628 -0.0007176585 -0.0015419454 -0.0026843671 0.0019636268 -0.00012318567 0.004064131 -0.0008765318 0.0030654045 0.0045369016 -0.0028030416 0.00086853694 -0.0026818814 0.0011326259 -0.00080583035 0.004720458 0.00469355 -0.0012761042 -0.0034770966 0.0040116557 0.00071496365 -0.0010354616 -0.0014853171 0.0043198657 -0.0036143975 -0.0027537893 0.0025156632 0.002170204 0.0023867514 -0.004746317 -0.0033925916 -0.0030027921 -8.9051115e-05 -0.0029808816 0.003262952 -0.004369017 0.0049047945 
KRTAP8-1	-0.0031427685 -0.0037643486 0.001584058 -0.0044766287 -0.00495321 -0.0024066514 0.004159374 -0.00037052753 0.0009442164 0.0018228916 0.0030046015 -0.0018240432 -0.004245306 0.0029452466 0.0013517416 0.0048553455 -0.0024108102 0.0033156986 -0.0037917523 0.0016690191 0.00019541719 -6.2873674e-05 -0.004369859 -0.00030173687 -0.0022793515 0.0042615603 0.004123514 -0.0039626085 -0.0037121996 0.00030840107 0.0011862708 0.0024779555 -0.0031804997 0.004164321 -0.003884865 -0.0049175895 -0.0027729187 -0.0017680682 0.0007626403 -0.003991258 -0.0005049626 -0.0039451513 0.0004132365 0.0023500226 0.0043705604 -0.004058734 -0.0026835361 -0.0013728602 -0.0033082936 -0.0033279925 3.574733e-05 -0.0038324783 0.0024389913 0.004500082 0.00453215 0.00049284473 0.0022276584 0.0030394706 -0.0046267635 0.00449511 0.004067316 0.0014418253 0.00088998466 0.00014084768 -0.0012853487 0.0003160232 -0.0036185419 -0.003706457 -0.0014719836 0.003053518 0.0015163786 0.0015377258 0.0023346762 0.0016253722 -0.002170864 -0.0038476286 -0.0016191312 0.0017900344 -0.004772582 -0.0029386901 -0.0028272204 0.0031116924 -0.00443774 -0.0018615203 0.0030460511 0.0010326272 0.0025823838 -0.0016989682 -0.00038217413 0.0030441505 -0.0036051522 -0.0019002209 -0.0028515474 0.0016780517 -0.0010984646 0.0037974075 -0.002820807 -0.0034744903 -0.0040531848 0.0005060154 
OR51M1	-0.003482501 -0.0022951437 0.0024527304 -0.0007152467 -0.0027998579 -0.00187251 0.0029934314 0.0009514743 -0.002132788 -0.0012876089 -0.0018387849 -0.0005167252 0.0037383973 -0.0037559827 0.004534068 0.004414547 0.0016876268 0.0003085151 -0.0047256337 -0.0013842188 0.0017843759 -0.0022890249 0.000753016 -0.002445318 0.0037879327 -0.002493563 -0.0038889458 0.00022163508 0.0025572288 -0.0016778765 0.0014055922 -0.0018393566 0.004619029 -0.00063237885 -0.0040670037 0.0034032061 -0.0006256171 0.003931123 -0.0014458046 0.0023625917 0.0038631433 -0.0041304305 0.00059536623 0.004981492 -0.0042524403 0.003062632 0.0041484325 0.0013382478 -0.0026555322 -0.004313152 3.7965623e-05 -0.0031017112 -0.0024186575 -0.00415295 -0.003378832 0.00048691864 -0.0040758047 0.0005464042 0.0027168316 -0.00028695 -0.00041166687 0.0033756515 0.0020534892 -0.0013048119 -0.0029040468 0.0041535026 -0.0013676252 0.0036869163 -0.0008747018 0.0036703264 0.004251051 -0.00063047645 0.0007210177 0.0027893858 -0.0017273619 -0.0031657163 -0.0039178263 -0.00019001261 0.0018044108 0.0033292212 0.00027146869 0.004741656 0.0024633151 4.2560337e-06 -0.0007137195 -0.004252467 0.0006266986 -0.001970989 -0.00038975728 0.0012240728 -0.0042912867 -0.0007506727 0.00026410777 -0.0012101313 -0.0019493803 -0.0022041202 0.00060438947 -0.0035631035 -0.0011587047 -0.00029988942 
CRABP1	0.004408209 -0.002734551 -0.004319995 0.00047303396 -0.00078445 -0.001923352 0.0045104166 -0.00011705225 0.0022669726 0.0006522505 0.0026855746 0.0040258523 0.004063556 0.004343556 -0.0042805863 -0.0005633811 -0.0025564858 0.004260602 0.0042123822 -0.0024686342 0.0041314294 -0.004237657 0.00078820117 0.0025106973 -0.00301244 0.0002856701 -0.003170479 -0.0008314107 -0.0014165088 -0.0003652244 0.0014934556 0.0019140808 -0.0025178092 -0.004086733 -0.0024787467 0.0013034239 0.0015694245 0.0017829691 -0.0029121616 -0.00326833 0.0026467424 -0.0010866749 -0.0027428987 -0.000869563 0.0022693519 -0.0049852766 -0.00017764037 -0.002809305 -0.0003575832 -0.0032168773 -0.002582761 -0.003136788 -0.0015431808 0.001835188 -0.0014060555 0.0044167615 0.00027317717 -0.0016167506 0.0033725041 0.0038554175 0.00391573 -0.0015209778 -0.002630046 -0.0040649553 0.0028449083 -0.004759012 0.0041180486 0.002667962 -0.002485804 -0.0030890298 0.004656433 -2.3230525e-05 -0.0043092286 -0.0030650292 0.0020939857 0.0020697215 0.0025908684 -0.0037083244 -0.0006577455 0.00042702976 -0.0007894616 -0.0033833063 0.0009891533 0.002592749 0.002982995 -0.00085984904 0.002922254 0.001572155 0.0010138248 -0.002227059 -0.0038388825 -0.0043105497 0.001568271 0.0039260224 0.004364824 0.00194591 -0.0018439817 -0.0037500309 0.0020161008 0.0013106994 
RRAS	-0.0026463496 -0.003802411 -0.00078982237 -0.0038079848 0.0034881604 0.004873907 0.00023794151 0.00097492087 0.0043384237 0.0019385708 0.002205905 0.0035542012 0.0018297689 -0.0038657486 0.0043376912 -0.0031963682 -0.0033034196 -0.004620335 0.0003972161 0.0033983192 -0.0026442725 -0.0043518897 0.0010227502 -0.004848214 4.342384e-06 -0.0028298565 0.00458901 0.0035243921 -0.002488947 0.0034261602 -0.00028200194 -0.0032939084 -0.0011322957 -0.004685079 0.004960559 0.004247943 -0.0028574895 -0.004034611 -0.00044250733 -0.0045837313 0.00464158 -0.00013986597 -9.264206e-05 -0.0010400804 0.0042343126 -0.0029285913 -0.0032199628 -0.004683815 -0.0033758983 -0.004564415 0.0029142415 -0.000816466 -0.0045918743 -0.0021532543 0.001965166 0.0022158895 0.001980705 -0.002886325 -0.004017973 -0.0017619663 0.0046338877 -0.0023674995 0.0038442102 0.004633266 -0.00041522266 -0.001911574 0.0038121091 -0.0033537343 -0.0031838696 -0.0032440766 -0.002093963 0.00404877 0.0031221448 0.0014115509 0.0024270497 -0.002409647 -0.004945349 0.0037517888 -0.0035786156 -0.004049241 0.004847063 -1.1164053e-05 0.0022690883 0.00039385146 -0.0029106115 -0.00014983695 -0.0018122141 -0.0039013042 0.004311074 0.0021545917 0.0032268425 -0.0011641878 0.002823332 -0.00035585253 0.00018452134 0.0006650261 0.0005385343 -0.003336754 0.003072082 0.00035487267 
DPH1	-0.0007148939 0.0035686893 0.0032668381 -0.0048254062 0.0010944055 -0.0015950033 0.003351105 -0.0028369182 -0.0010578658 -0.0005885874 0.004682153 0.00096674834 0.0026669472 0.00037777048 0.002132437 -0.0047354624 0.001335044 -0.0015543051 -0.0029014978 0.0026766295 0.0028735155 0.0041907784 -0.0034053077 -0.0010027167 -0.0007112264 -0.0039301077 0.0023716958 0.0022073314 0.0042927037 -0.0040001776 -0.0049288613 0.004060982 0.0032848674 0.001850591 0.0008655415 0.00024274329 -0.0030887001 0.003514235 0.003359059 0.0030621553 0.0005965756 -0.001388135 -0.0011000995 -0.00056859496 -0.00093784876 0.0027613505 0.0038276282 0.002749288 0.0029739304 -0.0032956023 -0.00061023724 0.002162671 -0.0016491669 0.0035767255 0.0012880327 0.003236412 0.004564864 0.0033434008 0.0010927423 -0.0038090704 0.0043061436 -0.0040175985 0.0047366708 -0.0045040967 -0.002256508 -0.0007552559 -0.0018060302 -0.0018831225 0.0028068025 -0.003699432 0.0015860788 -0.0038806985 0.0013635784 0.00328115 -0.0019255005 -0.0042436994 0.0027799217 -0.0038524873 0.002407247 -0.0028154908 -0.0018765873 -0.0017212252 0.00412756 -0.0045193294 -0.0015557946 -0.004768106 -0.0033450692 0.00357606 -0.0013148738 -0.00043801873 -0.0024192957 -0.002831546 -0.0036833037 -0.0005902487 -0.0014944809 0.001302449 -0.0034208498 0.0036342158 -0.0005521086 -0.0032514213 
TTC28	0.004812554 0.00034049104 0.0033705668 0.0043494687 -0.0022194611 0.0030855103 -0.0009298753 -0.0028129434 0.004880718 -0.002520525 0.0024796242 0.002271541 -0.0042362483 -0.0028296437 0.003397611 0.00072025333 0.0020578133 0.0025348195 0.0022844898 -0.0025202564 0.0043651126 -0.0004985124 -0.0038582375 -0.0046401923 -0.004815342 0.0031078423 0.0018995856 -0.0020430458 0.0049461313 -0.004823146 -0.0013529772 -0.0006456666 -0.004605382 -0.0008910105 -0.0035533556 -0.0047608605 -0.0031684623 -0.0021982652 -0.0008147644 -0.0006270151 0.0038524016 0.0018348563 -0.0010232556 0.0026133973 0.0031876913 0.004498464 0.0010133758 -0.002808972 -0.004054892 -0.0040812814 -0.002150905 0.00023809171 0.0046710162 0.0031505085 -0.0013357224 0.0025365977 0.0034297572 -0.0047831405 0.00063308625 0.002458087 0.0047511077 -0.0028559186 -0.0028518368 -0.0009426321 -0.0022896368 0.0048757093 0.00052843353 0.0011615381 0.002317803 0.0014281011 -0.0034300108 -0.0009709825 0.0012147129 -0.0007221235 -0.0024664532 -0.0011886893 -0.0005408504 0.00490031 -0.00035982547 -0.0044633243 -0.002571594 -0.0017417872 0.0042746905 0.0011942346 -0.0042473343 0.004745473 -0.0024107625 9.7444776e-05 0.002557755 0.0048028105 0.0033118285 0.001672113 0.0008702367 0.0046617375 0.00085081905 -0.0010974876 0.003984459 -0.0011059555 0.0032348458 0.00022310093 
POTEKP	-0.003951896 0.0048791384 -0.004120065 -0.001365522 -0.004531852 0.0009931016 0.0022061795 -0.0024649014 -0.0032651485 0.0028851815 -0.0024624055 0.00042038006 -0.0005381678 -0.00079183636 -0.0034755468 -0.001253153 0.001207208 0.0016850882 0.0009135572 -0.0029137412 6.378596e-05 -0.002359349 -0.0036518546 0.0042832782 -0.00057253655 0.00067874044 -0.0046799146 0.0016034563 0.003545175 -0.0035999154 0.0017219548 0.002270855 -0.0029827438 -0.0038675687 0.002959864 0.0020790235 0.004144015 -0.00261271 -0.00434126 0.00077431736 0.0036823356 -0.0020764293 -0.0006051888 -0.0010338317 0.0030754993 -0.0023050706 0.00093136536 0.004807511 -0.0023709845 -0.00071010913 -0.0021004712 -0.0016859205 0.003244522 -0.00049523154 -0.00083285145 -0.0024641892 0.00014756028 6.141717e-05 0.0020093243 0.0024885347 0.0032627461 0.0019374213 0.0013562236 0.0011601935 -0.0015334403 0.00026346848 -0.0009391452 0.0029531159 0.001838166 0.0038736807 -0.003963273 -0.002270343 0.0003383664 0.0033590244 -0.0015424445 -0.0024514368 -0.0039363154 5.154158e-05 0.0023050806 0.0015665063 -0.0027016755 0.0014525176 0.0038672797 0.0031174154 -0.00227091 -0.0019462872 0.0031793776 -0.0011964757 -0.0015298203 -0.0015494073 0.0025075574 0.0048090336 0.0024079133 0.0001934214 0.0030898892 0.0015712569 0.0037198213 -0.0038654618 0.0049594636 -0.0016029715 
ATL3	0.00060990825 0.0036930374 0.003416296 -0.002262514 0.0015441714 -0.0017243649 0.0018258472 0.0047209878 0.0045872554 -0.002250072 0.0028796168 0.0033256519 -0.0020375901 0.0037448814 -0.0033054375 0.0015749726 0.004962375 0.0043567666 -0.0015817039 0.004787072 -0.0026291045 -0.00013897117 -0.0014831552 -0.0029480697 -0.0021556302 -0.0009819681 -0.0009795063 0.0029002535 0.00038604246 0.003911956 0.0047688107 0.0025320312 0.003922133 0.004084469 0.0021401118 -0.0025175759 -0.00418556 -0.00075414643 0.0023501497 -0.0023956883 -0.0025536104 0.0043353746 -0.0025703541 -0.003401193 0.00016496146 0.0032598134 0.0011627795 -0.0010221297 -0.0016544037 -0.0028694703 -0.0014001039 -0.003235432 -0.0020927188 0.0023412036 -0.0029365232 -0.0026014943 -0.004887658 0.0030915055 0.0018615075 0.0032207216 -0.004879478 -0.00095775 -0.0012714568 0.0047101933 0.0020038371 0.0002610298 0.004535501 -0.0035300078 0.004336448 -0.0012277251 0.0016100575 -0.00012106849 0.002182356 0.003597838 0.0048002056 -0.004677825 -0.002847025 0.0006519954 6.655151e-05 0.0030709608 0.0045860345 0.002155579 -0.000732194 -0.0019383413 -0.0017943941 -0.004646831 -0.0022124008 0.003035933 0.0030219906 0.0009436589 0.0007693983 -0.0024215395 -0.002537109 -0.0013615779 0.0014126158 -0.0026799426 0.004119013 -0.002774344 0.0038254098 0.0018884013 
ZNF367	-0.0015319568 0.0006950554 0.0016003866 -0.0025346067 0.0027589696 -0.0036979727 0.00016406212 -0.0044390038 -0.004331964 0.0008813454 1.26932355e-05 -0.0016587464 -0.0010919524 -0.0027052762 0.0012351649 0.0007495049 -0.0019434562 -0.0011618785 -0.0024923773 -0.0024683413 0.0029985781 -0.004325876 -6.676551e-05 0.00042750878 -0.0049312958 -0.0036740443 0.0003274929 0.0010760141 0.0037204162 -0.0038065675 0.004368733 -0.0004176035 -0.0015263543 -0.002370968 -0.00025570835 0.0002465263 -0.0019081216 -0.0008677363 -0.004417024 -0.0008084189 -0.00016247512 -0.004488667 0.00076755154 -0.0002041107 0.002817546 -0.003236845 -0.0015256845 0.0048510493 -0.0032813733 -0.0028615212 0.0047094636 0.00058707275 -0.0036451283 -0.0044852295 0.004135706 -4.355657e-05 -0.0006455303 -0.0049065333 0.00038855354 -0.0039229067 0.00143045 -0.0038858163 -0.0034618473 -0.0021361036 -0.00034770695 -0.002716916 -0.0036901636 -0.0045603113 0.002597056 0.0008680999 -0.001154508 -0.003724443 -0.0042942315 -0.0025551985 0.002669977 0.0016191283 -0.0022187685 -0.0023998374 -0.00031981317 -0.0028896285 0.0019572093 -0.0017816388 -0.0008011501 0.0029261415 0.003533201 0.0025330766 -0.0012101479 0.0007559966 0.003617338 0.00015958851 -0.00040959826 -0.0035875044 -0.0029677632 -0.0028153525 -0.0037376483 0.0013784533 0.0006242934 0.0038832864 0.0042972337 -0.0029836956 
TEAD3	0.0015893822 -0.0013565335 -0.00057472294 0.0004971659 -0.0012818251 0.0018545425 0.00019775218 -0.0017682643 -0.0048447032 0.0037509894 0.003963454 0.00013167909 0.0018956626 -0.004724113 -0.00058823277 0.0033196437 0.00078047445 0.0032229142 0.0024936176 4.8620084e-05 -0.0041731778 0.0009450791 0.0036888 0.0008026567 -0.0007529581 -0.0028533796 0.004003581 0.002210482 -0.0036104792 -0.0009054868 0.0037579327 -0.0046047275 0.003130128 0.0010406658 -0.002440929 -0.0017664564 0.004318714 0.004541319 0.001896474 0.0047428617 -0.0035891961 -0.0039682942 0.0037689689 -0.00048173906 0.0005911214 -0.0023556594 -0.002755356 0.002311689 -0.0035412833 -0.0018496122 0.0043505984 -0.0034294226 -0.003943094 0.00096777425 -0.002070067 -0.0030195145 0.0017993386 -0.0045680613 0.0023637481 -0.0022503578 0.002234776 -0.0017384402 0.001736574 -0.004314486 0.001494581 -0.0045234053 -0.003262888 0.0017241674 0.0009912903 -0.00384105 -0.0005064079 -0.0034945249 -0.0027807073 6.811807e-05 0.0030399822 -0.0019731738 -0.0030689621 -0.0024097995 0.0039907023 -0.0030038576 -0.0030836964 -0.0012039926 -0.0009215919 0.0018737378 0.002203973 -0.0017479605 0.00014687543 -0.0028170503 -0.0015351324 0.0012639727 0.004928908 0.0030970478 0.004765361 0.0006484952 0.003187562 0.00017921373 0.002293115 -0.003086141 -0.00095863565 -0.0049241893 
GLI1	0.004760236 0.0012592961 0.0010793312 -0.00059590384 0.000837169 0.0047826734 -0.004412209 0.0015086251 0.00056371564 -0.0006696423 0.0010069946 -0.0019380272 -0.0047435923 -0.00055643456 -0.0014477831 -0.0014440196 -0.0008998962 0.00337135 -0.0010527117 0.0022211638 -0.00084321754 0.00109551 0.0049596485 -0.0015470632 2.4105044e-05 0.0023325966 -8.4564104e-05 0.0023230615 0.002442334 0.00291452 -0.0043564728 -0.0026193582 -0.0047992687 -0.004731502 0.0032817037 0.004159967 -0.00016167176 -0.004679584 0.000553718 0.00095161644 -0.00038470796 0.0014098623 -0.0034743808 0.0023524784 0.00436825 0.0013279248 0.002785653 0.0008307761 -0.0004099934 0.0047325823 -0.0023289537 -0.00096712867 -0.0046645612 -0.0041802414 -0.0049313013 0.002368976 -0.0008171062 0.0012613871 -0.0031530713 0.00329869 -0.0047372133 0.0039193216 0.0022952843 -0.0010750525 -0.00406149 -0.0049294517 -0.0013580119 -0.0007152661 0.004799446 0.0042862175 0.0005777194 0.0023277202 0.0031205919 -0.004727534 -0.0049225553 0.00015712446 -0.0035224543 -0.00047786505 0.0046013324 0.002398065 -0.0020730312 -0.0021161977 -0.0034778798 0.00039232487 0.001632463 0.0044720327 -0.0019450362 0.0023899344 -0.0015919262 -0.0049088513 -0.00400915 0.0028696225 0.0019050837 -0.0012250203 0.0035297323 0.004399682 -0.00070067367 -0.0030546116 -0.0041041244 0.0025700196 
MAML3	0.0035445376 -0.0047834883 -0.0007457552 -0.0022752557 -0.0013153072 -0.0013422709 -0.00016496761 -0.0016586619 0.0015420908 -0.0035208156 -0.0047426564 -0.0016901885 0.0044232816 0.000117794385 0.0034372634 0.0013613717 0.0037719905 0.002130972 0.0045089233 0.0045893826 0.003828057 0.0029793556 0.0028746773 0.00439323 0.0003136292 0.0011189552 0.001165098 -0.0002628316 -0.00234642 -0.0048684236 0.0015129816 -0.0026024864 -0.0030239462 0.0006772209 0.0007831971 0.0004926882 0.00444487 -4.0918047e-05 -0.0045451378 -0.0022621176 0.0031284525 -0.0012500554 0.0030407477 0.004846466 -0.0024585372 0.0035495318 -3.4240787e-05 0.002798172 0.0035534548 0.0006004789 0.00495975 -0.0036635844 0.0005021629 0.00028974193 0.0028003484 0.0024252217 0.004522292 -0.0049252748 0.002675342 0.0039072926 0.004959315 -0.0035033706 -0.0016899041 0.0021066656 0.003853833 0.0008141287 0.004781617 -0.00042943208 -0.0044619814 -0.0035239456 0.004228846 -0.0044626156 0.00093884894 -0.0036709905 -0.0016169904 -0.0035218748 -0.0007942029 0.0037046515 0.00085356104 0.00011890439 0.004305572 -0.0014449079 -0.0020656134 -0.004351384 0.00029589146 -0.0007150227 0.0037949476 -0.0001961281 -0.0022949835 -0.0027484086 -0.00028801814 0.004608086 0.00020549566 0.0014674052 -0.0045765657 -0.003957043 0.0014097228 1.1670764e-05 -0.00041942316 -0.002262683 
FGF14	-0.0017944935 -0.0044024675 0.0045077214 0.0015985417 -0.0034602792 -0.004573125 -0.00024194375 -0.0027823134 -0.0024296653 -0.0019118277 0.0016283324 -0.0018009203 0.00030628248 -0.0027472095 0.0038962376 0.0015885247 -0.0040383833 -0.0014986082 -0.004402746 -0.0039690007 -0.00063445035 -0.0028747865 -0.0043773614 -0.0040620877 0.004091258 -0.0034714623 -0.004817331 -0.004784641 0.003019264 0.004833394 0.0048603863 0.0031375578 0.0043126578 0.0011951783 -0.0034220957 0.0017783112 -0.004677039 0.0028103306 -0.0007998422 0.0037853275 -0.0030984196 0.00051430904 0.003800338 0.00088859745 0.00059159065 0.003546556 0.0007784039 -0.0038846533 0.0049561933 -0.0038973922 0.0017917583 -0.0027907123 0.0049966355 0.0040367185 0.0042611137 -0.0048765517 -0.0021204532 0.004196368 0.00025834487 0.0015456729 -0.003749699 -0.004559903 0.003207135 -0.0010720928 -0.0030689505 -0.0025903767 -0.0012174794 0.0038983934 0.003492111 0.0029963127 -3.781347e-05 -0.0048168893 0.0026374392 0.0011363464 -0.0015477305 0.003533396 -0.0038075412 0.00051386777 -0.0029804162 -0.001077467 0.0038542806 -0.0006526941 0.003163658 -0.0043396098 0.0020984744 0.003834642 0.0033008663 -0.0033202225 0.00032559162 -0.0047369283 0.00084946223 0.0015058987 0.001719065 0.0015369878 0.0024756507 -0.0049016676 0.0004687722 -0.0027154626 -0.0038493942 0.0006721417 
SIM2	0.0034613432 -0.000824985 0.0011386732 -0.0044978163 0.0004634093 -2.341956e-05 -0.0015832642 -0.004736472 -0.001255347 -0.0023477993 0.0013599698 -0.0011380635 0.0036380447 -0.004087553 -0.0022545028 -0.0013171077 -0.0021020153 -0.0017992831 -0.004079972 -0.004621219 3.0082061e-05 -0.00318317 -0.0030859786 0.0016535489 -0.003140696 -0.0016674916 -0.0005405301 -0.001141059 0.0031135445 0.0039803167 0.0018070923 0.0036090165 -0.0028699036 0.0036635553 0.000790981 0.0031713 0.0018374391 -0.0007337029 -3.8490532e-05 -0.00038541396 -0.0030993854 0.0023131222 -0.00087466394 0.0033469629 0.0019680825 0.003983159 0.0017246747 -0.0037670478 0.003479192 -0.00048347653 0.0021538953 0.0011763513 0.0047950293 0.0023532861 0.0045516333 0.0043573426 0.0034809492 0.0041976348 -0.0045004054 0.004842944 -0.0005996903 -0.00249206 -0.002014248 -0.00029825245 0.0015973749 -0.002770393 0.0024316534 -0.004697971 -0.0014065487 -0.00011191451 -0.0045455364 -0.0031219944 -0.001349892 0.0036885964 -0.0026109107 0.0009684325 0.0022772574 0.0011430143 0.0021713667 0.0019587176 -0.0025402957 -0.0023398935 -0.00032520262 0.0010878653 -0.0011074693 -0.0029651094 0.003650932 -0.0012894399 0.0019496747 -0.0048530935 -0.0018419013 0.0030652138 -0.0026184414 -0.00227487 -0.0030681733 0.0037119442 0.0019388736 -4.788749e-05 -0.001073568 -0.004967481 
CCAR2	-0.004578079 0.004463459 -0.0031755592 -0.003942166 -0.0027673177 0.0019083336 -0.0013213413 0.004430388 -0.0027429424 0.0032722254 -0.004256446 -0.001147344 0.000817464 0.004559447 0.0037019765 0.003509847 0.0025949166 -0.0035477884 0.0019340407 0.0011583482 -0.0034167187 -0.0011440268 -0.002103692 -0.001011677 -0.0031435196 -0.00075053866 -0.0002804677 0.0046107904 0.0019295338 -0.0015176297 -0.0014343096 -0.0015410712 -0.0033435419 0.0047044526 0.0034388194 -0.0010721188 3.627294e-05 0.0004029708 0.0022329483 0.0022080927 0.00073183136 0.0028065455 -0.00094261055 -0.004812305 0.004985121 0.004664403 -0.003995506 0.0044989027 -0.002584466 0.0046084384 -0.0014583291 -0.00017315336 -0.0016988784 -0.0039458885 0.00056294864 -0.00093635794 -0.0013746422 -0.00057209854 -0.0016224756 0.00065254566 0.0026255038 -0.000725986 0.00072534394 -0.00012769531 -0.0009991046 0.00016483139 -0.0035334686 0.003733798 0.0021616507 0.0015918616 -0.0036677707 0.0025205899 0.0011231432 0.0048774336 0.0044157035 -0.003676763 0.0046922686 -0.0023492284 -0.0013589289 0.004319053 0.0039211963 0.0006885157 -0.0046474705 0.0011754521 0.002577157 -0.00025949941 -0.0028953012 -0.0014490075 -0.000499447 -0.00093311374 -0.0016844838 -0.0012385226 0.0022281238 -0.0016064602 0.0016830261 -0.0013184538 -0.0009991757 0.0025344752 -0.0013161438 0.0036858025 
GPR65	-0.0032034817 -0.0048022303 -0.0044486057 -0.0005816125 -0.0020399839 0.0043457383 0.0048092594 0.0006408142 -0.0012190298 0.0012332717 -0.00019054755 0.0013478128 -0.0019986473 -0.0038009724 0.0029763868 0.0022352492 -0.0024584646 -0.004276003 0.00459904 0.00069667725 -0.0009076769 -0.0028872015 0.0039277226 -0.0024130947 -0.004231483 0.00052518025 0.00020855879 0.0014729811 -0.00199889 0.00087155215 -0.0036405534 -0.0035803858 0.0037178309 -0.00037129852 -0.0039878096 0.0009884153 -6.333064e-05 -0.0016140003 -0.002771163 -0.0044298405 -0.003039215 0.001171952 -0.001962428 -0.00485302 0.0043935603 -0.00073273 -0.003039447 -0.0023613214 -0.00011071667 0.0011379083 0.0029838986 0.00030279925 0.0006382925 0.0046185968 0.004107918 0.0046522566 0.00041578087 -0.00153361 0.0004709196 -0.001216618 -0.0023279933 -0.004836976 -0.0006961215 -0.001166333 -0.0030893034 -0.0037995926 -0.0010579025 0.0018673246 0.00028062906 0.0017308434 -0.0042061317 -0.004217109 0.0020121313 0.003716883 -0.0015442607 0.004849796 -0.0041660443 0.0014734375 0.004176856 -0.00034828557 5.71852e-05 0.0027029878 -0.002392884 0.0035434412 0.0011975457 0.0018375188 -5.4160402e-05 -0.0013196189 -0.0040571433 -0.0027432188 0.0020505746 -0.0027826682 -0.004840795 0.003941251 0.0005587753 0.0012267348 -0.0028828147 0.0021659748 -0.0013389994 -0.0019436682 
MYL9	0.0045258356 0.004713934 0.0010035136 0.0013899545 0.004980321 -0.0010003819 9.964019e-05 0.0002934335 -0.004356192 -0.004665953 0.0043132966 0.0023159897 0.0032416987 -0.00189728 -0.004092856 0.004255974 -0.0042957435 0.001487799 -0.004907105 0.0034168826 0.004826352 -9.294725e-05 -0.0016629073 0.0028163604 -0.0049724956 0.00070393435 0.0002471855 -0.000418566 0.0027773962 0.0028401809 0.0047710575 -0.003578596 0.0020702062 0.0012834417 -0.004080655 -0.00096051086 0.0030714415 0.0015930987 -0.00024404719 0.0027117198 -0.00031892964 -0.0030011216 -0.0015696605 0.001560799 -0.0038429052 -0.0039673154 0.0016552248 0.0027389047 -0.004976783 0.0043118563 0.00010026605 -0.004810121 0.0018469999 -0.0008123033 -0.0016258451 -0.0011443321 -0.004312842 -0.0037352883 0.0043079583 -0.0022336827 0.0047033047 0.0048937816 0.0010475346 -0.0006434225 -0.00067623483 -0.0011924881 -0.004422011 0.00044361275 0.0016451019 -0.00040096926 0.0042803795 0.0022286514 -0.004108489 -0.004033123 0.0015292343 -0.0016386545 0.0047804615 0.001711129 0.0023784658 -0.001278903 0.0016466788 0.0045955344 -0.0017830671 -0.0014217414 0.0048112744 -0.0031384334 0.00061239395 -0.0009788683 -0.0013798109 0.00036310658 -0.0003176309 0.00018884995 0.0029988915 -0.0012284486 -0.00349352 -0.0021154697 -0.004998855 0.0009644511 -0.004625512 0.0021676624 
ADCY9	-0.0007827302 -0.0008734291 0.002448908 -0.0005988412 0.003622865 0.0034593537 -0.00043923937 0.00036088788 0.00018657534 -0.000932349 0.0015295742 -0.00041207223 -0.0048267827 -0.0018367128 0.00074359874 0.0019869155 0.0034283956 -3.5285822e-05 -0.0032023552 -0.0039327475 -0.0005602569 0.0002800434 0.0007366062 -0.0046906136 -0.0006815742 0.00012077786 -0.0046542194 -0.0035183039 0.002588873 0.00348885 -0.004859346 -0.0005413511 -0.0038391917 -0.0027281423 -0.0014469947 0.0016363867 0.0015766833 0.002954028 0.0027367922 0.0029129414 0.0027350723 0.002753654 0.0023984583 -0.0044754855 0.0014260618 0.00275123 -0.0026517091 -0.0038511404 0.0002477576 0.0038704062 -0.003852042 -0.0010623379 -0.0031700404 0.0017996067 -0.0035745543 -0.004056753 0.0013776912 0.0017206792 -0.0008467552 0.004550129 0.0006217579 0.003601927 0.0009512816 -0.0028741986 0.0029777193 -0.0026946482 -0.0035429376 0.002363728 -0.003711399 0.0041330247 -0.003213338 0.0020333896 -0.0027914448 0.0026200367 0.0047252714 -0.00388887 0.0021568155 0.00019461916 0.0009648158 -0.004082364 0.003943042 0.0004998407 -0.00175265 -0.003740906 0.00090285705 -0.0007130542 0.0040513417 0.004820789 -0.003490721 0.004048494 0.0036100782 0.00216645 -0.0044963392 0.0032633191 0.0037641488 -0.0014198157 0.004370218 0.0037252093 -0.00036372183 0.0015797763 
ERF	0.0026932794 -0.0005923421 0.004122797 0.0027189904 -0.0009352734 -0.00057713693 6.295239e-05 -0.0033802928 0.0046849814 -0.003996687 0.004128383 -0.00045782805 0.00028848666 0.0010553906 -0.00074875867 -0.00041790464 0.001329664 -0.00024345952 -0.0042972295 -0.004406876 0.002767424 -0.0019017095 -0.0026412085 -0.004574585 -0.0030857571 0.00347353 -0.0023950993 0.00083186524 -0.0039958833 -0.0033452604 -0.0035468296 0.004178175 0.0033693947 -0.0039861933 0.0023905546 0.0019204337 0.004502043 0.0028225258 -0.0024664537 -0.0017775246 -0.0015356515 -0.004686203 -0.0012230132 0.0018210079 0.003258774 -0.0040292926 0.00079907395 0.0023345205 -0.00073944504 -3.0815e-05 0.0023447438 0.0032243964 0.0022849378 -0.0024488245 0.0032980745 -0.004310444 0.0021816425 -0.0045913397 -0.0035732659 -0.0041736406 -0.0019104254 -0.0032427378 0.0046915715 -0.0033568246 0.0032469719 0.0017038167 -0.0019856677 0.0022284708 0.0043569235 0.004005622 0.0016252226 -0.00070684415 0.0011221252 -0.0026696327 0.0036056016 0.0045332597 0.0025168278 -0.004726258 -0.00074562774 4.151217e-05 0.002238969 -0.0007076837 -0.0029024193 -0.0032558313 0.0040067956 0.0014001802 -0.0027813741 -0.0040439605 0.00035908952 0.0008185376 -0.0013367562 -0.0024978886 0.002213756 0.00035566845 0.0041592033 0.0035097457 -0.004886767 -0.0021869775 0.00044439037 -0.0004483694 
NAB2	-0.0036683758 -0.0022569227 -0.00045882523 0.0031458403 0.00057681854 -0.0025985057 -0.002976888 -0.0046587987 -0.004862774 0.004738422 0.0032761786 0.0002430298 0.0026252505 -0.0040572286 -0.000603236 -0.0038374974 0.00047152195 -0.004990856 0.0014523729 0.0049776593 0.00028242113 0.0027956106 -0.0016358113 0.004553878 -0.003361844 -0.003308045 -0.004487156 0.0016140129 -0.003859893 -0.0030255807 0.0019417497 0.0036111989 0.00064814684 -0.0031001014 0.003928536 -0.003569592 0.002744859 -0.003961082 0.0022028515 0.002869419 0.000515047 0.0028232073 -0.0038260305 -0.0022778206 0.0043576094 -0.0010645745 0.004777522 0.00012080827 -0.004371569 0.001659575 0.00444926 -0.0037624491 -0.0027023484 -0.0008481291 0.0031948679 0.003318381 0.004374678 0.00095363037 -0.0029813584 0.00019507881 0.0028369224 0.004888492 0.003926173 -0.002373717 -0.0036942908 -0.0010569806 -0.0034773792 0.0022504532 -0.0031562084 -9.858257e-05 4.5716777e-05 0.0013064281 -0.003975656 -0.0043591787 -0.0027745585 -0.0034406164 -0.004719277 -0.001798376 0.00013559581 0.0047189863 0.0014066387 -0.0026115158 -0.0011659476 -0.0033608275 -0.0026044538 0.004785224 0.0043178885 -0.0046100114 -0.00406836 0.003139454 0.0024343198 -0.0029714287 -0.004936264 -0.00078188756 0.0011243913 0.0011080246 -0.00456144 0.0036480564 0.0015897466 -0.0026315032 
TRPM7	-0.0032094019 0.004893304 0.0049306788 0.0019533755 -0.0043694535 -0.0032357078 -0.0047790185 -0.0025063034 0.0009622722 -0.0008804194 -0.0032175926 0.0017884456 0.00013971941 0.00020744915 0.0022710962 -0.0007151268 0.004305851 -0.002969903 -0.0042830673 0.0006818168 -0.0006381138 0.00023207035 -0.004669523 0.0010773748 -0.00293565 0.0038946324 -0.00012747344 0.0047323806 0.00012759672 5.0570314e-05 0.0041341498 0.0048154946 0.0032870634 0.0005392553 -0.0030095407 0.0027988025 0.003010944 -0.0042532585 -0.0034878436 0.0034265772 -0.0012703921 -0.0046714954 0.0026898235 -0.0009467071 -0.0043562385 -0.003990584 0.003321045 -0.004241575 0.0036121616 -0.0012618308 0.001899217 6.283074e-05 0.00085875054 0.0029007196 -0.0004200198 0.002263952 -0.0031187949 -0.0001779424 -0.0033835487 0.00017010202 -0.0018498208 0.0038433336 -0.0025273704 0.003569103 0.0031874694 0.00092704425 -0.0014311352 0.0018681402 0.0020623044 -0.0013805985 0.00455457 -0.00017343475 0.003318854 0.0010017173 0.0007104823 -0.00032291052 0.0046176496 -0.004143314 0.0030124618 0.00049975136 0.0044183363 -0.0035830534 -0.004340314 0.0028501921 -0.0028637613 -0.0048848977 -0.0030985714 0.003270046 0.0019598922 0.003221235 0.0021384305 -0.0024278385 0.0030418385 -0.0024374414 -0.0013222869 -0.0017205902 0.0005392687 0.0019268837 -0.00468172 0.0019003869 
DTX3L	0.0008272192 -0.0008429442 -0.0013766319 0.0015656824 -0.0020648877 -0.0034802945 -0.0008842167 0.0033651763 -0.00052325515 0.0036813186 0.004975075 -0.0041173887 -0.0019476719 0.003671087 -0.00029486173 -0.0026546763 -0.00017380636 -0.0026504844 0.001753548 -0.0048875366 -0.0027965903 -0.002708268 0.0009361109 0.0013943189 0.0037589578 -0.00010005522 0.0022470579 -0.003959989 -0.0043094084 -0.00096090365 -0.002974827 -0.00416854 0.0043043066 -0.0007512583 0.00364034 0.0011065912 0.0037780465 0.0014491912 -0.0025589496 -0.0014124719 -0.0042387773 -0.0009817759 0.00010560593 -0.004520185 0.00070932496 -0.0025805493 -0.00071547244 0.0019349532 0.0016418236 -0.00034434276 0.0015114952 0.0019373063 -0.00070639397 -0.0043883314 0.0027174042 0.0035563537 -0.0023330406 0.002399251 -0.0034260966 -0.004144363 0.002866176 -0.0034010191 0.0010273437 0.0017741596 -0.002033995 0.0012669557 -0.0024198878 0.0010234653 -0.0002496767 0.0037268267 0.00062867283 0.0015894952 0.0027421508 -0.0003762093 0.0011589951 -0.0041909614 0.0009344038 0.0005389937 0.004280398 -0.0041685873 -0.003392035 0.00024020331 0.004408658 -0.0028568576 -0.0047661043 -0.0023305696 -0.0024603524 -0.0044507976 -0.0017922868 -0.0034800202 0.0045380294 0.004365146 -0.0049651354 0.0012594997 -4.1172785e-05 0.0041407 0.004343228 0.0035592183 -0.0028050882 -0.0037953488 
MDH1	-0.0027139687 0.0043876884 -0.0031641412 -0.002634022 -0.002424619 0.0046403212 -0.0016763489 -0.00021450958 -0.0034718197 0.0032008109 0.0015013942 0.0038287912 0.0013018738 -0.004564799 -0.0029640924 0.0016066106 -0.0025224078 0.000112122245 0.0025559976 -0.001260895 0.0006526596 0.004827347 0.0036818343 0.0007761095 -0.0033415465 0.003024374 -0.0037871378 -0.0027578906 0.0012747903 0.0014940129 0.00033184374 -0.003832667 -0.002862315 6.834243e-05 0.0049428996 0.0010293759 -0.0041958136 0.00013247754 -0.0029699975 7.953085e-05 0.002379388 0.00097200566 0.0009464369 -0.0025588397 0.0026173661 -0.0031446759 0.0043060645 -0.003065612 0.0010930052 0.00015749785 0.002580522 -0.0030634177 0.0019868747 -0.003997863 -0.004046818 0.004488264 -0.0019902594 0.0027937046 0.0015913199 -0.0014053134 -0.0047147907 -0.0023041714 0.002417394 -0.0018388897 -0.0041640643 -0.0029198849 -0.002178351 -0.0024179996 -0.0031258636 0.0020939754 -0.0022703297 0.0016987266 -0.0004757013 0.0019069738 -0.0022182942 -0.0043763574 0.0048878402 0.0031022953 -0.0040342393 0.0004249646 0.0021615843 0.0018824397 9.305384e-05 0.003948366 2.6085456e-05 0.0031255414 -0.0045706946 0.0016750577 -0.0039643086 -0.0008072954 0.00039402573 -0.00086414866 0.0033359225 0.003934639 0.0031850315 0.001812787 0.0006424402 -0.0017935409 -0.0017686739 0.0020149273 
CD24	-0.00071548694 -0.0035860538 0.00015051564 0.0040235836 0.0007009993 0.0027221076 -0.0037329514 -0.0045780097 0.0033984107 -0.0017271097 0.0029992752 0.0027366295 -0.0006730669 0.0031390623 -0.0042311265 0.0023764542 0.0014716994 0.002897951 -0.0004411618 -0.002228636 0.0018329874 0.0001184549 0.0031219642 -0.00426975 -0.003189995 -0.0022343688 0.000760445 0.0047164196 0.0043150703 0.002621935 0.0036116783 -0.00465433 -0.001003639 -0.0009088955 0.0010478318 -0.0034489306 -0.0024711874 9.270633e-06 0.0011324346 0.0032024996 0.0009877874 0.003750247 0.0001551652 -0.001066128 -0.004149789 -0.00368658 -0.0044969553 0.0027484 -0.0023831795 -0.00021815459 0.0029120424 0.004288931 0.0035522939 4.8894017e-06 -0.0013830587 0.001420286 0.00046967238 -0.0016712801 0.0021302733 0.003144715 -0.0035193826 -0.004254797 0.002893875 0.004631357 0.0011719302 0.0035701736 -0.0027015775 0.003700809 -0.003741673 -0.0024601475 -0.0028548571 0.004225011 -0.002247205 -0.0040252376 -8.1761544e-05 -0.001490131 -0.0012622131 -0.0023240144 0.0025720396 -0.0047053895 0.0042444193 -0.0035035086 -0.0025184928 0.0045591146 0.002294079 0.0009885833 0.0034151194 -0.0012397326 -0.0027149243 0.0013651606 -0.0035483707 0.00027437293 0.0031645023 0.0011235952 -0.0006979221 0.0035840466 0.003812941 -0.0015147666 -0.004783887 -0.0025803149 
OR4S1	-0.0034430695 0.0010037979 -0.003772534 0.00096932927 -0.004432524 0.00040629957 0.0011118394 -0.004243035 -0.0044139535 -0.0035075997 -0.00041398636 -0.0029955944 0.00056076184 0.0014814875 0.004845188 0.00183271 -0.0030834961 0.0021878204 0.0019019258 -0.0010039717 -0.002531227 0.0047193673 0.003604787 0.0035669531 0.003528224 0.003314284 0.00414376 0.0048179426 -0.002677259 0.0033633215 0.0036608013 0.0049525304 -0.0018991338 0.003941464 0.00369609 0.0034608121 0.0028269307 0.0014735822 0.00079858897 -0.0028655636 -0.004926462 -0.0028975261 -0.0029457642 -0.0023558147 0.0039394354 0.0034404455 -0.0012126369 -0.0024466824 -0.0017716445 -0.0028838576 0.0016614468 -0.00021280789 -0.0034036515 0.001993252 -0.0044788155 -0.0034577968 0.0029505151 -0.0006971288 -0.00022651402 0.004579436 -0.0010764385 0.0037504993 -0.0019054387 0.0031517735 -0.0046227816 0.0030482614 -0.004624278 -0.0024430554 0.0028361306 0.0039789523 0.00038420275 0.004603073 -0.0016146549 0.0028834608 -0.004485316 0.0038782351 0.002522916 0.0048550097 0.0011910459 0.0017031742 0.0040077674 -0.0017666906 5.421662e-05 0.0007137598 -0.004787446 0.0020584997 -0.0015664073 -0.0020445164 0.0034014408 -0.0014888647 0.0040088575 0.0016230962 -7.1822033e-06 0.002550651 0.0016911157 -0.0027336734 0.004325131 0.0023234442 -0.0036415537 -0.001200366 
HSPG2	-0.004837478 -0.001435039 -0.0010206085 -0.0029956214 -0.0005264315 0.00087261805 -0.004708445 -0.0021433542 -0.0044312216 0.0013224458 0.0042829523 -0.003545148 -0.0012462692 0.004353812 0.0014307344 -0.0038172053 0.0010117457 -0.0034980988 -0.0012205276 0.00093534426 0.0018680141 -0.00077271275 -0.0042799623 -0.0036066335 0.000982459 -0.0037942682 0.0020867144 0.0040419945 0.0037357716 -0.0022874617 -0.002525501 0.0026087528 0.0040413155 0.00432932 -0.0021033094 -0.00023136412 0.00097477174 -0.0031743476 0.0031847525 0.0043697567 -0.0026370285 -0.0013898977 0.002449835 -0.00050493726 -0.0046992577 0.0019749703 0.004739058 0.0005434194 0.0024469094 -0.004377763 0.00094086496 0.0024233342 -0.0017611274 -0.0041445442 0.0041883253 -0.004807035 -0.003557228 -0.0016527476 0.00017203687 0.0046825367 -0.00074397674 0.0022131372 0.00041690306 -0.0015028786 -0.003996827 -0.0023859718 -0.0039532343 -0.003319058 0.003405983 -0.00083195174 0.0042696088 0.0038541262 0.0018583668 0.0028021615 0.002547294 -0.0024433143 0.0030479555 0.0026233965 0.0044702333 -0.001987212 0.0002567357 0.002262638 -0.0028231484 0.0018161441 -0.00025765126 0.0035979345 0.0028522261 -0.0034353104 -0.0029718315 0.0013994975 0.0019749207 0.0024170342 0.0008129492 0.0023663526 0.0020646276 0.004589786 -0.0003137575 0.0022042762 0.00123565 -0.00351324 
PHLDA2	-0.0038975556 -0.00051363953 -0.0003736049 -0.004123462 0.0034926352 0.00044989205 -0.0045067878 0.0020868396 0.0011091633 0.0019606925 0.0020339158 -0.0030935493 -0.0015772464 -0.002810609 0.00073013024 0.00020815067 -0.0041632196 0.004730204 -0.002734722 0.0005422115 -0.0013378343 -0.0033937648 0.0040251445 -0.0023592326 -0.00044108706 -0.0043808715 -0.0041614133 -0.0002229216 0.0005051985 -0.00037086525 0.003611675 0.003928274 0.0006605222 -0.0013690413 0.0019336077 0.0027755625 -0.002878634 0.003403707 -0.0010207995 -0.0016790188 -0.00073253806 -0.0015780543 0.0037309104 0.00046945707 -0.0013357413 0.0040412406 -0.0017920573 0.00203198 -0.0036682107 0.00010750148 -0.0017163077 -0.004490034 0.004775097 0.003151554 0.0037015686 -0.0018102413 -0.004847197 -0.003610318 0.0026358862 -0.002996561 -0.0042625777 0.004331618 0.002817935 0.0040590535 0.004710717 0.0031104463 0.00092735107 0.0047425907 -0.000518647 0.001989305 0.004329855 -0.00092054997 -0.0001513002 -0.0032303957 -0.0015475496 -0.004376573 -0.0021810276 0.002050934 -0.0010091016 0.0006845823 -0.0033771286 0.004383026 -0.004835716 -0.0005856933 -0.0041879634 0.004200395 0.0014953454 -0.0028617044 0.0031731501 0.0035372896 -0.0034156083 -0.0047712345 0.0038567898 0.0019748663 -0.002935553 -0.0017648918 0.0033718557 0.0023007568 -0.00019642596 0.0030706218 
YARS	0.0008288112 -0.0018505168 -0.0049145566 -0.0032818632 -0.0033545697 0.001417357 0.0045184023 0.002945454 -0.00241549 -0.0028442189 -0.0013654479 -0.00150254 0.0023725568 0.0032635448 -0.00068340625 0.0025176504 0.0043260744 0.004729074 0.001645078 0.002654832 -0.0035531851 0.0009777034 -0.0018545734 -0.0038074807 0.0015882581 -0.0032746247 -0.0012160932 -0.0034061554 -0.00034630025 0.0018686852 0.0017774036 0.0022018945 -0.0047450378 -0.00013536101 -0.0047864793 0.0018678528 0.0023746921 -0.001294903 -0.0021607622 -0.00092111505 -0.0044769654 0.0023885213 0.004676548 -0.0014224717 -0.0004932659 0.0021161085 0.002946978 -0.0023075193 -0.0016895256 -0.0009209874 0.004186953 0.00077308895 -0.0037319197 -0.0006792811 0.004709379 -0.0033813084 0.0018185204 0.0011002596 -0.002896284 -0.0006884139 -0.00043339565 0.0026934226 -0.0014158644 -0.001305589 -0.002101041 -0.004234812 0.0044414634 0.0011020803 4.9902257e-05 -0.0042012553 -0.0035002283 2.8015384e-05 -0.0040142583 -0.0012661463 0.0008454272 0.0015774872 -0.00018495762 -0.0013142395 0.0010984502 0.0019463857 -0.0043034554 0.0019155538 0.003165099 -0.0043206564 -0.002884562 -0.0028336071 -0.003025248 -0.0029495629 0.0017519542 -0.0045870417 -1.8877341e-05 0.0034781583 -0.0011369 -0.00027309154 -3.063656e-05 -0.004796216 0.0030194432 -0.00095495244 0.004901703 0.0024452677 
DMD	-0.0035538715 0.004044535 -4.7852453e-05 -0.0033420876 -0.0012673491 -0.00028391732 -0.0014511874 -0.0021251284 -0.0049131033 0.002294285 -0.00061917485 -0.001612317 0.0026767855 -0.002314982 0.0025922982 -0.0024613114 -0.0008628716 0.0033626934 -0.0009092114 0.003977572 0.003744263 0.0049935733 0.0034324315 0.0017092524 0.0034066706 -0.003981764 -0.001142645 -0.004734697 -0.0035782119 -0.0028820594 -7.0433765e-05 -0.0019987694 -0.0021507011 -0.0040337853 -0.0032309706 -0.00081064284 -0.00016896987 0.0004035988 -0.0047395476 -0.00295737 -0.0016267527 0.0015917257 -0.0011772102 -0.00016643594 0.0031239458 -0.0007314948 -0.0007954876 -0.0018302478 -0.0010631224 0.0028390645 -0.0037199536 0.00254923 -0.004408072 -0.002048461 -0.0016318563 -0.0023693838 0.0021060733 -0.0008749649 -0.000151387 0.0045928485 0.0040724706 -0.0032937992 -0.001811782 0.0010213929 0.00031186917 0.00064228085 -0.0009155316 0.002231529 0.0028177085 0.0028032896 0.0032880853 -0.0041369908 -0.0025284889 0.0039853468 0.0044320235 -0.00033461687 0.0042230748 -0.0024337168 0.0026922273 0.0017972436 0.0018128022 -0.0007590173 -0.0037284794 0.0025270714 0.0010548137 -0.001713344 -0.003760579 -0.0042768205 -0.0038222193 -0.0031459723 0.004045502 0.0037243597 0.0014512745 -0.0030355393 0.0043037026 -0.004334187 0.003042164 0.0023895178 -0.00038532412 0.003849907 
NOL8	-0.0049652252 -0.0022532896 -0.0016693668 -0.004812527 0.0037068252 0.0023847541 0.0044312403 0.0021287024 0.0005018676 0.00048695726 -0.0030866724 0.004425741 -0.003741795 0.0029794362 -0.0001147568 0.0031799376 -0.0035086942 0.0018904873 -0.0035095355 0.004977504 0.0028563188 -0.0017214757 0.0017348194 0.0042133494 0.0034185855 0.0013807613 -0.0039462317 0.000740905 -0.003284145 0.0015693352 -0.004213769 0.0006689538 0.00038606467 0.0032487777 0.0003026848 0.0016157423 -0.0027676781 0.00057458447 0.0037513191 -0.0012300547 0.0010798859 0.0044025914 0.0015013264 0.000482085 -0.0024265782 0.0040900125 -0.0016894703 -0.004804536 0.0038814496 0.00084524363 0.00279866 0.0032477751 0.0007128146 0.0049731224 -0.0020334588 -0.003958819 0.0017420711 0.0018186158 -0.0027887463 0.0021975697 -0.0049529774 -0.0011100834 -0.001976085 0.004870598 -5.0664785e-05 0.0013039464 -0.00033966018 0.0018106236 -0.0033961232 -0.003336272 0.0014890169 0.0040834183 0.002511121 0.0015935093 0.0021947047 -0.002279409 -0.0040922095 0.0035714633 -0.0046590604 -0.003991475 0.004086324 -0.002257139 -0.00069002656 -0.004952617 0.0007324694 0.0009021661 0.0028141383 -0.0023156935 0.0036726708 0.004716024 0.0006039 0.0022364326 0.0017817949 0.0034884072 -0.004261554 0.0043779803 0.0018651739 0.002669246 -0.003647417 -0.0015499284 
CLEC10A	0.0019431864 -0.0034222105 0.0029091435 -0.0043994724 -0.0003273132 0.0005045562 -0.0020895049 0.0014001939 -0.0011155059 0.0046706535 -0.001828704 0.00083680387 0.004964545 -0.0015851754 -0.002611815 0.0045410586 -0.0009078133 0.0038430197 1.3889929e-05 0.00090665254 0.00113556 0.0016259629 -0.0016305393 0.004442719 -0.00070959737 0.003939473 -0.0035206839 -0.0019880629 0.00260215 -0.0016579087 2.4587698e-05 -0.0022815533 -0.0031914501 0.0025295694 0.00401772 -0.0037466416 0.0029958282 0.0020237123 -0.0048653726 -0.0033441102 -0.0047838488 0.0015858215 0.0022465554 0.0009404835 -0.004405664 -0.0026874247 0.0008332737 0.00086852524 0.00032930463 -0.0007579079 -0.0042124195 0.0028765097 0.00118653 0.0024962472 0.0029042033 0.0036988512 0.0014697564 0.0035652982 0.00063699874 0.0034345193 -0.004777373 -0.0013421058 -0.0032532623 -0.0017258747 0.0012651023 -0.0049612513 0.0033974263 0.0023194763 0.0022211282 0.0026704036 -0.0047910507 -0.00060959836 0.0013256676 -0.0026762825 -0.003261606 -3.0489987e-06 -9.4619325e-05 0.0032391998 0.003531866 0.004488149 0.00070678856 -0.0024960667 0.0031559928 -0.00079939706 0.0014440896 0.004929236 0.0035602935 -0.001345733 -0.003104573 0.0049378164 -0.0043823523 0.0024202026 0.003960976 0.004356848 -0.0016022729 0.0028584136 0.00073951454 0.0013748154 -0.0046612285 -0.0006410229 
HIST1H3C	-0.0039537726 -0.0014092937 0.0027944325 -0.0039454284 -0.003656266 0.0039905463 -0.0037131156 -0.0035653738 0.0009948836 -0.004479327 0.003221762 0.0030811722 0.004515097 -0.0040512322 -0.0012119194 0.0008969381 0.0038644972 -0.00092316675 0.0021202024 -0.002639438 0.003113861 0.0040264735 0.001288949 -0.0021158885 -0.0012198521 0.001320903 0.004210979 0.0016888265 0.0006064381 0.0024303207 0.0040097362 0.0032429153 -0.0018519019 -0.0039311084 -0.0022106858 0.0004109751 -0.00029380037 -0.0021939687 0.00250214 0.002882089 0.003701791 0.00034684324 0.001756424 -0.00014348923 0.002719125 -0.003581327 -0.0019794523 0.0013596268 -0.00097392214 -0.001005287 0.0020075883 -0.0043502473 0.0028165658 -0.00074602093 0.004327605 0.0032230956 -0.0015299909 0.004760497 -0.0033776285 0.004700219 0.00033437394 -0.0044446723 -0.0019616329 -0.0017694673 0.0048939986 0.0017201884 0.00050876685 -0.0037871664 0.0007418709 0.004949178 -0.0041552456 0.0004449245 0.0017044145 -0.0012335987 -0.0025466343 -0.0025065343 0.00027408617 0.0036276716 -0.0031322504 -0.003196725 0.002518192 0.0014981796 -0.004745034 -0.0027278063 -0.0036357814 0.0019909118 0.0019336566 0.0023049347 -0.0032587117 0.00038120538 -0.0014055922 0.0045147124 0.0047064517 0.0013976163 0.0044225603 0.0047675944 0.0035146596 -0.0026377104 0.0010479388 -0.0035154496 
SH2B1	0.0036701255 -0.0042895353 0.004287716 -0.0011152659 0.0010049221 0.0014756342 -0.0005101217 0.0033505894 0.0038656753 -0.004613764 -0.00054834073 -0.0035999692 -0.0044529415 0.0018346382 -0.0021827589 0.0017276936 -0.0017265789 -0.0013191217 -0.0045853867 -0.0023081072 -0.0042568217 0.0036101849 0.0011613822 0.0045285975 0.003523907 0.003152121 0.004285109 -0.0012628785 0.004437959 -0.0038730504 0.0017624054 0.004396958 0.002260293 0.0029959232 0.004349784 -0.002039988 0.0026708858 -0.0029167377 0.004373412 0.00090075674 0.0014674292 -0.00036123628 0.0021209745 0.00021125647 0.0034000352 -0.004613446 0.0019954282 0.002631967 0.00082902645 -0.0038942585 0.003461992 -0.0048066853 0.0043711145 0.0008085671 0.004695177 -0.00054748467 0.0021635366 0.0042479583 0.004340909 0.0005540909 0.0031280755 -0.004332765 0.0035784908 -0.0018979242 -0.0016052943 0.0013464191 -0.0026732006 0.0033394236 0.0035810242 -0.0010301638 -0.00047829145 0.0018269855 -0.0036000232 -0.001776914 -0.00068917294 -0.0045897583 0.0046242103 0.004143607 0.0034929279 0.00089050055 0.0032143476 -0.0036851282 -0.002889112 0.00020296984 -0.0038144523 0.00047551785 -0.0037370028 0.003460574 -0.0044292808 0.00092810276 0.0036953748 0.0044180746 0.004314154 -0.001240186 0.001866087 0.0013493774 -0.0014460403 0.0018785116 0.002551356 -0.0034466933 
IGFBP7	0.002705599 0.0023723945 -0.0028132682 -0.0043467544 -0.001360935 -0.003391648 0.0029477351 -0.0014136916 0.0032510054 0.004456846 -0.0010959553 -0.0043383217 -0.00061478146 0.0036018032 0.0013288318 0.0037949092 0.0021087888 0.0018579836 -0.0014007166 0.003953432 0.0024838138 0.0028949557 0.0030298012 0.0045899083 -0.0019625274 -0.0011024178 -0.0035652432 0.003162666 -0.0009896674 -0.0028351808 -0.0036775072 -0.0015707123 0.00088193454 -0.0043112077 -0.00010089825 0.0030245464 -0.0040295576 0.0014061388 -0.0047369413 0.0030329237 0.0011213636 0.001692599 -0.0018421515 -0.0028865198 -0.0019109292 0.0016875552 0.002919661 -8.503809e-06 0.0005329114 0.00023509207 -0.004932665 0.0024973466 0.0008939465 0.003939994 0.0038096728 -0.0027016683 0.0047440757 -0.0032072843 0.00017566633 -0.0009396744 -0.0048413076 -0.00025276362 -0.001569107 -0.0009114292 -0.0005952258 -0.0033200905 -0.00061300606 0.0002135609 -0.0010202166 0.0029850153 0.002004405 -0.0027139504 -0.0047944733 -0.000852647 -0.0048141843 -0.0022846758 0.00083701516 0.001874883 0.0025459188 -0.0044239396 -0.0026774008 0.004434787 -0.0019538472 -0.00223843 0.0036267645 -0.0037730609 -0.0001043849 -0.0016050619 0.0015080547 8.783853e-06 -0.0049534524 -0.0047880528 0.0028232536 -0.0025394065 -0.0020866748 0.0011667366 0.00016357713 -0.004041467 -0.003976549 0.0019936662 
PDSS1	-0.004471186 -0.0031992975 0.0026700662 0.0029962745 -0.0029022722 0.0025409523 -0.0045538153 0.003923568 0.0036961106 0.004346135 -0.0010203557 -0.0026668971 -0.003943586 -0.0031168757 -0.0042718397 0.0023854664 -0.0049237125 0.0011164199 -0.0010671266 0.0039029212 -0.0019290952 -0.0011913228 0.0024979827 0.0027812857 -0.002973761 -0.0011381353 0.004608172 -0.00030328217 -0.0040856376 -0.0022903827 0.0014884748 0.004845728 0.0016312775 -0.0011515594 0.0012756602 0.004385677 -0.0032964386 0.004484813 0.0039796564 0.0013056694 -0.00375786 0.00204508 -0.001612121 0.0025578325 -0.0024069203 -0.0029953683 -0.0039301924 -0.0013392867 -0.0010278267 0.0033613015 -0.0022544744 -0.00408403 0.0007437102 -0.0013367512 -0.0039771977 0.0014646276 -0.0046049105 -0.0035429285 0.002523075 0.0015336574 -0.0028324374 -0.00012954173 -0.00011436503 0.0033693966 0.0005320393 -0.0012477309 -0.0019397984 0.0031945358 0.001689157 0.0025608845 -0.0014580598 -0.0046648467 0.0037446262 0.001755022 -0.004224958 -0.0018550992 0.003448966 -0.003208132 0.004316834 -0.0036016735 0.004184281 0.003424969 0.00021153742 0.0031756563 0.00141264 0.00029491118 0.0008427954 -0.00028945017 0.002308901 -0.0039864387 -0.0026740553 -0.00094168907 -0.0018649705 0.0027478097 -0.00039679793 -0.002891458 -0.0024888199 0.0012752287 0.0022252153 0.003448862 
CSNK1G1	0.0035537656 -0.0020633708 -0.002340358 0.0015796553 0.0031801583 0.0020487092 -0.0027386157 -0.000118620126 -0.0045084837 0.004943273 0.0045436854 0.0008894314 0.0029131104 0.00064068387 0.00067714974 0.003910858 -0.001958177 0.004774513 -0.004020984 0.0031518685 0.003535812 0.004400856 0.0014697249 0.0021783523 0.001143128 0.0014884099 0.002476132 0.0010065319 -0.0025724967 0.0018561122 0.00047668262 -0.004497174 -0.0007310515 0.001962463 -0.004277256 0.0048687197 0.0020387399 0.0045906007 -0.0038615398 -0.004478591 -0.004236266 -0.0007806485 -0.003157436 0.00039833316 0.0020155308 -0.0037863504 0.0011189835 -0.0018821137 0.0015140077 0.0017930358 -0.0020109261 -0.0010027714 -0.0043225377 -0.0012638202 0.0023913353 0.0046938118 -0.00046057106 0.0023831571 -0.0031235174 -0.003378938 0.0015099206 -0.0014428111 -0.0021432263 -0.0026207278 0.003716152 -0.0030431575 0.0020320385 0.0031394486 -0.000373335 0.0018789696 -0.0025987327 0.003460109 0.0042867744 -0.004001111 0.002479089 -0.0008020947 -0.002360618 0.001727153 0.0028658018 0.0027950613 -0.0009286201 -0.0027531378 0.001571812 -0.0049361046 0.00038667046 -0.0035403639 0.0011316995 -0.0039332216 0.0013315736 -0.0010977163 0.0019290046 -0.0010174364 -0.004375852 0.0040639266 -0.0022504013 -0.003520163 -0.0015628766 -0.0023900238 -0.001966562 0.0009995439 
MAS1	0.0049826195 -0.00069154263 -0.001138085 -0.004443192 0.001486877 0.00092021504 -0.00096501823 0.002687968 0.0040921113 -0.0035574317 0.0043972125 0.0025656521 -0.00022564204 0.0029265655 -0.004496627 0.0030676175 0.0024276206 0.0018573393 0.0040089027 0.0037048443 -0.0031601689 -0.0028992565 -0.0021237752 -0.0044771484 0.002135534 0.0036681013 1.702513e-05 -0.0039087143 -0.003285999 -0.0047871256 0.0006099841 -0.004323092 0.0011131495 -0.0047041285 0.00019001972 -0.0026972548 -0.0034745391 -0.00032953869 -0.00088120345 0.0010773485 -0.0007679416 0.0033853576 -0.0018105314 0.004364099 0.0049450425 -0.0040837526 -0.0007364652 -0.00065222534 0.0033611902 -0.0010655127 -0.0024492913 -0.0004134433 0.0026979782 0.003910099 -0.0028648945 -0.003722764 0.00037422698 0.0048118555 -0.0032576397 -0.0014776816 0.0032371462 -0.0037388534 0.0004516023 -0.0027155296 -0.00066391734 0.0018164451 0.0025550367 0.0006172965 0.0025895515 -0.003432495 -0.004485443 0.0032024344 0.004942366 0.0042751166 0.00093561015 -0.0014693327 -0.0032379844 -0.00442168 0.003245587 0.000100372155 -0.00047939326 0.002947186 0.0006302644 -0.0009384937 7.594705e-05 -0.002545151 0.0047060726 -0.0045422446 -0.004439198 -0.0013614509 -0.00044246577 0.004879243 -0.00459343 -0.0036082044 0.0019971742 0.002886937 -0.0022455151 -0.004532261 -0.00077743665 0.003896847 
PTGFR	-0.0008630032 0.00015827424 0.00083800836 -0.0020280113 0.0002719125 0.0026935956 -0.002749176 0.00032270892 0.0033069171 0.0048667793 0.0032341143 -0.0004347101 -0.0048319628 0.0007503836 -0.004278562 0.001645996 0.0031064497 0.0017813545 -0.001170111 -0.003249846 0.0020640574 0.0027077596 -0.00056089595 -0.0036437 -0.0044364827 -0.0041624745 -0.0047257314 0.0034452202 -0.0019732611 0.0021037648 0.0030520668 -0.003457689 -0.004566343 0.000431549 0.00244405 -0.0003230664 -0.0024997434 0.0001562075 -0.003679502 0.0005301388 -0.0030772334 0.004083166 0.004801485 0.0013816709 -0.0037370939 0.0018523049 -0.00069401786 0.0021990673 0.001958839 0.0031460575 0.002452151 0.0033299138 0.002797025 -0.0010199951 -0.004201012 -0.0041178237 -0.0007210759 -0.0036431795 0.00122449 -0.0032895098 -0.0026807194 -0.0029986757 0.0005918864 2.2699278e-05 -0.004354984 -0.0048569674 -0.003534131 0.0017743616 -0.0009246647 0.0025737146 -0.0049055973 -0.0040225955 0.001049966 0.0005633572 -0.0012383108 0.0030986222 -0.0033748916 -0.0023975356 -0.0038221995 0.0033065882 -0.0019425693 0.0035599116 -0.002691478 -0.003838174 0.00097017444 -0.00083492784 0.0029933953 0.0026456537 -0.0016680496 0.004838972 0.0003606183 0.0034151992 -0.001864191 0.0032956349 -0.0048235715 0.004314297 -0.0033432252 3.8865824e-06 -0.002275591 0.0007630902 
NRBP2	-0.0019878382 0.00089531066 0.003029635 0.0019219393 0.0015749228 0.0037904375 0.00023299204 0.0035679198 0.0047580623 0.000427857 0.002112239 -0.0010582668 0.0013312137 -0.003992261 -0.004521871 -0.003952662 0.0017426818 -0.0038133794 0.0024013007 -0.0021137781 -0.00033953774 0.0010542105 -0.0037417593 0.0032997888 0.0027776745 -0.0002784258 -0.0012596328 0.0014273116 -0.002406299 -0.003566603 0.0017680348 0.0035945936 0.003071333 0.0047302716 0.00023733787 -0.00031334063 0.0023967233 0.0024306176 -0.0042881854 0.0028111637 0.0016496892 -0.0030752996 0.002299161 -0.0036710186 0.0017719665 -0.004354783 -0.003125279 -0.0018404362 0.000552421 0.0036908218 0.0046765646 0.002516374 0.0029633387 0.0019297027 -0.0047240783 0.0018177915 0.00093752705 -0.001793234 7.149568e-05 0.004696526 0.00038471125 -0.0012227792 0.00041617587 -0.0037810213 0.0008936513 -0.0032136212 -0.0044366396 0.0034462425 -0.003979008 -0.0038712726 -0.004335828 0.004592198 -0.004927023 -0.0025827684 -9.9831224e-05 -0.0011573115 -0.0037185063 -0.0025474613 -0.0032761001 -0.0027879549 -0.0049407547 -0.003366118 0.002477076 -0.0040831896 -0.0012341535 -0.0008094284 0.0034344764 0.0031427748 0.0005077388 -0.0028257668 0.003803517 -0.00473856 -0.0040307585 0.00079204614 -0.004707837 0.000775807 -0.00075628195 -0.0013303813 -0.004807834 -0.004895847 
