CD2AP	0.004656731 0.0032102054 0.00030156464 0.000950997 0.00013112508 0.0007471282 -0.00070328923 -0.002321807 -0.0021734368 -0.0049689654 -0.0015807579 -0.004733975 0.004194011 -0.004464774 -0.0038798784 0.002436664 0.0031772626 0.0020075515 -0.0038987966 0.004965524 0.0042376867 -0.002115478 -0.0015042381 0.0046615424 0.0034778998 0.0023284773 0.0005596942 0.0025075923 -0.0039248927 -0.0012262828 -0.0009596519 0.0013510472 -0.003761752 0.002518052 0.0036910195 0.0021619415 0.0027582843 0.0042170994 0.0014616236 -0.00409517 -0.0038446232 -0.0030316461 -0.0011913155 -0.0037909853 -0.0028850026 -0.004472703 -0.0005356222 -0.00065441005 -0.0018637567 0.00090234424 -0.0004975176 -0.0031571174 0.0015312965 0.0014634217 0.0012665071 0.00074806594 -0.0015229449 0.0010497052 -0.0040367222 0.002946272 -0.0015886568 -0.0016583741 0.0014775948 -0.0030953407 0.0033048086 0.0012742721 0.0037908677 0.0018330273 0.0026837392 0.00067890354 0.003957781 0.0033101575 -0.0022444457 -0.001062225 0.0020843064 0.0031012078 -0.0021361832 0.0045829983 -0.0039697546 0.0019279056 -0.00086619216 -0.0015963833 0.0037551739 -0.0043593254 0.004270387 -0.001662818 0.00025354774 0.0039380942 -0.0043995203 -0.004127981 2.2241135e-05 0.0036068845 -0.0047675064 -0.002734915 -0.004861045 -0.0015235889 -0.00077632844 -0.0005723198 -0.0042006643 -0.0013104872 
DHODH	0.003958217 -0.002891127 0.0011598681 0.00023796516 -0.0015622404 0.0002952554 -0.0011494766 -0.002332978 0.0012507237 -0.004205463 -0.0037491352 0.0039576 0.00022395044 0.0031448419 0.003664295 0.0034421692 0.0035113269 -0.004224578 -0.0038759287 -0.004277374 -0.0016222788 -0.002519577 0.004477481 0.0038586063 -0.0008235226 -0.0009412388 -0.00390766 -0.0032009194 -0.0001415164 -0.0038321784 -0.004392057 -0.0038007107 0.002515525 -0.0046130293 -0.0025945522 0.0036697357 -0.0025996119 -0.0024228427 2.78737e-05 -0.0012651079 -0.0038586778 0.0009916535 -0.002933102 -0.0014299237 0.0040732794 0.0035864646 -0.0019146664 -0.004862566 -0.0026596729 0.0017522133 0.0048861844 -0.0046272394 0.004066465 0.00073855824 0.0045798966 -0.0026887832 -0.00064921187 -0.0040845773 -0.00084496336 0.0010110183 -0.00052386394 0.0013823973 0.0033389449 -0.002077144 0.004632256 0.0035618138 -0.004125374 -0.0022492525 0.001475262 -0.0016943517 -0.0010404498 -0.0031336336 0.0040526963 0.00021042336 0.0016815044 -0.00073963485 -0.0014335163 -0.004621901 -0.001908335 -0.0022237545 -0.0031340963 -0.00041845703 -0.0036112107 0.0027592797 -0.0019230511 0.0028663983 0.0047688955 -0.002547236 -0.0025063935 0.0024144507 0.0020098488 0.0033557112 -0.00037504119 -0.00346299 0.0047725807 -0.0017905316 -0.00038438922 0.003432658 -0.0036415858 0.003778118 
NMS	-0.0040600733 -0.0038171213 0.0047956184 0.0016653246 0.003529747 -0.00285088 -0.0001900163 -0.003806241 -0.0028718752 -0.0045003216 0.0029249836 0.0036758548 0.0013102243 -0.0017645328 -0.0016330415 0.0020349175 0.0011168094 -0.0025988994 -0.004909454 -0.0017043888 0.003998994 -0.002540061 -0.00257129 0.0039742836 2.1455207e-05 -0.00057689275 0.00051301834 -0.004880264 -0.0018831019 0.00080514274 0.0025531722 0.0014463406 -0.0026402876 -0.0023593735 0.00012348441 -0.0019574885 0.0022062932 0.00065417873 0.0047578476 -0.002738017 0.0015910317 -0.0038614087 0.0045919577 0.0021029674 -0.0003861149 0.0046011982 0.00037440102 -0.00086904893 0.004909478 -0.0024634567 0.0049990043 0.003732774 -0.0016272104 0.0006451916 0.0006960747 -0.002725353 0.002418503 -6.969622e-05 0.0040594474 -0.0026284442 -0.0010105133 0.00010778574 0.0043563303 -0.0038340373 0.0036289766 0.0019178062 -0.0025246204 0.0036338032 -0.0028512655 0.00033934784 -0.0033683477 0.0009448358 0.0035028982 -0.0029140916 -0.0038682695 3.6672012e-05 -0.0046114144 -0.00477085 -0.004546967 0.0028517132 0.00092855137 0.0020641098 0.002366907 0.0036680608 -0.0031829386 -0.0031150249 0.00019047123 -0.0021823812 0.0020503618 -0.0018020574 0.0024961426 -0.0007543475 -0.0038158777 0.001958522 -0.0030660082 0.004087059 -0.0045300378 0.0042181974 0.00467908 0.0008431217 
ZDHHC22	-0.0032465223 -0.0022145896 -0.0040417416 0.0037861497 -0.0018491927 -0.0010326789 0.00025237782 -0.0014116009 -0.0011953316 -0.004741446 0.0044666827 0.004096262 0.0026672294 0.0035249535 -0.004121877 0.0047787754 -0.0011512933 -0.0018947537 0.00020782906 0.0033181733 0.0031377093 -0.0028425374 -0.001737475 -0.0033251054 -0.0015376204 -8.02815e-05 -0.004055771 0.0038510268 -0.0031269498 0.0034706218 -0.00016093369 -0.0034185268 0.0034923789 -0.0028984537 0.0013193097 -0.0041251043 0.0029254567 -0.0012339018 -0.001203367 0.0043075974 -0.0022686818 -0.001496173 -0.004717262 0.00042808586 0.003270933 0.00052604027 0.0036982407 -0.0042944336 0.0034022261 0.0038628292 0.0033136243 -0.001658864 -0.0030603746 -0.0017251759 -0.0039242906 0.0032246849 -0.0026253795 0.00064625207 -0.0028831877 -0.0009001414 0.0010316112 -0.0012732827 -0.002395907 0.004600066 0.0008943606 -0.00025167878 -0.0020548461 0.0020628916 0.0007105854 0.0028074216 -0.0024305668 0.0024699045 -0.0015576544 0.0038211818 0.0024592187 -0.0032964635 0.0041607246 0.004422513 0.0009685459 -0.0019441494 0.0037621607 -0.0017064015 0.002047856 -0.002983646 0.0031680088 0.0035836978 -0.0007800495 -0.000132572 0.0029887317 -0.0028563628 -0.0023609158 -0.0017283534 0.0038708795 -0.002590476 0.0021160056 -0.0044139335 -0.00025017263 -0.0016476153 0.003998896 0.003463763 
NCR3	0.0036673117 0.0037208383 -0.0027771092 0.0005168693 0.0031797506 -0.004202428 -0.0014282924 -0.0031882906 0.003388364 -0.0015367701 0.0034420383 0.0013722202 0.0022295264 0.00390423 0.00029984815 0.0021435504 -0.0023234303 0.0036332658 -0.0014425869 0.0035020323 -0.0027436242 -0.003887894 0.00017300899 -0.0025777763 -0.0042471536 -0.0049463185 -0.00034966366 -0.004742942 -0.0034632005 -0.00010275487 -0.0022673937 -0.000963375 -0.0039392593 -0.0005095515 -0.00074983883 -0.0023288014 0.0025087425 0.002156648 -0.003664278 -0.002411452 -0.004964758 -0.0049834074 -0.001615561 0.002159337 -0.0013782699 -0.0042885332 -0.001075647 -0.0045132237 0.0037088622 0.0037449033 0.00011327319 0.0018063684 -0.0010795349 0.002624635 -0.0028960067 0.003581332 -0.0025930558 0.0006455153 0.00094460044 0.0037243473 -0.003551432 0.0018821681 0.0016885 -0.0013388057 0.0013959092 0.0024645722 0.0049953666 0.0029899948 -0.0031820263 -0.0047086347 -0.0021340048 -1.1756551e-05 -0.0020458554 -0.004246914 -0.0017666491 0.0019720588 0.00432901 0.0010408579 0.0025084831 -0.003858153 0.0007588911 0.00070239336 -0.0032021108 0.0020626287 0.0042437618 0.00042418274 -0.0037066243 0.0042275037 0.0022402662 -0.0016353895 -0.004075275 0.0031239102 0.003775543 -0.003917721 0.0040075346 0.0043362123 0.0020175993 -0.001293093 0.0017628102 0.00023643079 
DARS	-0.0020272492 0.0048469617 -0.004671623 -0.004015432 -0.002418089 -0.0004459861 0.0004815284 0.0012762642 0.0033590524 0.00324121 -0.0038530182 -0.004566652 -0.0028752051 -0.0012955688 -0.004737362 0.002389148 0.0046048774 0.0004347978 0.00027551546 0.00042377875 -0.004151058 -0.0026388047 -0.0030957176 0.0033576386 -0.002836582 -0.0018598011 0.0047049937 -0.0043774866 0.0007282255 -0.0011087399 -0.00022628835 0.0022108012 -0.0020165537 -0.00020988077 -0.00020132695 -0.0048379106 -0.00022392134 -0.0014949713 0.0049883747 -0.003060053 0.0033697085 0.0025426396 0.0025456871 -0.0040436215 0.0049171853 0.0021458655 -0.0018360493 -0.0030050047 0.0037952736 0.0041384534 0.0016036729 0.0011789658 0.002148086 0.0018751342 0.0015592996 0.0035501174 -0.0020993685 0.0028342155 0.0048221466 0.0042728493 0.002461895 -0.003364648 -0.0032063143 -0.0018594783 -0.00079444406 -0.0027903882 -0.0045552417 -0.0011935172 -0.0036851226 8.834548e-05 0.0022373737 0.0006760587 0.0022696422 0.0019558962 0.0022261175 0.0014269559 0.004597981 -0.004602876 -0.0049362085 0.000650938 -0.00038112627 -0.0041634105 -0.0032888544 -0.0043137837 -0.0042206203 0.0029188301 4.0767674e-05 -0.0007386302 0.00034216343 0.00030115133 0.0014055232 0.001644756 -0.0023907737 0.0012472317 0.0010771888 0.00334881 0.0033854179 -0.003960701 -0.0036763698 0.0045763296 
MLLT1	-0.0019135827 -0.0012387282 -0.0014072802 -0.002114501 0.0047539873 -0.0005525095 0.0008057642 -0.0013480709 -0.0041646766 -0.00018800437 -0.0033586002 -6.612813e-05 0.0027653205 0.001509912 -0.0032394077 0.0012502011 -0.004038883 -0.00014767819 -0.0041687014 0.003377031 0.0041585043 0.0015649729 0.00065066904 0.0033539317 -0.0034390325 0.0049018585 -0.004839994 0.00044051604 -0.0028814971 -0.0042012474 -0.003487475 -0.003836638 0.003378349 -0.0031834855 0.003986278 0.0024395264 -0.003890583 0.003429569 0.0018933438 0.0046896436 -0.0035448843 -0.0036831305 -0.0010124187 -0.0012988832 0.0028682738 0.004107454 -0.0036519512 -0.0020951773 0.0018009463 0.002283552 0.0013523567 -0.002464834 -0.0007781144 -0.0036858295 -0.0002592565 -0.0034244293 0.0023025337 0.0013072176 0.0044633686 -0.0014528066 -0.0016594223 -0.0021917066 -0.004409077 0.0010445925 -0.0043603266 0.004760507 -0.0030638105 -0.004548892 -0.0003856666 7.824442e-05 -0.0025764192 0.00053180195 -0.003998358 0.0029028093 -0.0044526225 0.0009080312 0.0042751017 0.004634943 -0.0010547051 0.003079633 -0.0010630823 0.004589237 0.00016104181 0.0016323385 0.0005104956 -0.0012284875 0.0011304662 0.0009992277 -0.0046654725 0.004658231 0.0016391174 0.0041110744 -0.0027400611 -0.0009334813 -0.0030188505 -0.004798183 0.0023751906 -0.0007158984 -0.00093950995 -0.0017120404 
ETV7	0.0038651072 -0.004136065 -0.0036297496 -0.002616105 -0.0024535623 0.0018665402 0.0032643143 -0.0048511326 -0.0034951787 0.00084485475 -0.0002280223 -0.0012995324 -0.003754004 -0.003436903 0.0023834913 -0.004371649 -0.0032017173 -0.0032997406 0.0036810208 -0.0026118504 -0.002512633 0.00050882605 0.003711 -0.0035617808 0.0014887007 -0.00067696476 0.002288599 0.0017696269 0.0035941168 -0.0005598953 -0.0007260432 -0.0015534007 0.0011702356 0.0009101801 0.0022207948 -0.003193831 -0.0026502705 -0.0025339716 0.0036523738 -0.0015221803 0.0038703275 0.0036866555 0.0017115809 0.0011594571 -0.0014160593 0.0041253855 0.0025272872 -0.0012229211 -0.00052047544 0.0002728477 0.00087988476 -0.0028913375 -0.0028051515 0.0032246609 0.0017232631 -0.003506415 -0.0026428897 -0.0027618522 -0.0021744005 0.001691615 0.0049818614 -0.0023961172 -0.0003760221 -0.0010300482 0.0005708751 -0.0020346488 -0.0046844436 0.0027652753 -0.0011150425 -0.0033446134 0.0020538846 0.0027324136 0.0011346776 -0.0017901395 -0.004435963 0.0022839322 0.0039495537 -0.004519134 0.0010859976 0.002896828 -0.0030973875 0.0043145204 0.004075487 -0.004708333 0.0025627157 -0.0006146302 -0.004817543 0.004671572 -0.0018551355 -0.0037050548 0.004161508 0.004867692 0.0037241315 0.0034564976 0.0004492964 -0.00061944773 0.003132031 0.002875926 -0.00205089 -0.00296195 
EID2	-9.60904e-05 -0.00425188 0.0038740742 0.004321754 -0.001159021 0.0041896226 9.413706e-05 -0.0034808207 0.0005145756 -0.001681269 -0.0032022959 0.0036727455 -0.0015740283 0.003382109 0.002493712 0.0046221297 0.0012569501 -0.0037017993 -0.004185642 -0.002334847 0.0021080335 0.004033919 -0.0008989912 -0.003394137 0.004449664 -0.002027533 -0.0034310825 0.0036477158 0.0038367445 0.002199214 0.0036304093 0.0024268292 0.0027257956 0.0017299734 -0.0011325602 -0.004535672 -0.0033703288 0.0018726104 -0.002896263 0.00038662762 -0.0021538176 0.0030981593 -0.00092437596 0.002564314 0.0040088864 -0.0011400848 -0.0013906568 0.0040989555 -0.0032876222 0.0004186908 -0.00413458 0.0008767656 0.0004847163 -0.0012356346 0.003917802 -0.0018325952 -0.0027918955 -0.0002085383 -0.0043651527 0.0032068125 7.8036144e-05 0.0025489673 -0.0005694696 0.0026950033 0.0033869133 0.00322087 0.0021013755 0.0017784501 -0.0013490095 0.000512014 -0.0015041004 -0.0040087667 0.0013688004 0.0012277552 0.0048711495 -0.003186109 -0.0012302705 0.00041714392 -0.002606558 -0.004783376 0.0007377398 0.0037727582 0.0013011151 0.00051346846 -0.0010221478 0.004450046 0.0021958556 0.004250511 -0.0038119894 -0.0049049454 2.949373e-05 0.0049104085 -0.0030268296 -0.0037917786 -2.5418536e-05 -0.00499135 0.0034171098 -0.0011884645 -0.00065825623 0.003972762 
GCLC	0.000742786 0.00053179724 -0.00438329 0.0038112318 -0.003030401 -0.000154172 -0.0020632818 -0.0027294247 0.0017030422 -0.0016979056 0.0023010685 -0.000503203 -0.0038858952 0.00128073 0.0028373862 0.00042571485 -0.0026880652 0.002323503 -0.00029990126 0.001192025 -0.003993323 0.0036736105 0.00040936947 0.004924862 0.004831996 0.0040707877 -0.0037863962 -0.0002758065 -0.0009728882 -0.0030860186 -0.0002753542 0.0027497348 -0.0026166935 0.0010837198 -0.0048690415 -0.0020145366 -0.0041344776 0.0036372181 0.0033297972 0.0037401454 -0.0037875534 0.0018162153 -9.2531045e-06 0.0007131974 -0.00086904754 -0.0041249804 0.0022460143 -0.0025401455 -0.004782059 -0.0019779506 0.0010206966 0.0033133284 0.0030017456 0.0010347805 0.00051839504 3.5418536e-05 -0.0049108365 0.0006329721 0.0023719054 -0.0039331825 0.003200698 0.0047681043 -0.0045483275 0.0047814664 -0.00014619778 -0.0009936885 -0.0039885393 0.0033525499 -0.00468911 -0.004295132 0.0009215258 0.0011799566 -0.004900646 -0.0031162372 0.00478928 0.001832203 0.003185096 -0.000115916475 -0.0046673003 -0.0043155104 0.0043107267 -0.00023585434 0.0047414326 0.0026070743 0.0005382063 0.0019633274 -0.0024782035 -0.0046408293 -0.003749609 0.002787398 0.0021251019 0.0033332577 -0.0025013834 -0.002102244 -0.004754551 -0.002191151 0.0017072305 0.0006863026 -0.0027377405 -0.0038602191 
NAA35	-0.00086924864 -0.00076067663 2.4423036e-05 0.0016940914 0.003578798 0.0018182825 -0.004061536 0.003681632 0.0013902966 0.0007400067 0.0022116017 -0.0019984285 0.00459942 0.004053135 0.0033189964 0.0039057317 0.0016284145 -0.00014747214 0.0015620016 0.0043448284 0.003838613 -0.00015335275 0.00087405305 -0.0018860113 0.0010282549 0.0048381784 0.0011341912 0.0016769439 -0.0023942092 0.0021361178 0.0031775513 0.0034810521 0.0031990565 -0.004995825 -0.0013284956 0.0014886262 -0.00460562 0.0015380133 -0.0021714824 -0.00058515655 -0.0049307314 -0.0048082834 -0.00057709654 -0.003906376 0.0017731553 0.0047628987 -0.0010659941 -0.0006325657 -0.00012459366 0.0038063596 0.0012095731 -0.0012550227 -0.00012257142 -0.0016151908 -0.00015552343 0.0018919896 -0.003712365 -0.004421287 0.00013545234 0.0015539713 -0.0049128328 -0.0034647207 0.00046147296 0.0022194304 0.0020025007 -0.0014763292 0.003158619 -0.0014179162 -0.004741089 0.0022644962 -0.0045693167 0.0035002686 -0.0007906309 -0.000657409 0.004865564 -0.002741881 0.0040615997 -0.0022502467 0.004342157 0.0039479015 -0.0032808213 -0.0028581212 -0.0025195046 -0.0045550214 0.004185751 0.0041412693 0.0006428642 0.0022314193 -0.003587674 -0.0022742422 -0.0030737005 0.0012928229 -0.002913359 -0.0004245859 -0.0023304063 0.0042782803 -0.00077755976 -0.004080047 0.0036306456 0.0015968255 
HEY1	-0.0031013452 -0.0026087107 0.001638138 0.00053968374 0.0010248502 -0.002687447 -0.0015482947 -0.002472276 0.00012583406 -0.0027786724 -0.002254491 -0.0040279017 0.0036807319 0.0045725917 0.00039368786 -0.00044587994 -0.0048075854 -0.0040085153 0.003223701 0.0007370572 0.0029459374 -0.0027335302 0.003339753 0.003739172 0.0024080002 0.00072785735 -0.0022299523 -0.0013821212 -0.001726717 0.0037397346 0.00088471314 -0.0014847899 0.004307557 -0.004517099 -0.0009410005 0.004776841 0.003268705 0.0015159108 0.0042456966 0.003385655 0.00028866113 -2.3882529e-05 -0.003749886 -0.00017587097 0.0018897384 -0.002900651 0.0012773859 0.00093437417 -0.0038987314 -0.0032765004 -0.0026614454 -0.0048302165 -0.0015403839 0.0014638301 0.0046788054 -0.004462909 0.0009735526 -0.002749691 -0.004450017 -0.0033976475 0.00071802817 -0.001834428 0.0021806727 0.0016140917 -0.0003549048 -0.0001670551 -0.0018396147 -0.0029167766 -0.0013863472 -0.004633401 0.0038304022 -0.002495263 -0.0028452757 0.0013066094 0.0017954248 0.00037419458 0.004160301 -0.0032636228 0.002786019 0.0019111979 0.00079831056 0.0018368125 -4.953099e-05 0.0033398801 -0.0027768856 0.004927021 0.0003186614 0.0011406624 -0.004202212 0.0030106516 -0.0039989883 -0.0026653134 -0.004151368 -0.001315762 0.0038290161 -0.0049596005 0.0020323952 0.0029942868 -0.0020489641 0.0049432544 
PEMT	0.0014581683 0.0036700468 -0.00264641 -0.003862916 -0.0008313733 0.00041890214 0.0008296793 0.003617268 0.002029299 -0.0003686777 -0.001339691 -0.003979054 0.0018670425 -0.00011413836 0.004310327 0.0043974975 -0.0038213106 0.0021756643 -0.004963234 0.00350348 -0.0032533198 0.0033707805 0.0021139819 -0.00036117938 -0.0033230276 -0.0019919965 -0.0038545295 0.0025795675 0.0029845221 -0.0027916818 -0.0023971342 -0.004986431 -0.0030263853 0.0020862469 0.0031230433 -0.0034313737 -0.0025352642 -0.0011342084 0.004695499 -0.0047284486 0.002184394 0.0036082473 -3.9349055e-05 0.0044664093 0.0012903458 -0.0033623714 -0.0003431471 0.004794493 0.00026658658 -0.0035016343 -0.0024335552 -0.0020090973 0.0036909068 -0.002887452 0.0013853778 -0.0045743757 0.0047662575 -0.0009367045 0.004069617 0.0034734665 0.0037332196 0.0034305353 -0.00028911888 0.0012355534 0.0027673147 -0.0023380313 -0.0003627064 0.0020431492 0.004361014 -0.0013502266 0.004101718 0.0007624561 -0.0009657938 0.0009890064 -0.0014792923 0.003164894 0.002893934 0.0045574163 0.0006426837 0.0033409826 -0.004644612 0.0014658221 0.00021368016 -0.0048647434 -0.0046525244 -0.0003323388 -0.0018632909 0.004078369 -0.00102334 -0.0022682277 0.0015792839 0.00096524536 -0.0028589552 -0.0006446328 0.0013936346 0.00396095 -0.003452786 0.0034159226 -0.0042054513 0.004072613 
BST2	-0.00021005054 0.0009931746 0.002958391 0.0026407798 -0.0048041227 0.0028944828 0.00033661234 -0.0036455835 0.0038990367 -0.0024464144 0.0032489675 -0.0017192544 0.0002798759 -0.001569368 0.001978374 -0.0048343064 -0.0009027738 0.0029434448 0.0027252247 0.0011659793 -0.00057607854 -0.0041546626 -0.0007989108 0.0045877965 -0.00439913 -0.0047242767 -0.0005930485 -0.00035892203 0.0049965973 0.0032164622 -0.0031267905 0.00052134454 -0.0037220756 0.003962336 -0.0021215396 -0.0015205437 0.0025923029 0.0037507701 0.00036487603 0.002484875 -0.0009890647 -0.00057743635 -0.0042809458 0.000911624 -0.0002059496 -0.0025751076 -0.00085718493 -0.003692248 -0.00016241273 -0.003189771 -0.0039297594 0.003131465 -0.00475551 0.001122926 0.0013900052 -0.0012725821 0.0022101966 -0.004214016 0.0024524732 0.004384371 -0.0026207236 -0.0040035388 -0.0006740998 -0.002689939 -0.0009610396 0.0031520836 -0.0015197026 -0.004789605 0.0019146478 0.0019041818 -0.001547131 9.703023e-05 -0.0046475055 -0.0037225767 -0.00080180325 0.0041638114 7.3351715e-05 0.00303369 0.0022004198 0.0020395955 0.0026942869 7.140458e-05 0.0007524294 -0.0016875209 0.0027100863 -0.002391522 -0.0042253337 -0.003739707 0.004398025 0.004042527 0.00026550112 -0.0008140835 -0.0027309048 0.0036186979 0.0012817242 -0.004124106 0.0021613573 -0.002424878 -0.00014945725 0.00482861 
PRKACG	-0.002210345 0.003932004 -0.0048840363 0.0025154394 0.001159914 -0.0037134667 0.004352126 0.004988217 -0.0014276096 0.0008199027 -0.0022544712 0.0038510847 -0.00070434593 -0.0026040822 3.3733046e-05 -0.0005938318 -0.0015427414 -0.0017393419 0.0029211703 0.00069880614 -0.0031146957 -0.0015385057 0.0038571968 0.0033225913 -0.003822807 -0.0024206813 -0.004538777 -0.0041870438 0.0013447211 0.0035455946 0.0049416935 0.0011990361 0.0045687607 0.0048489184 0.0019061215 0.002962859 0.002689391 -0.001963446 -0.000926172 -0.00046255367 0.001437101 0.0006275606 -0.0012909824 0.002884648 -0.0018847702 0.00068385235 -0.000351362 -0.004783379 -0.0033989085 -0.004265102 0.00393139 0.0022738518 0.0017810634 0.0028713346 -0.0019417832 -0.00017703738 0.0017785206 0.0011991019 0.00021522913 -0.0016680784 -0.004098164 -3.061573e-05 0.0015252983 0.00369158 0.004413293 -0.0042442186 0.00056760997 0.0009105504 -0.0032419008 -0.00012697843 0.0020214648 0.0035958074 -0.0026996222 -0.0044005336 -0.002933492 0.0033612757 -0.00041713976 0.0006458589 0.004109059 -0.0047054845 -0.0010045914 -0.0010000077 0.0011516971 0.0020839132 -0.0045951433 0.0007830394 0.0040913066 -0.00021924784 0.0034878966 0.0037881678 -0.0026516079 -0.0034343712 -0.0011539327 0.0016620693 0.0030997307 0.00236249 -0.0016922868 0.0041658143 0.0013694812 0.0048747975 
PRM1	-0.0032180857 0.0021456494 0.0028104512 0.0036099227 -0.0019046587 -0.0007137685 0.001915983 0.0012943144 -0.0016214675 -0.0027592224 -0.0032860544 0.0010323754 -0.0047664125 -0.0027896322 0.00090968 -0.003889239 -0.0014241872 -0.0043419343 -0.0014145969 0.0009983412 -0.0001968698 0.00027514377 -0.0018320648 0.0018705487 0.00085445895 0.00055733236 -0.0018057277 0.0009107608 0.0011665631 -6.596704e-05 0.0025072535 0.0013405845 -0.0022323527 -0.0026815874 0.0013656751 -0.0025417341 -0.0004169781 -0.002775372 0.0010130724 -0.0043993364 -0.0024755965 -0.004753121 0.003453596 0.0011565527 0.00022476791 0.004833439 0.00036471925 0.0042331023 0.00376313 0.0022884647 0.002413038 0.0020443045 0.00209528 -0.0013369939 0.004367105 0.0032502457 0.0029982734 0.0014298672 0.0017595814 0.004929219 -0.00046051043 -0.0017459396 -0.0014904314 0.0037674496 -0.002462906 -0.0019581332 -0.003847277 0.0038672597 0.0022620994 -0.002623258 -0.0014892928 -0.002655647 -0.0046435376 0.0019746786 0.0023456446 -0.0026148418 -0.004888295 0.0017190308 -0.004482925 0.00039661326 -0.0017429063 -0.0012688866 0.0032842744 0.0033485503 0.0035490806 0.0039347387 -0.0027935933 0.0046196557 -0.001316462 -0.002063459 -0.0024880131 -0.001281138 -0.003938988 0.0049848366 0.0018647045 -0.0030799685 -0.002576099 0.0048943474 0.0037650974 -0.001902911 
CEBPD	-0.00097432756 -0.0025456662 -0.0020509085 -0.0021427413 0.0019571437 -0.0025136054 0.0029314333 0.0045223073 0.0021896185 0.0030444532 0.0028813914 -0.0045598582 0.0005974011 -0.0040060114 0.0010336511 -0.00037179847 0.0027288187 0.00017401815 -0.0037522595 -0.001997935 -0.0026853154 -0.0045268885 -0.00069634226 0.0031250494 0.0048236176 -0.0013360596 0.0023303821 -0.003909771 0.0026287197 -0.00468652 -0.0018021931 0.002304412 0.0011606623 0.004717647 0.0043763393 0.003665183 -0.0010794323 -0.0008050218 -0.0011349864 0.00433572 -0.0012078788 0.0032613557 0.0025852022 0.0048737414 -0.00012569837 -0.0025364961 0.0010604905 -0.0012263717 0.0027107839 -0.0022302344 0.003523737 -0.0017987853 0.0023427824 -3.627407e-05 0.0017499959 -0.00073031656 0.0048829643 -0.0015558022 0.0026229024 0.001720064 0.0007109431 -0.00038790316 0.003524209 0.0019246712 -0.0029239608 -0.0017706878 -0.0028330046 0.00042494538 -0.00096617953 4.4720335e-05 0.003267827 0.0015803999 0.0018527886 0.0034616713 -0.0008211997 -0.0026490975 -0.0009843592 -0.0008259441 -0.0034224791 0.003809978 0.0030121724 -0.0017924781 -0.0014180377 0.0040737293 0.0018167619 -0.0018234566 -0.004609951 0.00024478073 0.0046140216 -0.002565186 -0.0005968396 -0.0027861043 -0.0021596241 -0.0025450962 0.0016567043 -0.0010006118 -0.00025330432 0.0009429487 0.0027707084 0.000247303 
HCFC1	-0.00039498555 0.003766661 0.0034830724 -0.0041873385 -0.002367697 0.0027099713 -0.003498171 -0.004931087 -0.004314993 0.004461314 -0.0030791601 0.0008775254 0.0031269614 -0.0047075176 -0.0014315528 0.0017659137 -0.004039724 -0.003131594 -0.0031137054 -0.0041316557 0.00185778 -0.0043373606 0.004727001 -0.0035911524 0.0024686332 0.0003631027 0.0025254884 0.0034185955 -0.00384288 0.0048655416 0.0033623723 -0.001136955 0.00038288668 -0.0024081962 -0.002081198 0.0031561272 -0.0010775048 0.0032980437 -0.00085838884 -0.0016095206 0.003415389 0.00254653 0.0029998256 -0.003773221 -0.0029111174 0.002609685 6.916707e-05 0.0033726313 -0.0049804375 0.0037986545 0.0020351755 -0.0018709406 -0.00032902832 -0.0042516603 0.0039232685 -0.00012617387 0.0028478038 0.0034851623 0.0044281967 0.0029094757 -0.001003949 0.0033104855 0.0039165136 -0.00037552367 -0.0012093827 0.0026397796 -0.0022855373 9.9458026e-05 -0.0019457919 -0.0021829985 -0.0031608823 0.0043874984 -0.003433887 0.0043754764 0.0014119995 -0.0030809587 0.0014860929 -0.0010028838 0.001878911 0.0003456296 -0.004774122 0.003199088 0.0017003259 0.0037044522 0.002046358 -0.0036858558 0.0044219624 0.003994489 -0.00026339514 -0.00046536297 0.0008549784 -0.0017752561 -0.0017287779 -0.0030583835 0.0043762554 0.003989255 -0.0031968202 0.0035783637 -0.004548183 0.0030114097 
DTWD2	0.0024339412 0.004440579 0.0029758227 0.0039201407 -0.0009645749 -0.0018555396 -0.0037866149 0.00019014845 -0.004979878 -0.0031175117 0.0043278337 0.0028303398 0.0008779678 -0.004732982 0.0020361147 -0.00278995 -0.001285094 -0.0023812617 -0.00081690325 -0.00275408 -0.0049378173 -0.00157177 -0.0025997334 0.0003195868 0.0016511783 0.0034309623 -0.003131769 0.0007574523 -0.0013600929 -0.0034046941 0.0020960409 -0.000353435 -0.0032099825 -0.0006378907 -0.004675209 -0.0032123732 0.00085267 0.0014270371 0.0011706771 0.00103383 -0.0031627622 -0.0022340294 0.00024511205 -0.0004445313 -1.1939447e-05 0.0023303279 -0.000910653 -0.0013687471 0.0031009358 0.00013812563 0.0025872204 -0.0031505888 -0.0027593868 0.00091805356 0.0048081344 0.0012489388 0.00492897 0.00368248 0.0046127783 -0.00090128777 -0.004869411 0.0031918085 0.00015519251 -0.004750324 0.0005017272 0.0047363415 -0.004515557 -0.00015729001 -0.0037105107 0.0029005792 0.00091126154 0.00033319657 -0.0022930128 0.004912516 -0.0010370151 0.0031533763 -0.0025478275 -0.0032079283 0.0019206724 -0.0014590899 0.00058367883 -9.957313e-05 -0.0033679379 -0.0016647431 0.0029713204 0.0010504337 -0.00087893347 -0.00040758745 0.0042612525 -0.0045851413 0.0013906773 0.0049224785 -0.003314448 -0.0033866055 0.0048323013 -0.003050558 0.001381319 0.004596391 0.00046427804 -0.0012916777 
PSMA6	0.002505922 0.0027576261 0.00134567 0.0034945968 -0.004528084 0.0009215637 -0.001796058 0.0024612718 0.004404316 -0.00016304465 0.0017801226 -0.0010825748 0.0008366849 0.0013878222 0.0014498635 -0.0019873343 -0.0043464 -0.0038011805 0.0006011764 -0.003183597 0.002777565 0.004422974 0.002921677 -0.0016703213 -0.0037617208 -0.0009427972 0.0020076928 -0.004873684 -0.0038078283 -0.002101986 0.00065953686 -0.004380071 -0.0007694427 0.0036533303 0.0011317341 0.0005369908 0.0018115169 0.00019016907 0.0006893784 -0.002151668 -0.0013733073 0.0013881333 0.0023653025 0.00414297 -0.0027604746 0.0024933359 0.0028724044 0.0016850369 0.004520175 -0.0014964199 0.004165758 0.0008573125 0.0026873623 -0.0037980238 -0.0018099071 0.0016211707 -0.0037428457 0.0007017644 -0.0030523671 -0.00015011942 0.0019109871 0.00085604616 -0.0048733694 0.0048102885 0.00024463536 0.002732012 0.004913516 0.002666838 0.0043772003 -0.0005533523 -0.0034983205 0.0007624166 -0.0043419856 0.003025836 -0.001614967 -0.00071506837 0.002343156 0.0013874689 0.00015178339 -0.0014245865 -0.001997223 -0.0012701106 -0.0024172897 0.004333195 -0.0012093527 -0.00046951376 -0.0018940044 -0.00044617045 0.0037016496 0.0015822091 0.00089441426 0.0013834996 0.0032907892 -0.0026446024 -0.000839475 -0.0016877903 0.002513819 0.0048664156 0.004642097 -0.0009094373 
ALDOB	-0.00054176967 -0.0041087507 -0.0027787725 -0.0032711641 -3.405853e-05 0.004054078 0.0038026224 -0.0019467708 -0.0047049643 0.0036897564 -0.0012619116 -0.003971854 -0.0012601083 -0.0026277832 0.0007335511 -0.004753256 0.0020555118 -0.003483188 0.0032986319 -0.004242426 -0.0011949553 -0.0031758996 -0.00069767365 0.0003495427 -0.0017338488 -0.0029032126 -0.004032982 -0.0012514171 -0.004349968 0.0024678453 -0.004323892 0.0026947309 0.0024203132 0.0024473201 -0.001975801 0.0049979878 -0.0024608779 -0.00018093565 -0.0035980644 -0.00083437795 -0.0021393762 -0.0021047858 -0.003035063 0.0028298777 -0.0002207078 -0.0032529372 -0.0014383175 -0.0032028144 0.004230834 -0.0041961 -0.0029230872 0.003931581 0.0007281993 0.0044445936 0.0022465137 -0.0023934862 -0.0022286326 -0.00019605264 0.0015374286 -0.0042686607 -0.0027312275 0.004149583 -0.0047315676 -0.0029047227 0.0039103273 0.003393226 0.0044457912 -0.0041353623 0.00015749034 -0.0040730964 -3.9777956e-06 0.00067633024 0.004503024 -0.0019405648 -0.0040720766 0.0037997623 0.0024028684 -2.5803698e-05 -0.0040308866 0.000803617 -0.0036544949 -0.004723815 -0.0014865027 -0.0020262275 -0.0022706268 0.0037563734 -0.0038463061 0.0028019024 -0.001713147 -0.0019272022 0.002745061 0.0047804234 0.0011569491 0.0035003736 -0.001914052 0.0034196319 -0.0026498248 0.0013442677 0.00266555 -0.0027149026 
SIGMAR1	-0.0004843081 -0.00031179222 -0.0019320896 0.0025385704 0.00034287848 -0.0046968805 -0.004922695 0.0008001316 0.0034868396 -0.0005461395 -0.00040306637 -0.004691218 -0.0046848613 -0.0034031114 0.0013860319 -0.003427844 0.004927822 0.00057193334 0.004167071 0.0035567097 -0.0024964293 -0.0038976073 7.9282865e-05 -0.0045063207 -0.004117237 0.0039858357 -0.00198728 -0.0036254893 0.0042254576 -0.0025390002 -0.0047744303 -0.004923089 0.0038621337 -0.0019319636 -0.0035362963 0.002206926 -0.00062254106 0.0023258901 0.0032264907 -0.001491751 -0.0024772591 4.0060306e-05 -0.0022549503 -0.0026216987 0.0033389449 0.0022175591 -0.003811072 -0.004429155 -0.0043721157 0.0031188293 -0.0036327408 -0.0014764061 0.00014797364 0.0018204564 -0.004742414 0.0036169065 -0.0037387363 0.0033777808 -0.00095691683 0.0028406861 0.0031992418 -0.002267314 -0.0047745057 -0.0013260683 -0.002256563 -0.0010753705 0.0023063512 0.0041302396 0.0010866242 -0.0006676153 -0.0026251732 0.0029390822 -0.0010345689 -0.0038318802 -0.0022321893 -0.0040054116 -0.0035962423 -0.0029052694 -0.0023830584 -0.002461444 -0.0025257445 -0.0037841164 -0.002946682 0.0030868487 0.004696517 0.0024487807 -0.003726178 -0.001129666 0.0034386108 -0.0028939575 0.0024143087 -0.0012780998 0.0031969233 -0.004751836 -0.00454357 0.003128786 0.0011874528 0.0020888944 -0.0011890985 0.0042238417 
TUSC2	-0.004761243 -0.0011807398 0.0018820735 -0.0029711272 -0.0023416814 -0.001540098 -0.0020172072 0.002991362 -0.0013228283 0.002333384 -0.0046966653 -0.00027003797 0.004863794 -0.0016597084 -0.0014454094 0.0031174615 3.0329204e-06 0.0029439686 0.0041449037 0.0041042985 -0.0011815273 -0.0030733568 -0.0022826 -0.00054083427 0.0010442642 0.004048739 0.0036505514 0.0016340917 0.003649483 0.004211673 -0.004686443 0.0014471048 -2.3177712e-05 0.00029301428 -0.0035455737 -0.0029618426 -0.0016524033 0.00076681 -0.0031542878 -0.0047256714 -0.0016696801 0.0011752312 -0.0003024823 -0.00033979578 -0.0043828036 0.0011899777 0.00077985914 -0.002060327 -0.0036084203 -0.0032358353 0.0046417685 0.0026963155 0.002065369 0.00026483112 0.0046844347 0.001319054 0.003032386 -0.0014353017 -0.0044848183 0.0029211484 0.0013775458 -0.004709143 0.0022751258 0.0019886447 -0.0033717365 -0.0014210434 -0.0034574417 -0.002242156 0.0023134514 -0.0012450351 0.0046298048 -0.0027884718 -0.0034910098 0.0049512195 -0.004098315 -0.0031642565 -0.0031584282 -0.0027709224 -0.0019588873 0.0010183308 -0.0049309097 0.0028324022 0.0007520877 -0.0034629924 0.00028974062 -0.0023734963 0.002055094 0.00030659247 -0.0023816633 -0.0016923995 0.0040074475 -0.0016799719 -0.0039369827 -0.004326052 5.648416e-05 -0.0021737309 -0.0028897529 0.0038386234 -0.0005737144 0.0006858803 
ADRA2B	0.0013065905 0.003898514 -0.00012863931 0.0034952036 -0.0037461838 -0.0011053198 0.0025168261 0.0039006518 -0.0030433785 0.0049559125 0.0027769003 -0.0018048277 0.0008865881 0.0041492954 -0.0042921994 -0.002885601 -0.0010591467 0.0026046801 -0.0007118535 0.00288431 0.00064185355 -0.0011357233 -4.4672044e-05 -0.0037643008 -0.004925986 0.0024018816 -0.000187375 -0.004181672 -0.001841678 -0.0004645648 0.0012713398 0.004137086 0.0009122055 -0.0025139898 -0.0017353959 -0.00033719663 4.8440867e-05 -0.0007003304 0.0021360482 -0.0033996464 0.0005671045 -0.004129701 -0.0012867805 0.0036485346 0.0023083754 0.003843079 -0.0020862254 -0.0019709053 -0.0034140493 -0.0027994034 0.0023275753 -0.00029212967 0.0029053746 0.0043070465 1.7253535e-05 -0.0027896948 0.0046741664 -0.0010702909 0.001314739 0.00039069052 -0.0017228555 -0.0018583544 -0.0010644487 -0.0022451978 -0.0031808207 -0.0044932864 0.00060602964 -0.0005063807 0.004668262 -0.004105409 0.0049311123 0.002930375 0.0015588215 0.00059799704 0.00066740206 0.0033316358 -0.0025094498 -0.004252653 -0.0005337195 -0.00071786385 -0.0021757528 0.0040249606 -0.0030153387 0.0006795612 -0.0034641556 0.0049837325 0.002082759 0.0025911045 -0.0025650442 -0.0008584625 -0.0045380997 0.0025801712 0.0003603411 -0.0030892335 -0.0029126748 0.0008646596 0.0024819311 -0.0023188419 -0.003535282 0.0033624908 
FOXL1	0.0011282618 0.00058000267 0.0016634468 -0.0044803414 0.004996474 0.002574671 0.003642221 0.0015789439 8.640593e-05 0.00029472672 -0.0040212516 -0.004877478 0.002328562 0.0028895978 0.0017618416 -0.0016158336 -0.0043908064 -0.003929608 -0.0007116453 0.004009311 -0.000958874 -0.002907472 -0.0015334119 0.00048132494 0.0014441635 0.0031318392 0.00068635086 -0.0035418046 -0.0010512916 0.0018054512 -0.0035873656 0.004187765 -0.004930068 0.0032386703 0.0012171004 0.0038015407 0.0027858787 0.0025573599 0.0009984433 0.003932674 -0.001854369 -0.0011409498 -0.003472993 0.0007936482 -0.002595524 -0.0009315789 -0.0032960277 -0.0033863483 0.0010398368 0.00011735309 -0.0026523715 0.0006715287 -0.001305109 0.0046665184 0.0021116426 -0.0038968655 -0.00069944205 5.2457955e-05 0.0049983924 -0.002930383 -0.0045432243 0.0013094331 -0.002384799 0.0006678659 -0.0009693745 0.0037260759 0.0029962896 0.0042185406 0.0026795166 0.0043492834 -0.004227578 -0.004836863 -0.0009074731 -0.001273663 0.0024611005 0.0016828502 0.002300615 0.0006227626 -0.004232589 0.004548362 -0.0035215325 0.0044542653 0.0022580943 -0.0028905582 -0.0009642119 -0.0041839215 0.004171686 -0.0020574683 -0.003525844 0.0037112178 -0.0026427126 0.00021559632 0.0033226395 -0.0006578854 -0.0025551135 0.00024091265 -0.0030132046 -0.0035730621 -0.000990202 0.0042418144 
ICOS	-0.0019513485 -0.0027310825 0.0038216438 0.004646558 0.0019809892 -0.00075247284 0.0002366305 0.00060668483 0.00082016404 -0.00012641276 -0.0038329307 0.0010894707 -0.0038644318 -0.004801997 -0.0032450536 -0.0020758482 -0.0016775266 0.0046605202 0.00024281465 -0.00024661553 0.0022997567 0.0023036525 -0.0003562429 0.0017212478 0.00088752306 -0.002122233 0.0010094972 0.003939356 0.0044374396 0.0010493979 0.004274128 -0.0022247897 -0.002847453 0.0019214333 -0.001160607 -0.0014108048 0.0027777625 -0.0010690639 0.0013358041 0.0013745526 0.00097457686 -0.0034474763 0.0034134702 0.001981424 -0.0020240978 -0.004325539 0.0016283906 -0.0047983993 0.0027431177 0.004447523 -0.0016649317 -0.0026308163 -0.0040105204 0.0027994646 -0.0008662937 0.0012739616 0.0046533425 -0.0029328936 0.000966061 0.0042500338 0.0048047905 -0.0010141181 0.003356008 -0.0035132074 -0.0007786878 0.0004990412 -0.0015272987 0.001405494 -0.00038912726 -0.002439533 0.00244484 -0.00018123032 -0.0034467124 -0.00047496692 0.004775457 -0.004466412 -0.0019326964 0.0025267992 -0.001702743 -0.0019361355 0.0022509976 0.00011525734 -0.0010714242 0.0005419622 -0.003955419 0.00046951053 -0.0025557722 -0.00411291 -0.004869712 -0.0035717736 -0.0018975808 0.003937714 -0.0014868315 -0.004568572 0.0011006659 -0.0012924494 0.0041873036 0.0037674133 0.0047868774 0.00044940968 
FGF6	-0.0006152584 -0.002570044 -0.0030443708 0.0020686341 -0.0017915404 -0.0016641574 0.0019895295 -0.003485795 -0.001600288 0.0044465074 -0.00468177 -0.0035365755 0.0046686 0.0012882054 -0.0010433655 -0.0030187948 0.0037860877 0.001204631 0.00070153695 -0.004165283 0.0026434967 0.002954732 -0.0027732272 0.0040634098 0.0039874273 -0.00079990464 -0.0028494226 0.0030859385 0.0010758628 0.0028194105 0.0015422663 0.0029812085 -0.00037647775 0.0018971114 0.0041538193 -0.00052597775 0.0019212475 -0.0042094234 -0.0039323363 0.0008447306 -0.002782393 0.0026435005 -0.0032054167 -0.0047899033 -0.0021200397 -0.0021318828 0.001321118 -0.0015521314 0.0037750665 0.003884195 -0.00017537834 -0.00061258854 0.00018864135 0.0006029106 0.00046136175 -0.00091653934 -0.0013822519 -0.0040510227 0.00033021785 0.003129955 0.002078683 0.0030827671 0.0024131348 -0.0047239265 -0.00035497546 0.0032039976 -0.0015679492 0.0023440665 -0.0012972933 -0.0026927004 -0.0027601433 0.0021006954 0.00078674435 -0.00013841475 -0.0045153736 -0.0042495118 -0.0011636809 -9.534259e-05 -0.0008131115 0.0039659026 -0.0007766809 0.0042445282 -0.0016189774 0.003849831 0.0041686106 0.00079743005 0.003593385 0.002957941 -0.0010139906 0.0040703686 0.00036333041 -0.002219461 0.0012610937 0.0023575427 0.0015775015 -0.0038163476 -0.0017049934 0.0023602843 0.004878618 -0.004354377 
GFI1B	-0.0031071575 -0.004810907 0.0008021561 0.0035449371 0.001275352 -0.00039119358 -0.001856832 0.0006205664 0.0013327444 -0.003966458 -0.0036506874 -0.0043555433 -0.0011313112 -0.0012809747 -0.0014551439 0.0035716163 -0.002582195 -0.004596457 -0.00062172645 0.0012005912 0.004891637 -0.0010894493 -0.0022518039 -0.002721185 0.004448452 -0.000518815 0.004709199 -0.001662153 0.0010709376 0.0035438463 0.0001011912 0.0013395105 0.00032329722 0.0034078902 -0.0021966298 -0.0024814373 0.003283584 0.0022719833 -0.0048806244 -0.0020271821 0.0010080449 0.0018573031 -0.0006099258 -0.0033494662 -0.00026939434 -0.00048788497 0.004422233 -0.0035265984 0.0038852505 -0.004859415 -0.0018457873 -0.0034524319 -0.0035583018 -0.0027437294 -0.0033247177 -0.003072412 -0.0006046559 0.0026308505 0.0011831142 -0.0031872888 -0.0009914333 -0.0017884559 -0.0022750383 -0.003419144 -0.0025558241 -0.0017165736 0.0032183495 -0.003013985 0.0019949994 -0.0014994979 -0.0009397762 -0.0030065665 0.00047377206 -0.0033288426 0.003589871 0.001208486 9.05742e-05 0.003602063 -0.0001350858 0.0005847297 0.001972772 0.001975796 0.0010775928 0.0013660967 0.00092494563 0.0012625561 -0.0017515194 0.0022568782 0.00035278176 0.0023304152 0.0014864644 -0.0034861427 -0.0035752282 0.0047626104 0.004164628 -0.0049276203 0.000523374 -0.0016966077 0.004093541 0.0006805336 
CLC	0.0017743766 -0.0011196434 -0.0007926643 -0.004763877 -0.0036550055 -0.0043179896 0.002190395 0.0013830506 0.0031608792 -0.0047329376 -0.00274068 0.0023247404 0.00072316005 0.0014444082 0.002999837 0.0015455057 -0.0024127187 0.0016681969 0.0036969988 -0.0017332782 -0.0014667555 -0.004286952 0.0036714592 -0.0036812732 0.00036726243 0.003623522 0.000717228 -0.000686923 -0.004347114 -0.002869136 0.0013238261 0.0014663591 0.0024877943 0.0005214413 -0.00014810373 -0.0004998019 -0.0038433864 -0.0028982775 -0.0031359885 0.0041217315 0.0009496965 -0.00120356 0.003163831 -0.004250754 -0.003510353 0.000117292984 -0.0017695868 0.0038056925 -0.0010928136 0.0030841902 -0.0015927379 0.0039747194 0.004976681 0.0035439879 0.0019682215 -0.0017459709 -0.0002503303 -0.0013196231 -0.0019179486 -0.003813646 0.0029920496 -0.004488416 -0.002220181 0.004374932 -0.0009723031 -0.0021882034 -0.001129318 0.003236155 0.002382942 0.001321264 0.002082288 -0.004717185 0.0026478076 0.0033749887 0.0010933313 -0.001256514 -0.0001464288 -0.0013310699 0.003170005 -0.0012085189 0.00044973398 -0.0013759688 0.0039547877 0.0010727339 0.0037244419 0.00237162 0.004317682 -0.0023119731 0.00037878496 0.004420533 0.0023550116 -0.003977185 -0.0017446629 -0.004766867 0.0010250651 -0.0044147046 0.004688706 0.0040160306 0.0012394985 -0.0003732313 
TLE1	0.0033423046 0.00025511326 0.0005389702 -0.001364757 0.00051287544 -0.002578324 0.0034979077 0.0034887507 0.0018526661 -0.0016998217 -0.0018651779 0.0017868344 -0.0027387612 -0.004470653 0.002492757 -0.0037156425 -0.0043489956 0.0019321692 0.0012435371 0.002627365 -0.0013424682 0.0025798196 0.0019539585 0.0024403858 -0.0026437454 -0.0015722514 0.0011965606 0.0011459878 0.001710433 0.0035729397 0.002280378 0.0020141667 -0.001506365 -0.0030312906 -0.0019476017 -0.00032256878 -0.0049723955 0.004175144 -3.338832e-05 0.0029058673 -0.00081526366 -0.004999773 0.004062671 -2.7670148e-06 -0.0022408103 0.0032074738 0.004829623 0.0039053739 0.0013941705 -0.00035006134 -0.0043620826 0.00027807185 0.002825092 0.00481282 -0.00055938656 0.003811756 -0.0037708397 0.0036097735 0.004126436 -0.0003620543 0.0027015381 0.0029539224 0.0013603438 -0.0040686955 -0.0042300955 -0.0023448658 -0.0030397244 -0.002239671 0.00235056 0.0044892207 0.003807786 -0.0021458769 0.0020082877 0.0022418764 -0.004639015 -0.0026748073 -0.0019156816 -0.0044847415 0.0032685557 0.004982832 0.0013173263 0.0046382966 -0.0039033126 0.0016960452 -0.0006344685 -0.0019507253 -0.0005760599 -0.0045011956 -0.0030497753 -0.00087794283 -0.00075430254 -0.004433669 0.0029956417 -0.0042686095 -0.0040261755 0.0032160538 -0.0002650978 0.0034928487 -0.0010426671 0.00083760294 
OR2H1	-0.004645003 -0.0040756334 -0.0013497582 0.00073764723 0.0023768707 -0.0025844171 0.00500082 0.0016160475 0.004719351 -0.0037072909 0.0012970993 -0.0010926353 -0.0034076292 0.0045313253 0.0020142884 -0.0043631145 0.00060792 -0.0045272643 -0.0019411038 -0.0013977352 -0.00344342 -0.0026711416 -0.0046134363 0.00012386583 0.0022667933 0.00091381633 -0.0028326206 0.0001990565 0.0028331364 0.00092053716 0.0030235983 -0.0022994953 -0.0046603833 -0.0037055127 0.0041450835 0.0038948413 -0.0018068694 -0.0030375745 -0.0047664247 0.004782102 -0.003839302 0.0036807393 0.0033365267 -0.0011147939 -0.0019947812 -0.0036364135 0.0021654586 -0.00269121 -0.0015600676 0.0023951696 0.0049717734 -0.004912097 -0.0035480596 0.0044516297 -0.0046595093 -0.0025918116 0.004852426 0.0039086873 0.0008846141 -0.0006298113 0.0026637767 0.0007329943 -0.0022379854 -0.004698011 -0.0034602839 0.0034063393 -0.0008898945 0.0018234946 7.580724e-05 -0.0023058394 -0.0035724512 -0.0013090512 -0.0020891635 0.004168746 -0.0028446887 -0.00086575944 -9.1404465e-05 -0.0044077486 -2.7070582e-05 -0.00077724317 0.004152964 -0.0031044579 -0.0033591872 0.003116176 -0.0006813083 0.0040586186 -0.00044577962 -0.0027869104 -0.0044766204 -2.5094552e-05 0.0013891008 0.00094196317 0.0034626364 -0.0033535277 -0.00054810767 0.0032218292 -0.000755318 -0.0038604846 0.0034208265 -0.0006460313 
ITPK1	0.002251672 0.00010695145 0.0023480053 0.00093952654 0.0010023199 0.0015572851 -0.0004825583 0.0014303091 -0.003793577 -0.0014698831 -0.00417762 -0.003004742 0.004829587 -0.0022331297 0.0024167127 -0.0013717724 -0.004522266 0.003641829 -0.0008635746 -0.002070194 0.004917054 -0.0004961043 -0.0021612265 0.0030004042 -0.0048440215 -0.0017495162 -0.0029079712 0.0033204881 -0.0013494946 0.0038297367 -0.00066261913 -0.0024176163 5.9999933e-05 0.0010389161 0.0037389176 -0.0038606257 -0.0004197228 -0.003868286 0.003957461 0.0029208502 0.0007342028 0.0010100511 0.001828658 -7.937568e-05 0.00093781936 -0.0015055068 0.0024329026 -0.0029551226 -0.0010296233 0.0031287624 -0.0007847659 0.0040366612 0.0015615146 0.0022839431 -0.00071879174 0.0042772316 -0.0024050118 0.00013269878 0.003172338 -0.0023573476 0.0041240687 -0.0012753179 -0.0023830333 0.0011029833 -0.003808845 0.0020462745 -0.0013885465 -0.0023232838 -0.0045772744 0.0034510803 0.004286439 0.00042207254 -0.00023371486 -0.0011682581 0.0005189242 -0.0030967463 -0.0042901617 0.00281274 -0.0017293228 -0.00021115363 -0.003324431 -0.0009484815 0.0031421618 -0.00065139245 -0.0022370543 0.0031397922 0.0012204356 0.0016932286 0.004357396 0.0011052587 0.001737708 -0.0049074367 0.001831432 -0.002929894 9.244665e-05 0.00031788214 -0.000700126 -0.0014742415 -0.0018723763 -0.004714189 
FAM13A	-0.003552454 -0.0032079956 0.0021643208 -0.0045819366 -0.0035267903 -0.004286232 -0.0007581177 0.0025749383 0.0039565554 -0.003503939 0.0016256724 -0.0031922832 0.0018971869 -0.002259797 0.00015287419 -0.004085784 -0.0035973855 0.0037964117 0.0016403346 -0.0019721077 -0.0020742835 -0.0029364289 0.004878068 -0.0008554151 0.0008125759 0.0043269745 0.0022703765 0.0030859648 0.0010529851 -0.0022933357 -0.0030091056 -0.004735585 -0.00043581083 0.003336112 -0.003606369 0.0010872093 -0.0014836703 3.2059335e-05 0.0023808372 0.0022751994 -0.0033463654 -0.0017798377 0.0022004563 -0.0014732991 0.00096487434 0.0008763038 0.00023892545 -0.0039031312 -0.0014408414 0.0010245091 -8.268453e-05 -0.0047176485 0.001250089 0.0047155605 0.0012215744 -0.0025794117 0.0019185842 -0.0006162291 0.0006810539 0.00024891758 -0.003816111 -0.004371307 -0.0009889606 0.003215689 -0.0013094961 -9.7685464e-05 0.0009799479 0.004455814 0.0035038984 -0.0012280977 -0.0022948165 -0.002719193 -0.00020694915 -0.0006728372 0.00092489173 0.0039533377 0.0049555004 0.004496155 0.002602034 -0.0038753138 -0.0046890536 0.0021425635 -0.0023443368 0.00065963244 0.0007961067 0.003295933 -0.0044864556 0.004404408 -0.001186386 -0.0040178257 -0.004437525 0.0038207164 0.0048295646 0.00055591465 -0.002170632 0.0016248103 0.0019435389 -0.0011094932 0.0042633936 -0.0031851125 
POLM	0.000981653 -0.0030913337 -0.0034661577 0.0011809198 0.004764565 0.0022295974 -0.004088843 -0.0040817847 -0.0007296051 0.003557899 0.0044147763 -0.0047472753 -0.003990715 0.0029062235 0.0020406006 -0.0039977063 -0.004366733 0.0010455059 -0.004122252 0.0012828961 0.0034172814 0.0038090858 -0.0011913364 -0.0023838964 -0.0024726097 0.0014233023 0.0040290006 -0.0007475142 -0.0018244906 0.0008546936 -0.00011131484 0.002822013 0.0010049416 0.003513689 -0.0006301517 0.0016415204 0.003874888 -0.0037151945 -0.002584157 -0.0038603165 0.004174519 0.0027895703 0.0036245605 -0.00235318 0.00017569281 0.00034459276 0.00053579645 0.0011985917 0.0014785582 -0.00080440746 0.00307844 0.0010965996 0.002084306 0.0038984683 0.00019872916 -0.004859957 -0.0025924547 -0.0037734902 -0.00035402764 0.0028468326 0.00037731222 0.002550011 0.0029903238 0.0045736837 -0.004372074 -0.0010707176 -0.0035819602 -0.00046427394 -0.0049544238 0.0029908598 -0.00040190626 0.0011142498 -0.0006723411 0.002057978 0.0014132044 -0.004693249 0.0028176853 0.0045178146 0.0042232936 -0.0046519646 0.004288272 0.00051365385 -0.00041381034 0.0047552222 0.0042054285 2.914353e-05 -0.002099373 -0.0022903357 0.0024729732 0.0014326918 0.0016113752 0.0031439003 -0.0011146995 0.0038832875 -0.0014950199 0.0036863384 -0.004523884 0.002059654 -0.0019231414 0.0049748328 
TBX22	-0.0036242844 -0.0032518473 0.003885187 -0.0039442494 0.0001894611 -0.00096224557 -0.004053782 0.0026431868 0.004440977 -0.0042985654 -0.0018538045 0.003429617 0.0011144592 0.00065325457 0.0042898464 0.00052565074 0.002320423 0.002733286 0.0031054039 -0.004551573 -0.00074665487 0.004436896 4.6295636e-06 -4.631004e-05 0.0031470465 0.0023566866 0.0034929803 -0.0022377614 -0.004809366 0.0024567891 -0.0039223237 0.004162236 0.0049384474 -0.004106027 0.001426642 -0.002809015 -0.0023583265 -0.0044169915 0.0011064374 0.0023965545 0.004217865 0.0015034388 -0.0022816113 5.0184284e-05 0.0013474757 -0.0003868279 -0.0012173712 -0.0014372137 0.0025432531 0.00068846537 -0.001220066 0.004375005 -3.712024e-05 0.001757188 0.0018936839 -0.0033954608 0.00019806638 -0.0036985625 0.0030934769 0.002344101 0.0033268533 -0.003574283 0.0047180494 -0.0016490628 -0.0007176585 -0.0015419454 -0.0026843671 0.0019636268 -0.00012318567 0.004064131 -0.0008765318 0.0030654045 0.0045369016 -0.0028030416 0.00086853694 -0.0026818814 0.0011326259 -0.00080583035 0.004720458 0.00469355 -0.0012761042 -0.0034770966 0.0040116557 0.00071496365 -0.0010354616 -0.0014853171 0.0043198657 -0.0036143975 -0.0027537893 0.0025156632 0.002170204 0.0023867514 -0.004746317 -0.0033925916 -0.0030027921 -8.9051115e-05 -0.0029808816 0.003262952 -0.004369017 0.0049047945 
KRTAP8-1	-0.003144881 -0.0037651048 0.0015877712 -0.0044784076 -0.0049548643 -0.0024099338 0.0041600857 -0.00036793502 0.00094554824 0.0018229977 0.0030047544 -0.0018240277 -0.00424566 0.0029481407 0.001354116 0.0048574186 -0.0024114922 0.003316796 -0.0037939511 0.0016716728 0.00019688216 -6.602669e-05 -0.004372349 -0.0003046491 -0.0022788728 0.004263679 0.0041224435 -0.003963615 -0.0037140753 0.0003024279 0.0011843428 0.0024798021 -0.003178174 0.0041621556 -0.003886739 -0.004919769 -0.0027788556 -0.0017652815 0.00076418987 -0.003991597 -0.0005067914 -0.0039496585 0.0004114938 0.0023539364 0.0043704123 -0.0040545766 -0.0026861667 -0.0013720532 -0.003308953 -0.003331395 3.3090342e-05 -0.0038327875 0.0024407168 0.004501261 0.0045362506 0.00049275975 0.0022296384 0.003041391 -0.0046272315 0.0044941925 0.004069681 0.0014409523 0.00088785036 0.0001406597 -0.0012850878 0.00032236756 -0.0036193575 -0.0037061404 -0.0014678921 0.0030546037 0.0015205402 0.0015385464 0.0023377286 0.0016286978 -0.0021744657 -0.0038492726 -0.0016243426 0.0017882269 -0.0047740745 -0.0029374952 -0.002831492 0.0031150137 -0.0044391644 -0.0018651608 0.0030433368 0.0010338427 0.0025879603 -0.0017008852 -0.0003824999 0.0030497406 -0.0036065443 -0.0019027084 -0.0028565812 0.001674932 -0.0011000439 0.0037937874 -0.0028185537 -0.003473125 -0.004053664 0.0005056199 
OR51M1	-0.0034820167 -0.002296636 0.002453295 -0.0007170498 -0.0028012376 -0.0018723981 0.002995299 0.00095445407 -0.0021363248 -0.001283462 -0.0018361991 -0.0005182236 0.0037361237 -0.0037646915 0.0045379433 0.004409978 0.0016867619 0.00030854158 -0.004724182 -0.0013848494 0.0017805555 -0.0022905364 0.0007549478 -0.0024462244 0.0037896745 -0.0024983755 -0.0038870217 0.00022069931 0.0025588875 -0.0016808524 0.00140732 -0.0018391752 0.004620439 -0.0006322507 -0.004073557 0.003402019 -0.0006286411 0.0039321897 -0.0014469514 0.0023640844 0.0038630846 -0.0041335146 0.0006010534 0.0049839388 -0.0042560427 0.003059779 0.0041520363 0.0013420559 -0.0026565269 -0.0043152804 3.767874e-05 -0.0031041936 -0.0024203567 -0.004150251 -0.0033741232 0.0004872204 -0.004079505 0.00054461486 0.0027209928 -0.0002878521 -0.00041125395 0.0033801289 0.0020566625 -0.0013088866 -0.0029028237 0.0041504162 -0.0013708338 0.0036892344 -0.00087456673 0.0036697506 0.0042568976 -0.0006333241 0.0007220439 0.0027913589 -0.0017258464 -0.0031715757 -0.0039187437 -0.00019643184 0.0018070264 0.0033277243 0.00027060168 0.0047438773 0.0024593624 8.388308e-06 -0.0007106437 -0.0042504505 0.0006199035 -0.001971449 -0.00039035993 0.0012179875 -0.004291311 -0.0007504826 0.00026805358 -0.0012113964 -0.0019481353 -0.002203196 0.0006039521 -0.0035582948 -0.0011535683 -0.00029902905 
CRABP1	0.00440902 -0.002738399 -0.004321437 0.00047117446 -0.00078555476 -0.0019218207 0.0045113317 -0.00011814881 0.0022676091 0.00065301656 0.0026857823 0.004026541 0.0040623276 0.0043416983 -0.004279465 -0.00056551496 -0.0025592092 0.0042596194 0.0042150742 -0.0024697976 0.0041301083 -0.004238232 0.00079053605 0.0025091183 -0.0030121766 0.0002851646 -0.003168004 -0.0008305783 -0.0014168019 -0.0003649779 0.0014929286 0.0019145109 -0.0025168355 -0.0040884474 -0.0024769474 0.001303033 0.0015671728 0.0017814566 -0.0029102482 -0.0032696594 0.002649703 -0.0010846495 -0.0027431347 -0.00086893927 0.002269546 -0.004985101 -0.00017777378 -0.0028114205 -0.00035815273 -0.0032173358 -0.0025828255 -0.003138642 -0.0015452888 0.0018366768 -0.0014054818 0.0044158692 0.00027166674 -0.0016197826 0.003372256 0.0038570887 0.0039193877 -0.0015232262 -0.0026293271 -0.004065086 0.002845506 -0.004761371 0.004116424 0.002669887 -0.002486944 -0.0030905202 0.004657407 -2.159316e-05 -0.0043076435 -0.0030662618 0.0020921614 0.0020700253 0.002592989 -0.0037109687 -0.00065653946 0.00042797808 -0.00078982965 -0.0033818793 0.0009921489 0.0025916353 0.0029842223 -0.00086046325 0.0029210085 0.001573334 0.001013712 -0.0022289613 -0.0038371407 -0.0043089367 0.0015696374 0.0039280285 0.0043652034 0.0019455836 -0.0018435742 -0.0037491124 0.0020156044 0.0013108588 
RRAS	-0.0026459168 -0.0038023225 -0.00078991306 -0.0038067326 0.0034883835 0.0048732017 0.0002379103 0.00097572 0.004338338 0.0019373982 0.002207046 0.0035544957 0.0018294137 -0.0038657347 0.004338225 -0.0031970688 -0.003302984 -0.004620209 0.00039757756 0.0033985446 -0.0026453163 -0.0043514515 0.0010216156 -0.004847604 4.2083475e-06 -0.0028293908 0.004588138 0.0035239742 -0.0024885538 0.0034248817 -0.00028220707 -0.0032937839 -0.0011328451 -0.0046848 0.004960172 0.00424696 -0.0028571908 -0.004034908 -0.0004421949 -0.004583321 0.004640564 -0.00014060427 -9.307299e-05 -0.0010395586 0.0042347647 -0.0029286437 -0.0032201123 -0.0046845493 -0.0033746473 -0.004564988 0.0029143183 -0.0008166536 -0.004592243 -0.0021524504 0.0019652862 0.0022160998 0.0019810114 -0.0028863081 -0.0040179607 -0.0017625586 0.0046333014 -0.0023675296 0.0038436225 0.0046326 -0.00041495732 -0.0019112638 0.0038117769 -0.0033537738 -0.003184132 -0.0032432931 -0.0020933303 0.0040481356 0.003122332 0.0014116161 0.0024266706 -0.0024086852 -0.00494597 0.0037514558 -0.0035786156 -0.004049517 0.004847898 -1.16787405e-05 0.002268309 0.0003930186 -0.002910478 -0.00014910154 -0.0018130384 -0.003901991 0.0043117646 0.0021539656 0.003226921 -0.0011631602 0.0028230962 -0.00035589133 0.0001845746 0.00066393835 0.00053924427 -0.0033366121 0.0030728623 0.0003542049 
DPH1	-0.00071642693 0.003563398 0.0032677536 -0.004826598 0.0010929761 -0.0015974006 0.0033506989 -0.0028352162 -0.0010474395 -0.00058694236 0.0046840357 0.0009660644 0.00266485 0.00037946663 0.0021321988 -0.004737116 0.0013332755 -0.0015515634 -0.0028965902 0.0026766027 0.0028733897 0.0041888617 -0.0034054203 -0.0010043952 -0.0007111713 -0.003925843 0.0023780991 0.0022066205 0.0042903987 -0.004004709 -0.004934199 0.00406165 0.0032883403 0.0018513192 0.00086323544 0.00024193537 -0.0030941158 0.0035167814 0.0033645208 0.003060882 0.00059900375 -0.0013852657 -0.0011047877 -0.0005650793 -0.0009394573 0.002760123 0.0038239036 0.002745935 0.0029692687 -0.0032936933 -0.00061617955 0.0021604947 -0.0016465049 0.0035830254 0.0012865018 0.003235331 0.004560627 0.0033392191 0.0010911247 -0.0038055626 0.0043111057 -0.004020077 0.004737851 -0.0045008473 -0.00225166 -0.0007560095 -0.0018064163 -0.0018769482 0.0028063592 -0.0037033376 0.0015869922 -0.0038809862 0.0013668523 0.0032793402 -0.0019268389 -0.004246186 0.0027861076 -0.0038570059 0.0024088083 -0.002819062 -0.0018794988 -0.0017198574 0.0041293935 -0.0045189504 -0.0015540308 -0.004769963 -0.0033435468 0.003577299 -0.0013165264 -0.0004372516 -0.0024202908 -0.00283258 -0.0036842322 -0.0005879833 -0.0014982303 0.0013041531 -0.0034223464 0.0036346153 -0.0005504975 -0.0032493775 
TTC28	0.0048156595 0.00033402067 0.0033672005 0.0043487567 -0.0022208923 0.0030865502 -0.00093131256 -0.0028115348 0.004885752 -0.0025185468 0.0024880962 0.0022707086 -0.0042378055 -0.0028310232 0.0033980275 0.0007148161 0.0020535106 0.0025398163 0.002290072 -0.0025201777 0.004363706 -0.0004964834 -0.003856458 -0.004640754 -0.0048213475 0.0031075452 0.001905213 -0.00204605 0.00494502 -0.0048269997 -0.0013561102 -0.0006457069 -0.0046068956 -0.0008917038 -0.0035542846 -0.00476342 -0.0031688474 -0.0021985422 -0.0008130519 -0.0006289926 0.0038532945 0.0018350604 -0.0010229399 0.0026167051 0.003190454 0.0044953646 0.0010143291 -0.002813723 -0.0040543936 -0.004087033 -0.002149798 0.00023431583 0.0046707224 0.0031557453 -0.0013343917 0.0025387937 0.0034278329 -0.004791053 0.0006336384 0.002458277 0.0047606495 -0.0028622954 -0.0028527542 -0.0009443971 -0.0022879534 0.0048696133 0.0005279251 0.0011665802 0.0023175548 0.0014246077 -0.0034286308 -0.0009718602 0.0012141543 -0.00072722597 -0.0024681832 -0.0011896671 -0.00053748384 0.0048975404 -0.00035672498 -0.004464974 -0.002576417 -0.0017426979 0.0042763245 0.0011940906 -0.0042451727 0.004744272 -0.0024153641 9.523369e-05 0.0025581897 0.004802486 0.0033133882 0.0016739406 0.0008728701 0.0046666805 0.0008500392 -0.0010968662 0.003983472 -0.0011064288 0.0032377923 0.00022133911 
POTEKP	-0.003951896 0.0048791384 -0.004120065 -0.001365522 -0.004531852 0.0009931016 0.0022061795 -0.0024649014 -0.0032651485 0.0028851815 -0.0024624055 0.00042038006 -0.0005381678 -0.00079183636 -0.0034755468 -0.001253153 0.001207208 0.0016850882 0.0009135572 -0.0029137412 6.378596e-05 -0.002359349 -0.0036518546 0.0042832782 -0.00057253655 0.00067874044 -0.0046799146 0.0016034563 0.003545175 -0.0035999154 0.0017219548 0.002270855 -0.0029827438 -0.0038675687 0.002959864 0.0020790235 0.004144015 -0.00261271 -0.00434126 0.00077431736 0.0036823356 -0.0020764293 -0.0006051888 -0.0010338317 0.0030754993 -0.0023050706 0.00093136536 0.004807511 -0.0023709845 -0.00071010913 -0.0021004712 -0.0016859205 0.003244522 -0.00049523154 -0.00083285145 -0.0024641892 0.00014756028 6.141717e-05 0.0020093243 0.0024885347 0.0032627461 0.0019374213 0.0013562236 0.0011601935 -0.0015334403 0.00026346848 -0.0009391452 0.0029531159 0.001838166 0.0038736807 -0.003963273 -0.002270343 0.0003383664 0.0033590244 -0.0015424445 -0.0024514368 -0.0039363154 5.154158e-05 0.0023050806 0.0015665063 -0.0027016755 0.0014525176 0.0038672797 0.0031174154 -0.00227091 -0.0019462872 0.0031793776 -0.0011964757 -0.0015298203 -0.0015494073 0.0025075574 0.0048090336 0.0024079133 0.0001934214 0.0030898892 0.0015712569 0.0037198213 -0.0038654618 0.0049594636 -0.0016029715 
ATL3	0.00060990825 0.0036930374 0.003416296 -0.002262514 0.0015441714 -0.0017243649 0.0018258472 0.0047209878 0.0045872554 -0.002250072 0.0028796168 0.0033256519 -0.0020375901 0.0037448814 -0.0033054375 0.0015749726 0.004962375 0.0043567666 -0.0015817039 0.004787072 -0.0026291045 -0.00013897117 -0.0014831552 -0.0029480697 -0.0021556302 -0.0009819681 -0.0009795063 0.0029002535 0.00038604246 0.003911956 0.0047688107 0.0025320312 0.003922133 0.004084469 0.0021401118 -0.0025175759 -0.00418556 -0.00075414643 0.0023501497 -0.0023956883 -0.0025536104 0.0043353746 -0.0025703541 -0.003401193 0.00016496146 0.0032598134 0.0011627795 -0.0010221297 -0.0016544037 -0.0028694703 -0.0014001039 -0.003235432 -0.0020927188 0.0023412036 -0.0029365232 -0.0026014943 -0.004887658 0.0030915055 0.0018615075 0.0032207216 -0.004879478 -0.00095775 -0.0012714568 0.0047101933 0.0020038371 0.0002610298 0.004535501 -0.0035300078 0.004336448 -0.0012277251 0.0016100575 -0.00012106849 0.002182356 0.003597838 0.0048002056 -0.004677825 -0.002847025 0.0006519954 6.655151e-05 0.0030709608 0.0045860345 0.002155579 -0.000732194 -0.0019383413 -0.0017943941 -0.004646831 -0.0022124008 0.003035933 0.0030219906 0.0009436589 0.0007693983 -0.0024215395 -0.002537109 -0.0013615779 0.0014126158 -0.0026799426 0.004119013 -0.002774344 0.0038254098 0.0018884013 
ZNF367	-0.0015319568 0.0006950554 0.0016003866 -0.0025346067 0.0027589696 -0.0036979727 0.00016406212 -0.0044390038 -0.004331964 0.0008813454 1.26932355e-05 -0.0016587464 -0.0010919524 -0.0027052762 0.0012351649 0.0007495049 -0.0019434562 -0.0011618785 -0.0024923773 -0.0024683413 0.0029985781 -0.004325876 -6.676551e-05 0.00042750878 -0.0049312958 -0.0036740443 0.0003274929 0.0010760141 0.0037204162 -0.0038065675 0.004368733 -0.0004176035 -0.0015263543 -0.002370968 -0.00025570835 0.0002465263 -0.0019081216 -0.0008677363 -0.004417024 -0.0008084189 -0.00016247512 -0.004488667 0.00076755154 -0.0002041107 0.002817546 -0.003236845 -0.0015256845 0.0048510493 -0.0032813733 -0.0028615212 0.0047094636 0.00058707275 -0.0036451283 -0.0044852295 0.004135706 -4.355657e-05 -0.0006455303 -0.0049065333 0.00038855354 -0.0039229067 0.00143045 -0.0038858163 -0.0034618473 -0.0021361036 -0.00034770695 -0.002716916 -0.0036901636 -0.0045603113 0.002597056 0.0008680999 -0.001154508 -0.003724443 -0.0042942315 -0.0025551985 0.002669977 0.0016191283 -0.0022187685 -0.0023998374 -0.00031981317 -0.0028896285 0.0019572093 -0.0017816388 -0.0008011501 0.0029261415 0.003533201 0.0025330766 -0.0012101479 0.0007559966 0.003617338 0.00015958851 -0.00040959826 -0.0035875044 -0.0029677632 -0.0028153525 -0.0037376483 0.0013784533 0.0006242934 0.0038832864 0.0042972337 -0.0029836956 
TEAD3	0.0015893822 -0.0013565335 -0.00057472294 0.0004971659 -0.0012818251 0.0018545425 0.00019775218 -0.0017682643 -0.0048447032 0.0037509894 0.003963454 0.00013167909 0.0018956626 -0.004724113 -0.00058823277 0.0033196437 0.00078047445 0.0032229142 0.0024936176 4.8620084e-05 -0.0041731778 0.0009450791 0.0036888 0.0008026567 -0.0007529581 -0.0028533796 0.004003581 0.002210482 -0.0036104792 -0.0009054868 0.0037579327 -0.0046047275 0.003130128 0.0010406658 -0.002440929 -0.0017664564 0.004318714 0.004541319 0.001896474 0.0047428617 -0.0035891961 -0.0039682942 0.0037689689 -0.00048173906 0.0005911214 -0.0023556594 -0.002755356 0.002311689 -0.0035412833 -0.0018496122 0.0043505984 -0.0034294226 -0.003943094 0.00096777425 -0.002070067 -0.0030195145 0.0017993386 -0.0045680613 0.0023637481 -0.0022503578 0.002234776 -0.0017384402 0.001736574 -0.004314486 0.001494581 -0.0045234053 -0.003262888 0.0017241674 0.0009912903 -0.00384105 -0.0005064079 -0.0034945249 -0.0027807073 6.811807e-05 0.0030399822 -0.0019731738 -0.0030689621 -0.0024097995 0.0039907023 -0.0030038576 -0.0030836964 -0.0012039926 -0.0009215919 0.0018737378 0.002203973 -0.0017479605 0.00014687543 -0.0028170503 -0.0015351324 0.0012639727 0.004928908 0.0030970478 0.004765361 0.0006484952 0.003187562 0.00017921373 0.002293115 -0.003086141 -0.00095863565 -0.0049241893 
GLI1	0.004760236 0.0012592961 0.0010793312 -0.00059590384 0.000837169 0.0047826734 -0.004412209 0.0015086251 0.00056371564 -0.0006696423 0.0010069946 -0.0019380272 -0.0047435923 -0.00055643456 -0.0014477831 -0.0014440196 -0.0008998962 0.00337135 -0.0010527117 0.0022211638 -0.00084321754 0.00109551 0.0049596485 -0.0015470632 2.4105044e-05 0.0023325966 -8.4564104e-05 0.0023230615 0.002442334 0.00291452 -0.0043564728 -0.0026193582 -0.0047992687 -0.004731502 0.0032817037 0.004159967 -0.00016167176 -0.004679584 0.000553718 0.00095161644 -0.00038470796 0.0014098623 -0.0034743808 0.0023524784 0.00436825 0.0013279248 0.002785653 0.0008307761 -0.0004099934 0.0047325823 -0.0023289537 -0.00096712867 -0.0046645612 -0.0041802414 -0.0049313013 0.002368976 -0.0008171062 0.0012613871 -0.0031530713 0.00329869 -0.0047372133 0.0039193216 0.0022952843 -0.0010750525 -0.00406149 -0.0049294517 -0.0013580119 -0.0007152661 0.004799446 0.0042862175 0.0005777194 0.0023277202 0.0031205919 -0.004727534 -0.0049225553 0.00015712446 -0.0035224543 -0.00047786505 0.0046013324 0.002398065 -0.0020730312 -0.0021161977 -0.0034778798 0.00039232487 0.001632463 0.0044720327 -0.0019450362 0.0023899344 -0.0015919262 -0.0049088513 -0.00400915 0.0028696225 0.0019050837 -0.0012250203 0.0035297323 0.004399682 -0.00070067367 -0.0030546116 -0.0041041244 0.0025700196 
MAML3	0.0035445376 -0.0047834883 -0.0007457552 -0.0022752557 -0.0013153072 -0.0013422709 -0.00016496761 -0.0016586619 0.0015420908 -0.0035208156 -0.0047426564 -0.0016901885 0.0044232816 0.000117794385 0.0034372634 0.0013613717 0.0037719905 0.002130972 0.0045089233 0.0045893826 0.003828057 0.0029793556 0.0028746773 0.00439323 0.0003136292 0.0011189552 0.001165098 -0.0002628316 -0.00234642 -0.0048684236 0.0015129816 -0.0026024864 -0.0030239462 0.0006772209 0.0007831971 0.0004926882 0.00444487 -4.0918047e-05 -0.0045451378 -0.0022621176 0.0031284525 -0.0012500554 0.0030407477 0.004846466 -0.0024585372 0.0035495318 -3.4240787e-05 0.002798172 0.0035534548 0.0006004789 0.00495975 -0.0036635844 0.0005021629 0.00028974193 0.0028003484 0.0024252217 0.004522292 -0.0049252748 0.002675342 0.0039072926 0.004959315 -0.0035033706 -0.0016899041 0.0021066656 0.003853833 0.0008141287 0.004781617 -0.00042943208 -0.0044619814 -0.0035239456 0.004228846 -0.0044626156 0.00093884894 -0.0036709905 -0.0016169904 -0.0035218748 -0.0007942029 0.0037046515 0.00085356104 0.00011890439 0.004305572 -0.0014449079 -0.0020656134 -0.004351384 0.00029589146 -0.0007150227 0.0037949476 -0.0001961281 -0.0022949835 -0.0027484086 -0.00028801814 0.004608086 0.00020549566 0.0014674052 -0.0045765657 -0.003957043 0.0014097228 1.1670764e-05 -0.00041942316 -0.002262683 
FGF14	-0.001792791 -0.0044041127 0.0045068543 0.001596538 -0.0034625093 -0.004575003 -0.00024038783 -0.0027823497 -0.002431309 -0.0019110581 0.0016297017 -0.0018015583 0.00030750292 -0.0027477657 0.0038945056 0.0015881162 -0.004044406 -0.0014961576 -0.004404205 -0.0039693653 -0.0006324011 -0.002875865 -0.0043767323 -0.0040592114 0.004089987 -0.0034672297 -0.0048178313 -0.0047852355 0.0030198593 0.004833145 0.004861084 0.0031394442 0.004310351 0.0011947347 -0.00342282 0.001780214 -0.004680175 0.0028102233 -0.0007990544 0.003782254 -0.0031001111 0.0005138746 0.0037988934 0.00088878314 0.00059378415 0.003546168 0.0007793657 -0.0038892133 0.0049575297 -0.003897752 0.001791617 -0.0027949426 0.00499726 0.0040393556 0.00426261 -0.0048735193 -0.0021184308 0.0041997866 0.0002593225 0.0015496061 -0.003750044 -0.004560698 0.0032048873 -0.001072633 -0.0030714737 -0.0025920474 -0.001218555 0.0038972218 0.003492528 0.0029990103 -3.588516e-05 -0.0048151435 0.002637023 0.0011382861 -0.0015523222 0.0035348719 -0.0038036332 0.00051399786 -0.002981252 -0.0010753748 0.003854713 -0.00065111293 0.0031629317 -0.004338721 0.0020992171 0.0038363202 0.0033005096 -0.0033174537 0.0003265406 -0.0047419607 0.000845908 0.0015062648 0.001718257 0.0015386755 0.0024749688 -0.0049027517 0.0004682992 -0.0027149066 -0.0038505963 0.00067334186 
SIM2	0.0034597348 -0.0008230859 0.0011397008 -0.0044968654 0.00046497307 -2.405329e-05 -0.0015850957 -0.0047383867 -0.0012581783 -0.0023471725 0.0013618512 -0.0011396796 0.0036394382 -0.0040849955 -0.0022546316 -0.0013181326 -0.002100284 -0.0018004844 -0.0040815948 -0.0046233856 3.278837e-05 -0.0031839656 -0.0030878547 0.0016510888 -0.0031401212 -0.0016666247 -0.0005418753 -0.001140836 0.003114993 0.0039791893 0.001806173 0.0036075315 -0.0028690023 0.0036640102 0.00078977726 0.0031718083 0.0018404188 -0.00073676446 -3.833236e-05 -0.00038675652 -0.003098945 0.0023127515 -0.00087430695 0.0033448145 0.0019686376 0.003984059 0.0017235003 -0.0037673423 0.003479043 -0.0004833468 0.0021571661 0.0011779617 0.0047936244 0.0023517336 0.0045529283 0.0043535195 0.0034833595 0.0041964306 -0.004501179 0.004844198 -0.0006024763 -0.0024928313 -0.0020146072 -0.0002970576 0.0015972204 -0.002772138 0.0024316376 -0.0046979636 -0.0014055076 -0.00011357577 -0.004546807 -0.0031209013 -0.0013534636 0.0036889012 -0.0026054536 0.0009691343 0.0022781212 0.0011460757 0.0021707253 0.001954914 -0.0025395993 -0.0023425415 -0.00032501167 0.0010896347 -0.0011072952 -0.0029615182 0.003651602 -0.0012860239 0.0019495091 -0.0048522176 -0.0018418013 0.0030677505 -0.002619679 -0.002273187 -0.0030675475 0.0037115144 0.0019395143 -4.691276e-05 -0.0010717876 -0.0049678464 
CCAR2	-0.004578079 0.004463459 -0.0031755592 -0.003942166 -0.0027673177 0.0019083336 -0.0013213413 0.004430388 -0.0027429424 0.0032722254 -0.004256446 -0.001147344 0.000817464 0.004559447 0.0037019765 0.003509847 0.0025949166 -0.0035477884 0.0019340407 0.0011583482 -0.0034167187 -0.0011440268 -0.002103692 -0.001011677 -0.0031435196 -0.00075053866 -0.0002804677 0.0046107904 0.0019295338 -0.0015176297 -0.0014343096 -0.0015410712 -0.0033435419 0.0047044526 0.0034388194 -0.0010721188 3.627294e-05 0.0004029708 0.0022329483 0.0022080927 0.00073183136 0.0028065455 -0.00094261055 -0.004812305 0.004985121 0.004664403 -0.003995506 0.0044989027 -0.002584466 0.0046084384 -0.0014583291 -0.00017315336 -0.0016988784 -0.0039458885 0.00056294864 -0.00093635794 -0.0013746422 -0.00057209854 -0.0016224756 0.00065254566 0.0026255038 -0.000725986 0.00072534394 -0.00012769531 -0.0009991046 0.00016483139 -0.0035334686 0.003733798 0.0021616507 0.0015918616 -0.0036677707 0.0025205899 0.0011231432 0.0048774336 0.0044157035 -0.003676763 0.0046922686 -0.0023492284 -0.0013589289 0.004319053 0.0039211963 0.0006885157 -0.0046474705 0.0011754521 0.002577157 -0.00025949941 -0.0028953012 -0.0014490075 -0.000499447 -0.00093311374 -0.0016844838 -0.0012385226 0.0022281238 -0.0016064602 0.0016830261 -0.0013184538 -0.0009991757 0.0025344752 -0.0013161438 0.0036858025 
GPR65	-0.0032034817 -0.0048022303 -0.0044486057 -0.0005816125 -0.0020399839 0.0043457383 0.0048092594 0.0006408142 -0.0012190298 0.0012332717 -0.00019054755 0.0013478128 -0.0019986473 -0.0038009724 0.0029763868 0.0022352492 -0.0024584646 -0.004276003 0.00459904 0.00069667725 -0.0009076769 -0.0028872015 0.0039277226 -0.0024130947 -0.004231483 0.00052518025 0.00020855879 0.0014729811 -0.00199889 0.00087155215 -0.0036405534 -0.0035803858 0.0037178309 -0.00037129852 -0.0039878096 0.0009884153 -6.333064e-05 -0.0016140003 -0.002771163 -0.0044298405 -0.003039215 0.001171952 -0.001962428 -0.00485302 0.0043935603 -0.00073273 -0.003039447 -0.0023613214 -0.00011071667 0.0011379083 0.0029838986 0.00030279925 0.0006382925 0.0046185968 0.004107918 0.0046522566 0.00041578087 -0.00153361 0.0004709196 -0.001216618 -0.0023279933 -0.004836976 -0.0006961215 -0.001166333 -0.0030893034 -0.0037995926 -0.0010579025 0.0018673246 0.00028062906 0.0017308434 -0.0042061317 -0.004217109 0.0020121313 0.003716883 -0.0015442607 0.004849796 -0.0041660443 0.0014734375 0.004176856 -0.00034828557 5.71852e-05 0.0027029878 -0.002392884 0.0035434412 0.0011975457 0.0018375188 -5.4160402e-05 -0.0013196189 -0.0040571433 -0.0027432188 0.0020505746 -0.0027826682 -0.004840795 0.003941251 0.0005587753 0.0012267348 -0.0028828147 0.0021659748 -0.0013389994 -0.0019436682 
MYL9	0.0045296354 0.004711527 0.0010011848 0.0013884701 0.004980051 -0.0009969424 9.5779535e-05 0.00029165336 -0.0043568215 -0.004666193 0.0043173563 0.0023150765 0.003241872 -0.0018977883 -0.0040941965 0.004257851 -0.0042979014 0.0014911786 -0.004906695 0.0034182332 0.0048253797 -9.104859e-05 -0.0016590521 0.0028166224 -0.004970091 0.0007059982 0.00024820716 -0.00041686132 0.0027756817 0.0028373008 0.004771111 -0.0035821141 0.0020697298 0.0012820974 -0.0040809726 -0.00095842587 0.0030699754 0.0015956381 -0.00024323739 0.002713335 -0.00032201037 -0.0029982156 -0.0015707603 0.0015603161 -0.0038400802 -0.0039711 0.0016564465 0.0027367312 -0.0049753035 0.0043132827 9.821275e-05 -0.0048132082 0.0018447994 -0.0008119413 -0.0016289579 -0.0011447568 -0.0043152287 -0.0037342722 0.0043080836 -0.0022364403 0.004704527 0.0048924577 0.0010449571 -0.0006447168 -0.00067670504 -0.0011921803 -0.0044211275 0.0004464687 0.0016463231 -0.00040096376 0.004276793 0.0022305495 -0.0041052927 -0.0040338137 0.0015296863 -0.0016376288 0.0047831545 0.0017114201 0.0023818393 -0.0012783078 0.0016484074 0.004596248 -0.001781029 -0.0014227454 0.0048114187 -0.0031388458 0.0006104536 -0.0009806601 -0.0013809991 0.00035956752 -0.00031628044 0.00019370655 0.00299955 -0.001227118 -0.00349406 -0.0021170843 -0.0049977642 0.0009615465 -0.004627193 0.0021671664 
ADCY9	-0.0007825021 -0.00087305525 0.0024455544 -0.0006018042 0.0036245645 0.0034591102 -0.0004376794 0.000360807 0.00018358284 -0.00093323825 0.0015289598 -0.0004108116 -0.0048241327 -0.001837539 0.00074154383 0.0019855513 0.003429551 -3.4580375e-05 -0.0032002144 -0.003930253 -0.0005638308 0.00027792633 0.0007384356 -0.0046909065 -0.00067853526 0.00012015887 -0.0046542464 -0.00351705 0.002589899 0.0034906336 -0.004859928 -0.00054068543 -0.0038364797 -0.0027298552 -0.0014464305 0.0016383075 0.0015771105 0.0029545065 0.0027388171 0.002914771 0.0027365908 0.0027553826 0.0023978895 -0.004477896 0.0014242543 0.0027514515 -0.0026512065 -0.003852765 0.0002472399 0.0038710653 -0.0038518582 -0.0010621507 -0.0031720223 0.0018019591 -0.0035742903 -0.004057747 0.0013800088 0.0017235506 -0.0008447975 0.0045497008 0.00062048907 0.0036012956 0.0009554052 -0.0028759292 0.0029784108 -0.0026961209 -0.0035437527 0.002364558 -0.0037136388 0.004128938 -0.003212048 0.0020370716 -0.0027910837 0.002619116 0.0047246013 -0.0038885416 0.0021579715 0.0001912956 0.00096912676 -0.0040811338 0.003942711 0.00050006306 -0.0017496579 -0.0037427007 0.0009025589 -0.0007166814 0.004052094 0.0048204665 -0.0034927158 0.0040459456 0.0036092133 0.0021661418 -0.0044966373 0.0032634872 0.0037669565 -0.001418498 0.004369062 0.0037250635 -0.00036620998 0.0015804915 
ERF	0.0026932794 -0.0005923421 0.004122797 0.0027189904 -0.0009352734 -0.00057713693 6.295239e-05 -0.0033802928 0.0046849814 -0.003996687 0.004128383 -0.00045782805 0.00028848666 0.0010553906 -0.00074875867 -0.00041790464 0.001329664 -0.00024345952 -0.0042972295 -0.004406876 0.002767424 -0.0019017095 -0.0026412085 -0.004574585 -0.0030857571 0.00347353 -0.0023950993 0.00083186524 -0.0039958833 -0.0033452604 -0.0035468296 0.004178175 0.0033693947 -0.0039861933 0.0023905546 0.0019204337 0.004502043 0.0028225258 -0.0024664537 -0.0017775246 -0.0015356515 -0.004686203 -0.0012230132 0.0018210079 0.003258774 -0.0040292926 0.00079907395 0.0023345205 -0.00073944504 -3.0815e-05 0.0023447438 0.0032243964 0.0022849378 -0.0024488245 0.0032980745 -0.004310444 0.0021816425 -0.0045913397 -0.0035732659 -0.0041736406 -0.0019104254 -0.0032427378 0.0046915715 -0.0033568246 0.0032469719 0.0017038167 -0.0019856677 0.0022284708 0.0043569235 0.004005622 0.0016252226 -0.00070684415 0.0011221252 -0.0026696327 0.0036056016 0.0045332597 0.0025168278 -0.004726258 -0.00074562774 4.151217e-05 0.002238969 -0.0007076837 -0.0029024193 -0.0032558313 0.0040067956 0.0014001802 -0.0027813741 -0.0040439605 0.00035908952 0.0008185376 -0.0013367562 -0.0024978886 0.002213756 0.00035566845 0.0041592033 0.0035097457 -0.004886767 -0.0021869775 0.00044439037 -0.0004483694 
NAB2	-0.0036683758 -0.0022569227 -0.00045882523 0.0031458403 0.00057681854 -0.0025985057 -0.002976888 -0.0046587987 -0.004862774 0.004738422 0.0032761786 0.0002430298 0.0026252505 -0.0040572286 -0.000603236 -0.0038374974 0.00047152195 -0.004990856 0.0014523729 0.0049776593 0.00028242113 0.0027956106 -0.0016358113 0.004553878 -0.003361844 -0.003308045 -0.004487156 0.0016140129 -0.003859893 -0.0030255807 0.0019417497 0.0036111989 0.00064814684 -0.0031001014 0.003928536 -0.003569592 0.002744859 -0.003961082 0.0022028515 0.002869419 0.000515047 0.0028232073 -0.0038260305 -0.0022778206 0.0043576094 -0.0010645745 0.004777522 0.00012080827 -0.004371569 0.001659575 0.00444926 -0.0037624491 -0.0027023484 -0.0008481291 0.0031948679 0.003318381 0.004374678 0.00095363037 -0.0029813584 0.00019507881 0.0028369224 0.004888492 0.003926173 -0.002373717 -0.0036942908 -0.0010569806 -0.0034773792 0.0022504532 -0.0031562084 -9.858257e-05 4.5716777e-05 0.0013064281 -0.003975656 -0.0043591787 -0.0027745585 -0.0034406164 -0.004719277 -0.001798376 0.00013559581 0.0047189863 0.0014066387 -0.0026115158 -0.0011659476 -0.0033608275 -0.0026044538 0.004785224 0.0043178885 -0.0046100114 -0.00406836 0.003139454 0.0024343198 -0.0029714287 -0.004936264 -0.00078188756 0.0011243913 0.0011080246 -0.00456144 0.0036480564 0.0015897466 -0.0026315032 
TRPM7	-0.0032094019 0.004893304 0.0049306788 0.0019533755 -0.0043694535 -0.0032357078 -0.0047790185 -0.0025063034 0.0009622722 -0.0008804194 -0.0032175926 0.0017884456 0.00013971941 0.00020744915 0.0022710962 -0.0007151268 0.004305851 -0.002969903 -0.0042830673 0.0006818168 -0.0006381138 0.00023207035 -0.004669523 0.0010773748 -0.00293565 0.0038946324 -0.00012747344 0.0047323806 0.00012759672 5.0570314e-05 0.0041341498 0.0048154946 0.0032870634 0.0005392553 -0.0030095407 0.0027988025 0.003010944 -0.0042532585 -0.0034878436 0.0034265772 -0.0012703921 -0.0046714954 0.0026898235 -0.0009467071 -0.0043562385 -0.003990584 0.003321045 -0.004241575 0.0036121616 -0.0012618308 0.001899217 6.283074e-05 0.00085875054 0.0029007196 -0.0004200198 0.002263952 -0.0031187949 -0.0001779424 -0.0033835487 0.00017010202 -0.0018498208 0.0038433336 -0.0025273704 0.003569103 0.0031874694 0.00092704425 -0.0014311352 0.0018681402 0.0020623044 -0.0013805985 0.00455457 -0.00017343475 0.003318854 0.0010017173 0.0007104823 -0.00032291052 0.0046176496 -0.004143314 0.0030124618 0.00049975136 0.0044183363 -0.0035830534 -0.004340314 0.0028501921 -0.0028637613 -0.0048848977 -0.0030985714 0.003270046 0.0019598922 0.003221235 0.0021384305 -0.0024278385 0.0030418385 -0.0024374414 -0.0013222869 -0.0017205902 0.0005392687 0.0019268837 -0.00468172 0.0019003869 
DTX3L	0.0008272192 -0.0008429442 -0.0013766319 0.0015656824 -0.0020648877 -0.0034802945 -0.0008842167 0.0033651763 -0.00052325515 0.0036813186 0.004975075 -0.0041173887 -0.0019476719 0.003671087 -0.00029486173 -0.0026546763 -0.00017380636 -0.0026504844 0.001753548 -0.0048875366 -0.0027965903 -0.002708268 0.0009361109 0.0013943189 0.0037589578 -0.00010005522 0.0022470579 -0.003959989 -0.0043094084 -0.00096090365 -0.002974827 -0.00416854 0.0043043066 -0.0007512583 0.00364034 0.0011065912 0.0037780465 0.0014491912 -0.0025589496 -0.0014124719 -0.0042387773 -0.0009817759 0.00010560593 -0.004520185 0.00070932496 -0.0025805493 -0.00071547244 0.0019349532 0.0016418236 -0.00034434276 0.0015114952 0.0019373063 -0.00070639397 -0.0043883314 0.0027174042 0.0035563537 -0.0023330406 0.002399251 -0.0034260966 -0.004144363 0.002866176 -0.0034010191 0.0010273437 0.0017741596 -0.002033995 0.0012669557 -0.0024198878 0.0010234653 -0.0002496767 0.0037268267 0.00062867283 0.0015894952 0.0027421508 -0.0003762093 0.0011589951 -0.0041909614 0.0009344038 0.0005389937 0.004280398 -0.0041685873 -0.003392035 0.00024020331 0.004408658 -0.0028568576 -0.0047661043 -0.0023305696 -0.0024603524 -0.0044507976 -0.0017922868 -0.0034800202 0.0045380294 0.004365146 -0.0049651354 0.0012594997 -4.1172785e-05 0.0041407 0.004343228 0.0035592183 -0.0028050882 -0.0037953488 
MDH1	-0.0027139687 0.0043876884 -0.0031641412 -0.002634022 -0.002424619 0.0046403212 -0.0016763489 -0.00021450958 -0.0034718197 0.0032008109 0.0015013942 0.0038287912 0.0013018738 -0.004564799 -0.0029640924 0.0016066106 -0.0025224078 0.000112122245 0.0025559976 -0.001260895 0.0006526596 0.004827347 0.0036818343 0.0007761095 -0.0033415465 0.003024374 -0.0037871378 -0.0027578906 0.0012747903 0.0014940129 0.00033184374 -0.003832667 -0.002862315 6.834243e-05 0.0049428996 0.0010293759 -0.0041958136 0.00013247754 -0.0029699975 7.953085e-05 0.002379388 0.00097200566 0.0009464369 -0.0025588397 0.0026173661 -0.0031446759 0.0043060645 -0.003065612 0.0010930052 0.00015749785 0.002580522 -0.0030634177 0.0019868747 -0.003997863 -0.004046818 0.004488264 -0.0019902594 0.0027937046 0.0015913199 -0.0014053134 -0.0047147907 -0.0023041714 0.002417394 -0.0018388897 -0.0041640643 -0.0029198849 -0.002178351 -0.0024179996 -0.0031258636 0.0020939754 -0.0022703297 0.0016987266 -0.0004757013 0.0019069738 -0.0022182942 -0.0043763574 0.0048878402 0.0031022953 -0.0040342393 0.0004249646 0.0021615843 0.0018824397 9.305384e-05 0.003948366 2.6085456e-05 0.0031255414 -0.0045706946 0.0016750577 -0.0039643086 -0.0008072954 0.00039402573 -0.00086414866 0.0033359225 0.003934639 0.0031850315 0.001812787 0.0006424402 -0.0017935409 -0.0017686739 0.0020149273 
CD24	-0.00071548694 -0.0035860538 0.00015051564 0.0040235836 0.0007009993 0.0027221076 -0.0037329514 -0.0045780097 0.0033984107 -0.0017271097 0.0029992752 0.0027366295 -0.0006730669 0.0031390623 -0.0042311265 0.0023764542 0.0014716994 0.002897951 -0.0004411618 -0.002228636 0.0018329874 0.0001184549 0.0031219642 -0.00426975 -0.003189995 -0.0022343688 0.000760445 0.0047164196 0.0043150703 0.002621935 0.0036116783 -0.00465433 -0.001003639 -0.0009088955 0.0010478318 -0.0034489306 -0.0024711874 9.270633e-06 0.0011324346 0.0032024996 0.0009877874 0.003750247 0.0001551652 -0.001066128 -0.004149789 -0.00368658 -0.0044969553 0.0027484 -0.0023831795 -0.00021815459 0.0029120424 0.004288931 0.0035522939 4.8894017e-06 -0.0013830587 0.001420286 0.00046967238 -0.0016712801 0.0021302733 0.003144715 -0.0035193826 -0.004254797 0.002893875 0.004631357 0.0011719302 0.0035701736 -0.0027015775 0.003700809 -0.003741673 -0.0024601475 -0.0028548571 0.004225011 -0.002247205 -0.0040252376 -8.1761544e-05 -0.001490131 -0.0012622131 -0.0023240144 0.0025720396 -0.0047053895 0.0042444193 -0.0035035086 -0.0025184928 0.0045591146 0.002294079 0.0009885833 0.0034151194 -0.0012397326 -0.0027149243 0.0013651606 -0.0035483707 0.00027437293 0.0031645023 0.0011235952 -0.0006979221 0.0035840466 0.003812941 -0.0015147666 -0.004783887 -0.0025803149 
OR4S1	-0.0034412078 0.0010052506 -0.00377472 0.0009679616 -0.004433978 0.0004042785 0.0011133128 -0.004244075 -0.004412811 -0.0035090025 -0.0004126043 -0.0029960999 0.0005619677 0.0014785003 0.0048489873 0.0018300031 -0.0030855155 0.0021873822 0.0019055888 -0.0010066418 -0.0025359045 0.004713396 0.0036051983 0.0035665927 0.0035295037 0.0033137058 0.0041432725 0.004820833 -0.002675342 0.0033638324 0.0036625352 0.004951576 -0.0019013546 0.003939163 0.0036981716 0.003459382 0.0028263454 0.0014706868 0.00079957215 -0.0028678994 -0.00492625 -0.002897665 -0.0029463922 -0.0023583807 0.003942236 0.0034381861 -0.001213979 -0.0024513984 -0.0017737998 -0.0028848865 0.0016629035 -0.00021641406 -0.0034066243 0.0019972697 -0.004479663 -0.0034541045 0.002952936 -0.00069588196 -0.00022470157 0.00458328 -0.0010731865 0.003750868 -0.0019064227 0.003150761 -0.004623892 0.003049163 -0.00462454 -0.0024434505 0.0028343778 0.003978324 0.00038894743 0.004606167 -0.0016177413 0.0028848306 -0.0044862707 0.00387954 0.002521946 0.0048539345 0.0011879023 0.001701557 0.004009234 -0.0017711779 5.192242e-05 0.000714047 -0.0047878292 0.0020638339 -0.0015684043 -0.0020424523 0.0034065011 -0.0014915271 0.0040098955 0.0016223704 -1.2953637e-06 0.002548409 0.0016960668 -0.0027327994 0.0043285866 0.002322672 -0.0036428014 -0.0012019147 
HSPG2	-0.004838137 -0.0014366113 -0.0010188874 -0.0029970547 -0.0005233884 0.00087474124 -0.0047099716 -0.002144488 -0.0044323285 0.0013208956 0.004286558 -0.003543977 -0.0012475196 0.004354167 0.0014297076 -0.00381602 0.0010142534 -0.0035005545 -0.0012235949 0.0009363067 0.0018685566 -0.000774503 -0.0042812563 -0.003610431 0.0009820117 -0.00379611 0.0020872587 0.0040407847 0.0037377437 -0.0022852318 -0.0025287136 0.0026075335 0.004040519 0.004327975 -0.002104973 -0.0002308504 0.0009786111 -0.0031750484 0.0031869255 0.00437076 -0.0026364746 -0.0013899364 0.002451626 -0.000507221 -0.0047004907 0.0019758507 0.0047389185 0.00054068584 0.0024500692 -0.0043770773 0.0009405904 0.0024226387 -0.0017653569 -0.0041456167 0.004186759 -0.0048098913 -0.0035554918 -0.0016520745 0.0001713881 0.0046876553 -0.0007433523 0.002215118 0.0004195532 -0.0015059782 -0.003996579 -0.0023877844 -0.0039541237 -0.0033184285 0.0034059882 -0.00083149446 0.0042676474 0.003857227 0.0018586603 0.0028040002 0.0025487978 -0.0024456256 0.003049985 0.0026248323 0.004473104 -0.0019898189 0.0002594077 0.0022642133 -0.0028247917 0.0018149011 -0.0002562065 0.0035964143 0.0028542038 -0.0034331824 -0.0029739575 0.0013998335 0.0019769839 0.0024211544 0.00081239437 0.0023690863 0.0020688393 0.0045914436 -0.00031442143 0.002205902 0.0012364973 -0.0035121797 
PHLDA2	-0.0038975556 -0.00051363953 -0.0003736049 -0.004123462 0.0034926352 0.00044989205 -0.0045067878 0.0020868396 0.0011091633 0.0019606925 0.0020339158 -0.0030935493 -0.0015772464 -0.002810609 0.00073013024 0.00020815067 -0.0041632196 0.004730204 -0.002734722 0.0005422115 -0.0013378343 -0.0033937648 0.0040251445 -0.0023592326 -0.00044108706 -0.0043808715 -0.0041614133 -0.0002229216 0.0005051985 -0.00037086525 0.003611675 0.003928274 0.0006605222 -0.0013690413 0.0019336077 0.0027755625 -0.002878634 0.003403707 -0.0010207995 -0.0016790188 -0.00073253806 -0.0015780543 0.0037309104 0.00046945707 -0.0013357413 0.0040412406 -0.0017920573 0.00203198 -0.0036682107 0.00010750148 -0.0017163077 -0.004490034 0.004775097 0.003151554 0.0037015686 -0.0018102413 -0.004847197 -0.003610318 0.0026358862 -0.002996561 -0.0042625777 0.004331618 0.002817935 0.0040590535 0.004710717 0.0031104463 0.00092735107 0.0047425907 -0.000518647 0.001989305 0.004329855 -0.00092054997 -0.0001513002 -0.0032303957 -0.0015475496 -0.004376573 -0.0021810276 0.002050934 -0.0010091016 0.0006845823 -0.0033771286 0.004383026 -0.004835716 -0.0005856933 -0.0041879634 0.004200395 0.0014953454 -0.0028617044 0.0031731501 0.0035372896 -0.0034156083 -0.0047712345 0.0038567898 0.0019748663 -0.002935553 -0.0017648918 0.0033718557 0.0023007568 -0.00019642596 0.0030706218 
YARS	0.0008288112 -0.0018505168 -0.0049145566 -0.0032818632 -0.0033545697 0.001417357 0.0045184023 0.002945454 -0.00241549 -0.0028442189 -0.0013654479 -0.00150254 0.0023725568 0.0032635448 -0.00068340625 0.0025176504 0.0043260744 0.004729074 0.001645078 0.002654832 -0.0035531851 0.0009777034 -0.0018545734 -0.0038074807 0.0015882581 -0.0032746247 -0.0012160932 -0.0034061554 -0.00034630025 0.0018686852 0.0017774036 0.0022018945 -0.0047450378 -0.00013536101 -0.0047864793 0.0018678528 0.0023746921 -0.001294903 -0.0021607622 -0.00092111505 -0.0044769654 0.0023885213 0.004676548 -0.0014224717 -0.0004932659 0.0021161085 0.002946978 -0.0023075193 -0.0016895256 -0.0009209874 0.004186953 0.00077308895 -0.0037319197 -0.0006792811 0.004709379 -0.0033813084 0.0018185204 0.0011002596 -0.002896284 -0.0006884139 -0.00043339565 0.0026934226 -0.0014158644 -0.001305589 -0.002101041 -0.004234812 0.0044414634 0.0011020803 4.9902257e-05 -0.0042012553 -0.0035002283 2.8015384e-05 -0.0040142583 -0.0012661463 0.0008454272 0.0015774872 -0.00018495762 -0.0013142395 0.0010984502 0.0019463857 -0.0043034554 0.0019155538 0.003165099 -0.0043206564 -0.002884562 -0.0028336071 -0.003025248 -0.0029495629 0.0017519542 -0.0045870417 -1.8877341e-05 0.0034781583 -0.0011369 -0.00027309154 -3.063656e-05 -0.004796216 0.0030194432 -0.00095495244 0.004901703 0.0024452677 
DMD	-0.0035519546 0.0040438515 -4.7840582e-05 -0.0033420497 -0.0012670663 -0.00028776296 -0.001447689 -0.0021229659 -0.004915732 0.0022949895 -0.0006171953 -0.0016139015 0.0026753403 -0.002317887 0.00259303 -0.0024616057 -0.0008659796 0.0033644075 -0.00090905034 0.0039794985 0.0037430322 0.0049935724 0.0034315193 0.0017099067 0.003407208 -0.0039801835 -0.0011426492 -0.004736376 -0.003576815 -0.0028845845 -6.8988345e-05 -0.0020020627 -0.0021512022 -0.004035336 -0.003233999 -0.0008098532 -0.00017278564 0.00040557643 -0.0047370996 -0.0029565508 -0.0016303484 0.0015888315 -0.0011743692 -0.00016699472 0.0031231584 -0.0007306794 -0.0007949941 -0.0018313793 -0.0010612386 0.0028400894 -0.003718862 0.002545427 -0.0044098715 -0.002045498 -0.0016316371 -0.0023713608 0.0021055255 -0.0008718803 -0.0001504595 0.0045918794 0.004071592 -0.0032942032 -0.0018121464 0.0010191078 0.00030952718 0.00063842133 -0.000919345 0.0022322037 0.002820972 0.0028047946 0.0032886683 -0.0041379067 -0.0025295294 0.003987429 0.004429639 -0.00033358793 0.0042230403 -0.0024366323 0.002691968 0.0017978698 0.0018156861 -0.00075694267 -0.003729432 0.002525648 0.0010568528 -0.0017123122 -0.0037630098 -0.004276558 -0.0038228007 -0.0031489208 0.0040460094 0.0037248565 0.0014518878 -0.0030334427 0.004302798 -0.004338364 0.0030432274 0.0023915053 -0.000382741 0.0038495867 
NOL8	-0.0049674422 -0.0022592829 -0.001674069 -0.0048124613 0.0037073996 0.002389387 0.00443101 0.002124753 0.00049767253 0.0004878326 -0.0030889409 0.004423979 -0.0037437987 0.0029786087 -0.00011471348 0.003184332 -0.0035068835 0.0018912603 -0.0035133678 0.0049793744 0.0028539149 -0.0017216596 0.0017398552 0.004211259 0.0034227679 0.0013794565 -0.003947177 0.0007461873 -0.003280456 0.0015711326 -0.0042122323 0.0006678735 0.00038712026 0.0032508979 0.00030119473 0.0016166153 -0.0027666108 0.0005775025 0.0037493538 -0.0012273341 0.0010775619 0.004407934 0.0015056458 0.0004794055 -0.002427306 0.004087567 -0.0016905735 -0.004802908 0.003875137 0.0008450649 0.0028024188 0.0032477092 0.0007087923 0.0049702935 -0.0020323782 -0.003962081 0.0017433589 0.001817681 -0.0027875777 0.002201457 -0.0049518966 -0.0011067461 -0.001975168 0.004874998 -5.3618536e-05 0.0013053236 -0.00034505466 0.0018137859 -0.0034030804 -0.0033387989 0.0014874166 0.004086292 0.0025051706 0.0015951091 0.0021971038 -0.0022845461 -0.004092759 0.0035711557 -0.004657261 -0.003995683 0.004087417 -0.0022536016 -0.0006879322 -0.004949333 0.00073715 0.00089941407 0.0028120817 -0.0023134153 0.0036713048 0.004712755 0.0006061567 0.002240538 0.0017784983 0.0034866114 -0.004258396 0.0043765907 0.0018662566 0.0026709829 -0.0036496874 -0.0015479773 
CLEC10A	0.0019431864 -0.0034222105 0.0029091435 -0.0043994724 -0.0003273132 0.0005045562 -0.0020895049 0.0014001939 -0.0011155059 0.0046706535 -0.001828704 0.00083680387 0.004964545 -0.0015851754 -0.002611815 0.0045410586 -0.0009078133 0.0038430197 1.3889929e-05 0.00090665254 0.00113556 0.0016259629 -0.0016305393 0.004442719 -0.00070959737 0.003939473 -0.0035206839 -0.0019880629 0.00260215 -0.0016579087 2.4587698e-05 -0.0022815533 -0.0031914501 0.0025295694 0.00401772 -0.0037466416 0.0029958282 0.0020237123 -0.0048653726 -0.0033441102 -0.0047838488 0.0015858215 0.0022465554 0.0009404835 -0.004405664 -0.0026874247 0.0008332737 0.00086852524 0.00032930463 -0.0007579079 -0.0042124195 0.0028765097 0.00118653 0.0024962472 0.0029042033 0.0036988512 0.0014697564 0.0035652982 0.00063699874 0.0034345193 -0.004777373 -0.0013421058 -0.0032532623 -0.0017258747 0.0012651023 -0.0049612513 0.0033974263 0.0023194763 0.0022211282 0.0026704036 -0.0047910507 -0.00060959836 0.0013256676 -0.0026762825 -0.003261606 -3.0489987e-06 -9.4619325e-05 0.0032391998 0.003531866 0.004488149 0.00070678856 -0.0024960667 0.0031559928 -0.00079939706 0.0014440896 0.004929236 0.0035602935 -0.001345733 -0.003104573 0.0049378164 -0.0043823523 0.0024202026 0.003960976 0.004356848 -0.0016022729 0.0028584136 0.00073951454 0.0013748154 -0.0046612285 -0.0006410229 
HIST1H3C	-0.0039537726 -0.0014092937 0.0027944325 -0.0039454284 -0.003656266 0.0039905463 -0.0037131156 -0.0035653738 0.0009948836 -0.004479327 0.003221762 0.0030811722 0.004515097 -0.0040512322 -0.0012119194 0.0008969381 0.0038644972 -0.00092316675 0.0021202024 -0.002639438 0.003113861 0.0040264735 0.001288949 -0.0021158885 -0.0012198521 0.001320903 0.004210979 0.0016888265 0.0006064381 0.0024303207 0.0040097362 0.0032429153 -0.0018519019 -0.0039311084 -0.0022106858 0.0004109751 -0.00029380037 -0.0021939687 0.00250214 0.002882089 0.003701791 0.00034684324 0.001756424 -0.00014348923 0.002719125 -0.003581327 -0.0019794523 0.0013596268 -0.00097392214 -0.001005287 0.0020075883 -0.0043502473 0.0028165658 -0.00074602093 0.004327605 0.0032230956 -0.0015299909 0.004760497 -0.0033776285 0.004700219 0.00033437394 -0.0044446723 -0.0019616329 -0.0017694673 0.0048939986 0.0017201884 0.00050876685 -0.0037871664 0.0007418709 0.004949178 -0.0041552456 0.0004449245 0.0017044145 -0.0012335987 -0.0025466343 -0.0025065343 0.00027408617 0.0036276716 -0.0031322504 -0.003196725 0.002518192 0.0014981796 -0.004745034 -0.0027278063 -0.0036357814 0.0019909118 0.0019336566 0.0023049347 -0.0032587117 0.00038120538 -0.0014055922 0.0045147124 0.0047064517 0.0013976163 0.0044225603 0.0047675944 0.0035146596 -0.0026377104 0.0010479388 -0.0035154496 
SH2B1	0.0036701255 -0.0042895353 0.004287716 -0.0011152659 0.0010049221 0.0014756342 -0.0005101217 0.0033505894 0.0038656753 -0.004613764 -0.00054834073 -0.0035999692 -0.0044529415 0.0018346382 -0.0021827589 0.0017276936 -0.0017265789 -0.0013191217 -0.0045853867 -0.0023081072 -0.0042568217 0.0036101849 0.0011613822 0.0045285975 0.003523907 0.003152121 0.004285109 -0.0012628785 0.004437959 -0.0038730504 0.0017624054 0.004396958 0.002260293 0.0029959232 0.004349784 -0.002039988 0.0026708858 -0.0029167377 0.004373412 0.00090075674 0.0014674292 -0.00036123628 0.0021209745 0.00021125647 0.0034000352 -0.004613446 0.0019954282 0.002631967 0.00082902645 -0.0038942585 0.003461992 -0.0048066853 0.0043711145 0.0008085671 0.004695177 -0.00054748467 0.0021635366 0.0042479583 0.004340909 0.0005540909 0.0031280755 -0.004332765 0.0035784908 -0.0018979242 -0.0016052943 0.0013464191 -0.0026732006 0.0033394236 0.0035810242 -0.0010301638 -0.00047829145 0.0018269855 -0.0036000232 -0.001776914 -0.00068917294 -0.0045897583 0.0046242103 0.004143607 0.0034929279 0.00089050055 0.0032143476 -0.0036851282 -0.002889112 0.00020296984 -0.0038144523 0.00047551785 -0.0037370028 0.003460574 -0.0044292808 0.00092810276 0.0036953748 0.0044180746 0.004314154 -0.001240186 0.001866087 0.0013493774 -0.0014460403 0.0018785116 0.002551356 -0.0034466933 
IGFBP7	0.002705599 0.0023723945 -0.0028132682 -0.0043467544 -0.001360935 -0.003391648 0.0029477351 -0.0014136916 0.0032510054 0.004456846 -0.0010959553 -0.0043383217 -0.00061478146 0.0036018032 0.0013288318 0.0037949092 0.0021087888 0.0018579836 -0.0014007166 0.003953432 0.0024838138 0.0028949557 0.0030298012 0.0045899083 -0.0019625274 -0.0011024178 -0.0035652432 0.003162666 -0.0009896674 -0.0028351808 -0.0036775072 -0.0015707123 0.00088193454 -0.0043112077 -0.00010089825 0.0030245464 -0.0040295576 0.0014061388 -0.0047369413 0.0030329237 0.0011213636 0.001692599 -0.0018421515 -0.0028865198 -0.0019109292 0.0016875552 0.002919661 -8.503809e-06 0.0005329114 0.00023509207 -0.004932665 0.0024973466 0.0008939465 0.003939994 0.0038096728 -0.0027016683 0.0047440757 -0.0032072843 0.00017566633 -0.0009396744 -0.0048413076 -0.00025276362 -0.001569107 -0.0009114292 -0.0005952258 -0.0033200905 -0.00061300606 0.0002135609 -0.0010202166 0.0029850153 0.002004405 -0.0027139504 -0.0047944733 -0.000852647 -0.0048141843 -0.0022846758 0.00083701516 0.001874883 0.0025459188 -0.0044239396 -0.0026774008 0.004434787 -0.0019538472 -0.00223843 0.0036267645 -0.0037730609 -0.0001043849 -0.0016050619 0.0015080547 8.783853e-06 -0.0049534524 -0.0047880528 0.0028232536 -0.0025394065 -0.0020866748 0.0011667366 0.00016357713 -0.004041467 -0.003976549 0.0019936662 
PDSS1	-0.004471186 -0.0031992975 0.0026700662 0.0029962745 -0.0029022722 0.0025409523 -0.0045538153 0.003923568 0.0036961106 0.004346135 -0.0010203557 -0.0026668971 -0.003943586 -0.0031168757 -0.0042718397 0.0023854664 -0.0049237125 0.0011164199 -0.0010671266 0.0039029212 -0.0019290952 -0.0011913228 0.0024979827 0.0027812857 -0.002973761 -0.0011381353 0.004608172 -0.00030328217 -0.0040856376 -0.0022903827 0.0014884748 0.004845728 0.0016312775 -0.0011515594 0.0012756602 0.004385677 -0.0032964386 0.004484813 0.0039796564 0.0013056694 -0.00375786 0.00204508 -0.001612121 0.0025578325 -0.0024069203 -0.0029953683 -0.0039301924 -0.0013392867 -0.0010278267 0.0033613015 -0.0022544744 -0.00408403 0.0007437102 -0.0013367512 -0.0039771977 0.0014646276 -0.0046049105 -0.0035429285 0.002523075 0.0015336574 -0.0028324374 -0.00012954173 -0.00011436503 0.0033693966 0.0005320393 -0.0012477309 -0.0019397984 0.0031945358 0.001689157 0.0025608845 -0.0014580598 -0.0046648467 0.0037446262 0.001755022 -0.004224958 -0.0018550992 0.003448966 -0.003208132 0.004316834 -0.0036016735 0.004184281 0.003424969 0.00021153742 0.0031756563 0.00141264 0.00029491118 0.0008427954 -0.00028945017 0.002308901 -0.0039864387 -0.0026740553 -0.00094168907 -0.0018649705 0.0027478097 -0.00039679793 -0.002891458 -0.0024888199 0.0012752287 0.0022252153 0.003448862 
CSNK1G1	0.0035537656 -0.0020633708 -0.002340358 0.0015796553 0.0031801583 0.0020487092 -0.0027386157 -0.000118620126 -0.0045084837 0.004943273 0.0045436854 0.0008894314 0.0029131104 0.00064068387 0.00067714974 0.003910858 -0.001958177 0.004774513 -0.004020984 0.0031518685 0.003535812 0.004400856 0.0014697249 0.0021783523 0.001143128 0.0014884099 0.002476132 0.0010065319 -0.0025724967 0.0018561122 0.00047668262 -0.004497174 -0.0007310515 0.001962463 -0.004277256 0.0048687197 0.0020387399 0.0045906007 -0.0038615398 -0.004478591 -0.004236266 -0.0007806485 -0.003157436 0.00039833316 0.0020155308 -0.0037863504 0.0011189835 -0.0018821137 0.0015140077 0.0017930358 -0.0020109261 -0.0010027714 -0.0043225377 -0.0012638202 0.0023913353 0.0046938118 -0.00046057106 0.0023831571 -0.0031235174 -0.003378938 0.0015099206 -0.0014428111 -0.0021432263 -0.0026207278 0.003716152 -0.0030431575 0.0020320385 0.0031394486 -0.000373335 0.0018789696 -0.0025987327 0.003460109 0.0042867744 -0.004001111 0.002479089 -0.0008020947 -0.002360618 0.001727153 0.0028658018 0.0027950613 -0.0009286201 -0.0027531378 0.001571812 -0.0049361046 0.00038667046 -0.0035403639 0.0011316995 -0.0039332216 0.0013315736 -0.0010977163 0.0019290046 -0.0010174364 -0.004375852 0.0040639266 -0.0022504013 -0.003520163 -0.0015628766 -0.0023900238 -0.001966562 0.0009995439 
MAS1	0.004983606 -0.00069090456 -0.0011377766 -0.0044408836 0.0014875346 0.00092372275 -0.00096671126 0.0026847695 0.004090985 -0.0035544508 0.004397624 0.0025655478 -0.00022863963 0.0029269336 -0.004497164 0.0030681335 0.0024263477 0.0018549811 0.0040082647 0.0037064739 -0.00315936 -0.002896357 -0.0021251335 -0.004475613 0.002134663 0.003666841 2.022614e-05 -0.0039077727 -0.0032875189 -0.004787513 0.00061026576 -0.004318519 0.0011135419 -0.004705627 0.00019420998 -0.0026976191 -0.0034760006 -0.0003279038 -0.0008792133 0.0010763282 -0.00076770864 0.003386875 -0.0018130438 0.0043643042 0.0049451385 -0.0040843985 -0.0007380521 -0.0006500656 0.0033628505 -0.0010643802 -0.002450928 -0.00041261374 0.0026971246 0.003909148 -0.0028668093 -0.0037212255 0.00037273206 0.004810595 -0.0032573997 -0.0014765377 0.0032400591 -0.0037381921 0.00045208322 -0.0027165273 -0.0006640023 0.0018168223 0.002551721 0.00061506324 0.0025897387 -0.0034315148 -0.0044846395 0.0032023592 0.004944685 0.0042770873 0.0009328506 -0.0014717169 -0.0032371092 -0.004425158 0.0032452962 0.00010126502 -0.00047527815 0.0029464758 0.00063160196 -0.0009387682 7.670227e-05 -0.0025461211 0.0047066812 -0.0045426586 -0.0044386745 -0.0013616966 -0.00043924095 0.0048778295 -0.0045959316 -0.0036068314 0.0019979773 0.002885727 -0.00224684 -0.0045299614 -0.0007804847 0.0038971682 
PTGFR	-0.0008614734 0.00015822846 0.0008362603 -0.0020268292 0.00026864486 0.002695565 -0.0027499252 0.0003224865 0.0033100294 0.0048679262 0.0032378475 -0.00043196764 -0.0048318743 0.00075379724 -0.004280714 0.0016468018 0.0031046337 0.0017831518 -0.0011672842 -0.0032519216 0.0020673259 0.0027098744 -0.0005597341 -0.0036461635 -0.0044418173 -0.0041623116 -0.004726844 0.0034436681 -0.0019745238 0.0021047995 0.0030533245 -0.0034598906 -0.0045680893 0.0004333049 0.0024429006 -0.00032419208 -0.0024999157 0.00015616567 -0.003679965 0.0005290979 -0.0030758784 0.004085095 0.004801287 0.0013825373 -0.0037383516 0.0018514078 -0.0006929097 0.0021965017 0.001958447 0.0031430942 0.002452588 0.0033299462 0.002799598 -0.0010194576 -0.0042042215 -0.004116404 -0.00072300335 -0.0036433847 0.0012240418 -0.003287522 -0.0026802549 -0.002999263 0.0005907247 2.3013527e-05 -0.0043547405 -0.0048574284 -0.003532023 0.0017757426 -0.00092573033 0.0025737418 -0.0049061915 -0.004020111 0.0010486066 0.0005625582 -0.0012401204 0.0030985558 -0.0033720236 -0.0023967414 -0.0038213509 0.0033037972 -0.0019441791 0.003559947 -0.002693137 -0.003836492 0.0009689067 -0.00083402725 0.0029964144 0.0026447847 -0.0016685487 0.00484227 0.00035969476 0.0034157436 -0.0018609515 0.0032989208 -0.0048220726 0.004317734 -0.0033426401 2.4738795e-06 -0.0022763293 0.00076428574 
NRBP2	-0.0019878382 0.00089531066 0.003029635 0.0019219393 0.0015749228 0.0037904375 0.00023299204 0.0035679198 0.0047580623 0.000427857 0.002112239 -0.0010582668 0.0013312137 -0.003992261 -0.004521871 -0.003952662 0.0017426818 -0.0038133794 0.0024013007 -0.0021137781 -0.00033953774 0.0010542105 -0.0037417593 0.0032997888 0.0027776745 -0.0002784258 -0.0012596328 0.0014273116 -0.002406299 -0.003566603 0.0017680348 0.0035945936 0.003071333 0.0047302716 0.00023733787 -0.00031334063 0.0023967233 0.0024306176 -0.0042881854 0.0028111637 0.0016496892 -0.0030752996 0.002299161 -0.0036710186 0.0017719665 -0.004354783 -0.003125279 -0.0018404362 0.000552421 0.0036908218 0.0046765646 0.002516374 0.0029633387 0.0019297027 -0.0047240783 0.0018177915 0.00093752705 -0.001793234 7.149568e-05 0.004696526 0.00038471125 -0.0012227792 0.00041617587 -0.0037810213 0.0008936513 -0.0032136212 -0.0044366396 0.0034462425 -0.003979008 -0.0038712726 -0.004335828 0.004592198 -0.004927023 -0.0025827684 -9.9831224e-05 -0.0011573115 -0.0037185063 -0.0025474613 -0.0032761001 -0.0027879549 -0.0049407547 -0.003366118 0.002477076 -0.0040831896 -0.0012341535 -0.0008094284 0.0034344764 0.0031427748 0.0005077388 -0.0028257668 0.003803517 -0.00473856 -0.0040307585 0.00079204614 -0.004707837 0.000775807 -0.00075628195 -0.0013303813 -0.004807834 -0.004895847 
